{"learner":{"attributes":{"scikit_learn":"{\"_estimator_type\": \"classifier\"}"},"feature_names":[],"feature_types":[],"gradient_booster":{"model":{"gbtree_model_param":{"num_parallel_tree":"1","num_trees":"450"},"iteration_indptr":[0,3,6,9,12,15,18,21,24,27,30,33,36,39,42,45,48,51,54,57,60,63,66,69,72,75,78,81,84,87,90,93,96,99,102,105,108,111,114,117,120,123,126,129,132,135,138,141,144,147,150,153,156,159,162,165,168,171,174,177,180,183,186,189,192,195,198,201,204,207,210,213,216,219,222,225,228,231,234,237,240,243,246,249,252,255,258,261,264,267,270,273,276,279,282,285,288,291,294,297,300,303,306,309,312,315,318,321,324,327,330,333,336,339,342,345,348,351,354,357,360,363,366,369,372,375,378,381,384,387,390,393,396,399,402,405,408,411,414,417,420,423,426,429,432,435,438,441,444,447,450],"tree_info":[0,1,2,0,1,2,0,1,2,0,1,2,0,1,2,0,1,2,0,1,2,0,1,2,0,1,2,0,1,2,0,1,2,0,1,2,0,1,2,0,1,2,0,1,2,0,1,2,0,1,2,0,1,2,0,1,2,0,1,2,0,1,2,0,1,2,0,1,2,0,1,2,0,1,2,0,1,2,0,1,2,0,1,2,0,1,2,0,1,2,0,1,2,0,1,2,0,1,2,0,1,2,0,1,2,0,1,2,0,1,2,0,1,2,0,1,2,0,1,2,0,1,2,0,1,2,0,1,2,0,1,2,0,1,2,0,1,2,0,1,2,0,1,2,0,1,2,0,1,2,0,1,2,0,1,2,0,1,2,0,1,2,0,1,2,0,1,2,0,1,2,0,1,2,0,1,2,0,1,2,0,1,2,0,1,2,0,1,2,0,1,2,0,1,2,0,1,2,0,1,2,0,1,2,0,1,2,0,1,2,0,1,2,0,1,2,0,1,2,0,1,2,0,1,2,0,1,2,0,1,2,0,1,2,0,1,2,0,1,2,0,1,2,0,1,2,0,1,2,0,1,2,0,1,2,0,1,2,0,1,2,0,1,2,0,1,2,0,1,2,0,1,2,0,1,2,0,1,2,0,1,2,0,1,2,0,1,2,0,1,2,0,1,2,0,1,2,0,1,2,0,1,2,0,1,2,0,1,2,0,1,2,0,1,2,0,1,2,0,1,2,0,1,2,0,1,2,0,1,2,0,1,2,0,1,2,0,1,2,0,1,2,0,1,2,0,1,2,0,1,2,0,1,2,0,1,2,0,1,2,0,1,2,0,1,2,0,1,2,0,1,2,0,1,2,0,1,2,0,1,2,0,1,2,0,1,2,0,1,2,0,1,2,0,1,2,0,1,2,0,1,2,0,1,2,0,1,2,0,1,2,0,1,2,0,1,2,0,1,2,0,1,2,0,1,2,0,1,2,0,1,2,0,1,2,0,1,2,0,1,2,0,1,2,0,1,2,0,1,2],"trees":[{"base_weights":[-4.1038993E-1,1.183578E-1,-5.6355274E-1,1.8892424E-1,1.50160445E-2,-6.87541E-1,7.7162854E-2,1.7184688E-2,5.1776648E-2,-5.5361646E-3,1.9101119E-2,1.8322695E-2,-7.381271E-2,-2.5573775E-2,1.0554457E-2],"categories":[],"categories_nodes":[],"categories_segments":[],"categories_sizes":[],"default_left":[0,0,0,0,0,0,0,0,0,0,0,0,0,0,0],"id":0,"left_children":[1,3,5,7,9,11,13,-1,-1,-1,-1,-1,-1,-1,-1],"loss_changes":[2.749552E2,5.562929E0,2.0915106E2,2.4574604E0,3.859909E0,9.7282104E1,4.0677094E0,0E0,0E0,0E0,0E0,0E0,0E0,0E0,0E0],"parents":[2147483647,0,0,1,1,2,2,3,3,4,4,5,5,6,6],"right_children":[2,4,6,8,10,12,14,-1,-1,-1,-1,-1,-1,-1,-1],"split_conditions":[6.01E1,2.01E1,8.1E1,1.17E2,9.87E1,5.04E1,1.06E2,1.7184688E-2,5.1776648E-2,-5.5361646E-3,1.9101119E-2,1.8322695E-2,-7.381271E-2,-2.5573775E-2,1.0554457E-2],"split_indices":[3,0,2,1,5,6,4,0,0,0,0,0,0,0,0],"split_type":[0,0,0,0,0,0,0,0,0,0,0,0,0,0,0],"sum_hessian":[3.3933333E3,7.6222217E2,2.6311108E3,4.5244443E2,3.0977777E2,2.2044443E3,4.2666663E2,4.3155554E2,2.0888887E1,2.2177777E2,8.799999E1,1.20888885E2,2.0835554E3,3.2888885E1,3.9377774E2],"tree_param":{"num_deleted":"0","num_feature":"7","num_nodes":"15","size_leaf_vector":"1"}},{"base_weights":[-2.401061E-1,5.572863E-1,-4.7123143E-1,4.7183612E-1,6.8167084E-1,-6.694041E-1,5.518316E-1,5.0071817E-2,3.052464E-2,7.250755E-2,4.5415774E-2,4.7037374E-2,-7.3572844E-2,4.4954523E-2,7.010975E-2],"categories":[],"categories_nodes":[],"categories_segments":[],"categories_sizes":[],"default_left":[0,0,0,0,0,0,0,0,0,0,0,0,0,0,0],"id":1,"left_children":[1,3,5,7,9,11,13,-1,-1,-1,-1,-1,-1,-1,-1],"loss_changes":[6.258301E2,7.7904205E0,5.340117E2,2.0395813E0,2.7177277E0,1.6706677E2,6.2143707E0,0E0,0E0,0E0,0E0,0E0,0E0,0E0,0E0],"parents":[2147483647,0,0,1,1,2,2,3,3,4,4,5,5,6,6],"right_children":[2,4,6,8,10,12,14,-1,-1,-1,-1,-1,-1,-1,-1],"split_conditions":[6.01E1,2.1E1,8.1E1,1.91E1,5.8E1,5.04E1,2.07E1,5.0071817E-2,3.052464E-2,7.250755E-2,4.5415774E-2,4.7037374E-2,-7.3572844E-2,4.4954523E-2,7.010975E-2],"split_indices":[3,0,2,0,3,6,0,0,0,0,0,0,0,0,0],"split_type":[0,0,0,0,0,0,0,0,0,0,0,0,0,0,0],"sum_hessian":[3.3933333E3,7.6222217E2,2.6311108E3,4.5466663E2,3.0755554E2,2.2044443E3,4.2666663E2,3.8577774E2,6.8888885E1,2.5644443E2,5.1111107E1,1.20888885E2,2.0835554E3,2.5555554E2,1.711111E2],"tree_param":{"num_deleted":"0","num_feature":"7","num_nodes":"15","size_leaf_vector":"1"}},{"base_weights":[6.504959E-1,-6.756443E-1,1.0347841E0,-6.9184345E-1,-4.10072E-1,1.3569449E0,-6.289946E-1,-2.376238E-2,-6.980689E-2,1.1707317E-1,-5.6883123E-2,-6.5360084E-2,1.4738554E-1,-6.375295E-2,4.054054E-2],"categories":[],"categories_nodes":[],"categories_segments":[],"categories_sizes":[],"default_left":[0,0,0,0,0,0,0,0,0,0,0,0,0,0,0],"id":2,"left_children":[1,3,5,7,9,11,13,-1,-1,-1,-1,-1,-1,-1,-1],"loss_changes":[1.7305192E3,2.9997253E0,1.4116768E3,1.8641052E0,1.2294094E1,5.193613E2,4.0341034E0,0E0,0E0,0E0,0E0,0E0,0E0,0E0,0E0],"parents":[2147483647,0,0,1,1,2,2,3,3,4,4,5,5,6,6],"right_children":[2,4,6,8,10,12,14,-1,-1,-1,-1,-1,-1,-1,-1],"split_conditions":[6.01E1,5.94E1,8.1E1,7.4E1,6E1,5.04E1,1.36E2,-2.376238E-2,-6.980689E-2,1.1707317E-1,-5.6883123E-2,-6.5360084E-2,1.4738554E-1,-6.375295E-2,4.054054E-2],"split_indices":[3,3,2,4,3,6,2,0,0,0,0,0,0,0,0],"split_type":[0,0,0,0,0,0,0,0,0,0,0,0,0,0,0],"sum_hessian":[3.3933333E3,7.6222217E2,2.6311108E3,7.1688885E2,4.5333332E1,2.2044443E3,4.2666663E2,1.0222221E1,7.066666E2,3.5555553E0,4.1777775E1,1.20888885E2,2.0835554E3,4.2355554E2,3.111111E0],"tree_param":{"num_deleted":"0","num_feature":"7","num_nodes":"15","size_leaf_vector":"1"}},{"base_weights":[-3.871753E-1,1.09835416E-1,-5.366088E-1,1.7366003E-1,1.5490922E-2,-6.5946496E-1,7.193112E-2,3.105147E-2,1.3497688E-2,-5.1551736E-3,1.817828E-2,1.6889788E-2,-7.1007125E-2,-1.07733235E-2,1.2129276E-2],"categories":[],"categories_nodes":[],"categories_segments":[],"categories_sizes":[],"default_left":[0,0,0,0,0,0,0,0,0,0,0,0,0,0,0],"id":3,"left_children":[1,3,5,7,9,11,13,-1,-1,-1,-1,-1,-1,-1,-1],"loss_changes":[2.4627591E2,4.6168213E0,1.9061707E2,2.3800926E0,3.4728916E0,8.902991E1,3.8182642E0,0E0,0E0,0E0,0E0,0E0,0E0,0E0,0E0],"parents":[2147483647,0,0,1,1,2,2,3,3,4,4,5,5,6,6],"right_children":[2,4,6,8,10,12,14,-1,-1,-1,-1,-1,-1,-1,-1],"split_conditions":[6.01E1,2.01E1,8.1E1,7.4E1,9.87E1,5.04E1,1.17E2,3.105147E-2,1.3497688E-2,-5.1551736E-3,1.817828E-2,1.6889788E-2,-7.1007125E-2,-1.07733235E-2,1.2129276E-2],"split_indices":[3,0,2,1,5,6,4,0,0,0,0,0,0,0,0],"split_type":[0,0,0,0,0,0,0,0,0,0,0,0,0,0,0],"sum_hessian":[3.3141582E3,7.6616956E2,2.5479888E3,4.5650232E2,3.0966724E2,2.1199211E3,4.280676E2,9.905056E1,3.5745175E2,2.211841E2,8.8483154E1,1.2191908E2,1.998002E3,9.200591E1,3.3606168E2],"tree_param":{"num_deleted":"0","num_feature":"7","num_nodes":"15","size_leaf_vector":"1"}},{"base_weights":[-2.2436716E-1,5.022525E-1,-4.4653812E-1,4.2653352E-1,6.115261E-1,-6.41448E-1,4.9740013E-1,3.0309115E-2,4.596438E-2,1.0169717E-1,5.8727253E-2,3.9680474E-2,-7.096058E-2,4.0401097E-2,6.32788E-2],"categories":[],"categories_nodes":[],"categories_segments":[],"categories_sizes":[],"default_left":[0,0,0,0,0,0,0,0,0,0,0,0,0,0,0],"id":4,"left_children":[1,3,5,7,9,11,13,-1,-1,-1,-1,-1,-1,-1,-1],"loss_changes":[5.3988745E2,6.21994E0,4.7143997E2,1.7652054E0,2.5326538E0,1.5050592E2,5.29261E0,0E0,0E0,0E0,0E0,0E0,0E0,0E0,0E0],"parents":[2147483647,0,0,1,1,2,2,3,3,4,4,5,5,6,6],"right_children":[2,4,6,8,10,12,14,-1,-1,-1,-1,-1,-1,-1,-1],"split_conditions":[6.01E1,2.1E1,8.1E1,7.4E1,6.6E1,5.11E1,2.07E1,3.0309115E-2,4.596438E-2,1.0169717E-1,5.8727253E-2,3.9680474E-2,-7.096058E-2,4.0401097E-2,6.32788E-2],"split_indices":[3,0,2,1,1,6,0,0,0,0,0,0,0,0,0],"split_type":[0,0,0,0,0,0,0,0,0,0,0,0,0,0,0],"sum_hessian":[3.3419382E3,7.822606E2,2.5596775E3,4.6497122E2,3.172894E2,2.1218633E3,4.3781433E2,1.00487076E2,3.6448413E2,1.5598514E1,3.016909E2,1.3041522E2,1.991448E3,2.6145172E2,1.7636261E2],"tree_param":{"num_deleted":"0","num_feature":"7","num_nodes":"15","size_leaf_vector":"1"}},{"base_weights":[5.8376145E-1,-6.488532E-1,9.136978E-1,-6.651835E-1,-3.842286E-1,1.1817389E0,-6.0236716E-1,-2.1498477E-2,-6.714798E-2,1.1094945E-1,-5.42656E-2,-6.2704116E-2,1.2771839E-1,-6.1097283E-2,4.011072E-2],"categories":[],"categories_nodes":[],"categories_segments":[],"categories_sizes":[],"default_left":[0,0,0,0,0,0,0,0,0,0,0,0,0,0,0],"id":5,"left_children":[1,3,5,7,9,11,13,-1,-1,-1,-1,-1,-1,-1,-1],"loss_changes":[1.4173196E3,2.9255981E0,1.1175918E3,1.8171692E0,1.1288109E1,4.0406226E2,3.8165588E0,0E0,0E0,0E0,0E0,0E0,0E0,0E0,0E0],"parents":[2147483647,0,0,1,1,2,2,3,3,4,4,5,5,6,6],"right_children":[2,4,6,8,10,12,14,-1,-1,-1,-1,-1,-1,-1,-1],"split_conditions":[6.01E1,5.94E1,8.1E1,7.4E1,6E1,5.04E1,1.36E2,-2.1498477E-2,-6.714798E-2,1.1094945E-1,-5.42656E-2,-6.2704116E-2,1.2771839E-1,-6.1097283E-2,4.011072E-2],"split_indices":[3,3,2,4,3,6,2,0,0,0,0,0,0,0,0],"split_type":[0,0,0,0,0,0,0,0,0,0,0,0,0,0,0],"sum_hessian":[3.4826028E3,7.3515564E2,2.747447E3,6.9099963E2,4.4156063E1,2.3348628E3,4.1258432E2,1.0015424E1,6.809842E2,3.6585436E0,4.049752E1,1.167507E2,2.218112E3,4.09464E2,3.1203437E0],"tree_param":{"num_deleted":"0","num_feature":"7","num_nodes":"15","size_leaf_vector":"1"}},{"base_weights":[-3.652671E-1,1.02781974E-1,-5.117353E-1,3.702598E-2,1.8809758E-1,-6.3429433E-1,6.785746E-2,1.9261962E-3,8.726378E-2,-5.323707E-3,2.3016546E-2,1.5565015E-2,-6.852649E-2,-2.4290869E-2,9.389638E-3],"categories":[],"categories_nodes":[],"categories_segments":[],"categories_sizes":[],"default_left":[0,0,0,0,0,0,0,0,0,0,0,0,0,0,0],"id":6,"left_children":[1,3,5,7,9,11,13,-1,-1,-1,-1,-1,-1,-1,-1],"loss_changes":[2.2137296E2,4.3144846E0,1.7472229E2,6.459061E0,3.4137554E0,8.1840576E1,3.5034328E0,0E0,0E0,0E0,0E0,0E0,0E0,0E0,0E0],"parents":[2147483647,0,0,1,1,2,2,3,3,4,4,5,5,6,6],"right_children":[2,4,6,8,10,12,14,-1,-1,-1,-1,-1,-1,-1,-1],"split_conditions":[6.01E1,9.78E1,8.1E1,1.27E2,3.8E1,5.04E1,1.06E2,1.9261962E-3,8.726378E-2,-5.323707E-3,2.3016546E-2,1.5565015E-2,-6.852649E-2,-2.4290869E-2,9.389638E-3],"split_indices":[3,5,2,1,6,6,4,0,0,0,0,0,0,0,0],"split_type":[0,0,0,0,0,0,0,0,0,0,0,0,0,0,0],"sum_hessian":[3.2273938E3,7.6931E2,2.4580837E3,4.3526706E2,3.3404294E2,2.0289529E3,4.2913077E2,4.2720822E2,8.05884E0,4.9545464E1,2.844975E2,1.2285691E2,1.906096E3,3.253286E1,3.9659793E2],"tree_param":{"num_deleted":"0","num_feature":"7","num_nodes":"15","size_leaf_vector":"1"}},{"base_weights":[-2.0974986E-1,4.5502195E-1,-4.2394876E-1,3.8725525E-1,5.5225825E-1,-6.163599E-1,4.5049858E-1,4.1331988E-2,2.368716E-2,9.232575E-2,5.299586E-2,3.6246337E-2,-6.848063E-2,3.643215E-2,5.7491343E-2],"categories":[],"categories_nodes":[],"categories_segments":[],"categories_sizes":[],"default_left":[0,0,0,0,0,0,0,0,0,0,0,0,0,0,0],"id":7,"left_children":[1,3,5,7,9,11,13,-1,-1,-1,-1,-1,-1,-1,-1],"loss_changes":[4.6712323E2,5.054947E0,4.1764166E2,1.7621613E0,2.2081223E0,1.3649402E2,4.593399E0,0E0,0E0,0E0,0E0,0E0,0E0,0E0,0E0],"parents":[2147483647,0,0,1,1,2,2,3,3,4,4,5,5,6,6],"right_children":[2,4,6,8,10,12,14,-1,-1,-1,-1,-1,-1,-1,-1],"split_conditions":[6.01E1,2.1E1,8.1E1,1.91E1,6.6E1,5.11E1,2.07E1,4.1331988E-2,2.368716E-2,9.232575E-2,5.299586E-2,3.6246337E-2,-6.848063E-2,3.643215E-2,5.7491343E-2],"split_indices":[3,0,2,0,1,6,0,0,0,0,0,0,0,0,0],"split_type":[0,0,0,0,0,0,0,0,0,0,0,0,0,0,0],"sum_hessian":[3.2781575E3,7.9858966E2,2.4795679E3,4.7354544E2,3.250442E2,2.0326122E3,4.4695557E2,4.021041E2,7.144137E1,1.6138943E1,3.0890524E2,1.3256471E2,1.9000475E3,2.6637604E2,1.8057954E2],"tree_param":{"num_deleted":"0","num_feature":"7","num_nodes":"15","size_leaf_vector":"1"}},{"base_weights":[5.3039885E-1,-6.252882E-1,8.21326E-1,-6.4185494E-1,-3.60004E-1,1.0524914E0,-5.7853156E-1,-1.9478295E-2,-6.482548E-2,1.058228E-1,-5.1839706E-2,-6.0383048E-2,1.1337917E-1,-5.8722824E-2,3.9483827E-2],"categories":[],"categories_nodes":[],"categories_segments":[],"categories_sizes":[],"default_left":[0,0,0,0,0,0,0,0,0,0,0,0,0,0,0],"id":8,"left_children":[1,3,5,7,9,11,13,-1,-1,-1,-1,-1,-1,-1,-1],"loss_changes":[1.1840266E3,2.88266E0,9.1075134E2,1.7780151E0,1.0414858E1,3.25792E2,3.61174E0,0E0,0E0,0E0,0E0,0E0,0E0,0E0,0E0],"parents":[2147483647,0,0,1,1,2,2,3,3,4,4,5,5,6,6],"right_children":[2,4,6,8,10,12,14,-1,-1,-1,-1,-1,-1,-1,-1],"split_conditions":[6.01E1,5.94E1,8.1E1,7.4E1,6E1,5.04E1,1.36E2,-1.9478295E-2,-6.482548E-2,1.058228E-1,-5.1839706E-2,-6.0383048E-2,1.1337917E-1,-5.8722824E-2,3.9483827E-2],"split_indices":[3,3,2,4,3,6,2,0,0,0,0,0,0,0,0],"split_type":[0,0,0,0,0,0,0,0,0,0,0,0,0,0,0],"sum_hessian":[3.519047E3,7.074811E2,2.8115662E3,6.645603E2,4.2920773E1,2.413295E3,3.9827115E2,9.8225765E0,6.5473773E2,3.7412286E0,3.9179543E1,1.1261311E2,2.300682E3,3.9513745E2,3.1337018E0],"tree_param":{"num_deleted":"0","num_feature":"7","num_nodes":"15","size_leaf_vector":"1"}},{"base_weights":[-3.4446675E-1,9.694971E-2,-4.8860124E-1,3.5143886E-2,1.7671946E-1,-6.1158615E-1,6.463953E-2,1.8201454E-3,8.141076E-2,1.9469203E-2,-3.5164565E-2,1.4410831E-2,-6.632696E-2,-1.0214443E-2,1.0996408E-2],"categories":[],"categories_nodes":[],"categories_segments":[],"categories_sizes":[],"default_left":[0,0,0,0,0,0,0,0,0,0,0,0,0,0,0],"id":9,"left_children":[1,3,5,7,9,11,13,-1,-1,-1,-1,-1,-1,-1,-1],"loss_changes":[1.9959335E2,3.8041525E0,1.6092126E2,5.748662E0,3.2700462E0,7.565387E1,3.268856E0,0E0,0E0,0E0,0E0,0E0,0E0,0E0,0E0],"parents":[2147483647,0,0,1,1,2,2,3,3,4,4,5,5,6,6],"right_children":[2,4,6,8,10,12,14,-1,-1,-1,-1,-1,-1,-1,-1],"split_conditions":[6.01E1,9.78E1,8.1E1,1.27E2,1.24E2,5.04E1,1.17E2,1.8201454E-3,8.141076E-2,1.9469203E-2,-3.5164565E-2,1.4410831E-2,-6.632696E-2,-1.0214443E-2,1.0996408E-2],"split_indices":[3,5,2,1,1,6,4,0,0,0,0,0,0,0,0],"split_type":[0,0,0,0,0,0,0,0,0,0,0,0,0,0,0],"sum_hessian":[3.1353638E3,7.7185645E2,2.3635073E3,4.3570868E2,3.3614777E2,1.9335708E3,4.2993643E2,4.2743533E2,8.273337E0,3.2570044E2,1.044733E1,1.2366099E2,1.8099098E3,9.1603355E1,3.383331E2],"tree_param":{"num_deleted":"0","num_feature":"7","num_nodes":"15","size_leaf_vector":"1"}},{"base_weights":[-1.9608586E-1,4.1391248E-1,-4.031088E-1,3.5099334E-1,5.04069E-1,-5.937055E-1,4.096255E-1,3.750855E-2,2.1158205E-2,5.405589E-2,3.129577E-2,3.322163E-2,-6.627988E-2,3.29553E-2,5.2494414E-2],"categories":[],"categories_nodes":[],"categories_segments":[],"categories_sizes":[],"default_left":[0,0,0,0,0,0,0,0,0,0,0,0,0,0,0],"id":10,"left_children":[1,3,5,7,9,11,13,-1,-1,-1,-1,-1,-1,-1,-1],"loss_changes":[4.050257E2,4.433975E0,3.711012E2,1.5396385E0,2.1447678E0,1.2431384E2,4.0319595E0,0E0,0E0,0E0,0E0,0E0,0E0,0E0,0E0],"parents":[2147483647,0,0,1,1,2,2,3,3,4,4,5,5,6,6],"right_children":[2,4,6,8,10,12,14,-1,-1,-1,-1,-1,-1,-1,-1],"split_conditions":[6.01E1,2.1E1,8.1E1,1.91E1,5.8E1,5.11E1,2.07E1,3.750855E-2,2.1158205E-2,5.405589E-2,3.129577E-2,3.322163E-2,-6.627988E-2,3.29553E-2,5.2494414E-2],"split_indices":[3,0,2,0,3,6,0,0,0,0,0,0,0,0,0],"split_type":[0,0,0,0,0,0,0,0,0,0,0,0,0,0,0],"sum_hessian":[3.2049485E3,8.118405E2,2.393108E3,4.8102917E2,3.3081134E2,1.9387222E3,4.543859E2,4.0870834E2,7.232085E1,2.7623898E2,5.457234E1,1.3435934E2,1.8043628E3,2.704525E2,1.8393338E2],"tree_param":{"num_deleted":"0","num_feature":"7","num_nodes":"15","size_leaf_vector":"1"}},{"base_weights":[4.865984E-1,-6.0433704E-1,7.486016E-1,-6.211958E-1,-3.3774772E-1,9.535516E-1,-5.5693144E-1,-1.7738746E-2,-6.277197E-2,1.0119505E-1,-4.9613465E-2,-5.8292817E-2,1.02502525E-1,-5.6574352E-2,3.8882334E-2],"categories":[],"categories_nodes":[],"categories_segments":[],"categories_sizes":[],"default_left":[0,0,0,0,0,0,0,0,0,0,0,0,0,0,0],"id":11,"left_children":[1,3,5,7,9,11,13,-1,-1,-1,-1,-1,-1,-1,-1],"loss_changes":[1.0043298E3,2.8495178E0,7.584105E2,1.7388306E0,9.625518E0,2.6948755E2,3.4282303E0,0E0,0E0,0E0,0E0,0E0,0E0,0E0,0E0],"parents":[2147483647,0,0,1,1,2,2,3,3,4,4,5,5,6,6],"right_children":[2,4,6,8,10,12,14,-1,-1,-1,-1,-1,-1,-1,-1],"split_conditions":[6.01E1,5.94E1,8.1E1,7.4E1,6E1,5.04E1,1.36E2,-1.7738746E-2,-6.277197E-2,1.0119505E-1,-4.9613465E-2,-5.8292817E-2,1.02502525E-1,-5.6574352E-2,3.8882334E-2],"split_indices":[3,3,2,4,3,6,2,0,0,0,0,0,0,0,0],"split_type":[0,0,0,0,0,0,0,0,0,0,0,0,0,0,0],"sum_hessian":[3.5111655E3,6.7970135E2,2.831464E3,6.3802344E2,4.1677925E1,2.4475098E3,3.8395438E2,9.651226E0,6.283722E2,3.8112402E0,3.7866684E1,1.0847386E2,2.339036E3,3.8080798E2,3.146389E0],"tree_param":{"num_deleted":"0","num_feature":"7","num_nodes":"15","size_leaf_vector":"1"}},{"base_weights":[-3.2463965E-1,5.877057E-2,-4.7939324E-1,1.2097786E-1,-1.3417247E-1,-6.0516405E-1,5.8906298E-2,5.2355034E-3,2.1111306E-2,-4.3515813E-2,4.4108634E-3,1.0617091E-2,-6.486457E-2,-3.856205E-4,1.8404152E-2],"categories":[],"categories_nodes":[],"categories_segments":[],"categories_sizes":[],"default_left":[0,0,0,0,0,0,0,0,0,0,0,0,0,0,0],"id":12,"left_children":[1,3,5,7,9,11,13,-1,-1,-1,-1,-1,-1,-1,-1],"loss_changes":[1.804672E2,1.0522896E1,1.4672577E2,4.0866003E0,1.1496883E1,5.439496E1,3.2307358E0,0E0,0E0,0E0,0E0,0E0,0E0,0E0,0E0],"parents":[2147483647,0,0,1,1,2,2,3,3,4,4,5,5,6,6],"right_children":[2,4,6,8,10,12,14,-1,-1,-1,-1,-1,-1,-1,-1],"split_conditions":[6.11E1,7.61E1,8.1E1,9.76E1,5.58E1,5.04E1,1.36E2,5.2355034E-3,2.1111306E-2,-4.3515813E-2,4.4108634E-3,1.0617091E-2,-6.486457E-2,-3.856205E-4,1.8404152E-2],"split_indices":[3,2,2,5,6,6,4,0,0,0,0,0,0,0,0],"split_type":[0,0,0,0,0,0,0,0,0,0,0,0,0,0,0],"sum_hessian":[3.040067E3,8.7437555E2,2.1656912E3,6.614792E2,2.1289633E2,1.755422E3,4.1026926E2,3.7645367E2,2.850255E2,7.865873E1,1.3423761E2,1.0103883E2,1.6543832E3,2.7387457E2,1.3639467E2],"tree_param":{"num_deleted":"0","num_feature":"7","num_nodes":"15","size_leaf_vector":"1"}},{"base_weights":[-1.83253E-1,3.7775877E-1,-3.8373148E-1,3.191438E-1,4.6171176E-1,-5.731141E-1,3.7363037E-1,4.5982547E-2,2.9578319E-2,8.053998E-2,4.4123705E-2,3.0615846E-2,-6.435155E-2,2.9869957E-2,4.8144173E-2],"categories":[],"categories_nodes":[],"categories_segments":[],"categories_sizes":[],"default_left":[0,0,0,0,0,0,0,0,0,0,0,0,0,0,0],"id":13,"left_children":[1,3,5,7,9,11,13,-1,-1,-1,-1,-1,-1,-1,-1],"loss_changes":[3.5171863E2,3.904831E0,3.3059982E2,1.4682426E0,2.0112762E0,1.1428656E2,3.583374E0,0E0,0E0,0E0,0E0,0E0,0E0,0E0,0E0],"parents":[2147483647,0,0,1,1,2,2,3,3,4,4,5,5,6,6],"right_children":[2,4,6,8,10,12,14,-1,-1,-1,-1,-1,-1,-1,-1],"split_conditions":[6.01E1,2.1E1,8.1E1,3.7E1,6.6E1,1.141E2,2.07E1,4.5982547E-2,2.9578319E-2,8.053998E-2,4.4123705E-2,3.0615846E-2,-6.435155E-2,2.9869957E-2,4.8144173E-2],"split_indices":[3,0,2,6,1,4,0,0,0,0,0,0,0,0,0],"split_type":[0,0,0,0,0,0,0,0,0,0,0,0,0,0,0],"sum_hessian":[3.1249106E3,8.2246625E2,2.3024443E3,4.8714737E2,3.353189E2,1.8420681E3,4.6037625E2,6.671203E1,4.2043533E2,1.669755E1,3.1862134E2,1.3630817E2,1.7057599E3,2.7383008E2,1.8654619E2],"tree_param":{"num_deleted":"0","num_feature":"7","num_nodes":"15","size_leaf_vector":"1"}},{"base_weights":[4.4987202E-1,-5.854831E-1,6.898803E-1,-6.0262144E-1,-3.1838933E-1,8.7562764E-1,-5.371615E-1,-1.5971823E-2,-6.0931277E-2,9.67255E-2,-4.764035E-2,-5.639031E-2,9.4004154E-2,-5.460983E-2,3.8133327E-2],"categories":[],"categories_nodes":[],"categories_segments":[],"categories_sizes":[],"default_left":[0,0,0,0,0,0,0,0,0,0,0,0,0,0,0],"id":14,"left_children":[1,3,5,7,9,11,13,-1,-1,-1,-1,-1,-1,-1,-1],"loss_changes":[8.6214026E2,2.7979584E0,6.422218E2,1.7183075E0,8.892124E0,2.2732605E2,3.252037E0,0E0,0E0,0E0,0E0,0E0,0E0,0E0,0E0],"parents":[2147483647,0,0,1,1,2,2,3,3,4,4,5,5,6,6],"right_children":[2,4,6,8,10,12,14,-1,-1,-1,-1,-1,-1,-1,-1],"split_conditions":[6.01E1,5.94E1,8.1E1,7.4E1,6E1,5.04E1,1.36E2,-1.5971823E-2,-6.0931277E-2,9.67255E-2,-4.764035E-2,-5.639031E-2,9.4004154E-2,-5.460983E-2,3.8133327E-2],"split_indices":[3,3,2,4,3,6,2,0,0,0,0,0,0,0,0],"split_type":[0,0,0,0,0,0,0,0,0,0,0,0,0,0,0],"sum_hessian":[3.4668381E3,6.52147E2,2.8146912E3,6.1164404E2,4.0502926E1,2.4448767E3,3.698145E2,9.473302E0,6.021708E2,3.8726583E0,3.663027E1,1.0438196E2,2.3404949E3,3.666525E2,3.1620245E0],"tree_param":{"num_deleted":"0","num_feature":"7","num_nodes":"15","size_leaf_vector":"1"}},{"base_weights":[-3.056722E-1,5.7815515E-2,-4.590336E-1,1.0771447E-1,-1.501597E-1,-5.867296E-1,5.70773E-2,5.3203655E-3,1.7712435E-2,-4.55549E-2,7.417336E-4,9.830221E-3,-6.313879E-2,-2.7180207E-4,1.7564343E-2],"categories":[],"categories_nodes":[],"categories_segments":[],"categories_sizes":[],"default_left":[0,0,0,0,0,0,0,0,0,0,0,0,0,0,0],"id":15,"left_children":[1,3,5,7,9,11,13,-1,-1,-1,-1,-1,-1,-1,-1],"loss_changes":[1.6417062E2,9.092623E0,1.3651978E2,2.6616068E0,8.167582E0,5.085376E1,2.919118E0,0E0,0E0,0E0,0E0,0E0,0E0,0E0,0E0],"parents":[2147483647,0,0,1,1,2,2,3,3,4,4,5,5,6,6],"right_children":[2,4,6,8,10,12,14,-1,-1,-1,-1,-1,-1,-1,-1],"split_conditions":[6.11E1,7.71E1,8.1E1,9.76E1,5.58E1,5.04E1,1.36E2,5.3203655E-3,1.7712435E-2,-4.55549E-2,7.417336E-4,9.830221E-3,-6.313879E-2,-2.7180207E-4,1.7564343E-2],"split_indices":[3,2,2,5,6,6,4,0,0,0,0,0,0,0,0],"split_type":[0,0,0,0,0,0,0,0,0,0,0,0,0,0,0],"sum_hessian":[2.943553E3,8.736069E2,2.069946E3,7.049517E2,1.6865515E2,1.6592726E3,4.1067337E2,3.958437E2,3.0910803E2,5.676052E1,1.1189464E2,1.0147688E2,1.5577958E3,2.7364545E2,1.3702792E2],"tree_param":{"num_deleted":"0","num_feature":"7","num_nodes":"15","size_leaf_vector":"1"}},{"base_weights":[-1.7115036E-1,3.45806E-1,-3.6562535E-1,2.9083887E-1,4.2458132E-1,-5.5428565E-1,3.4148443E-1,3.040176E-2,6.740068E-3,4.5794263E-2,2.5021717E-2,2.8150631E-2,-6.259699E-2,2.7097706E-2,4.4295467E-2],"categories":[],"categories_nodes":[],"categories_segments":[],"categories_sizes":[],"default_left":[0,0,0,0,0,0,0,0,0,0,0,0,0,0,0],"id":16,"left_children":[1,3,5,7,9,11,13,-1,-1,-1,-1,-1,-1,-1,-1],"loss_changes":[3.0589923E2,3.4787598E0,2.950826E2,1.4317398E0,1.8616676E0,1.04745544E2,3.215248E0,0E0,0E0,0E0,0E0,0E0,0E0,0E0,0E0],"parents":[2147483647,0,0,1,1,2,2,3,3,4,4,5,5,6,6],"right_children":[2,4,6,8,10,12,14,-1,-1,-1,-1,-1,-1,-1,-1],"split_conditions":[6.01E1,2.1E1,8.1E1,1.15E2,5.8E1,1.141E2,2.07E1,3.040176E-2,6.740068E-3,4.5794263E-2,2.5021717E-2,2.8150631E-2,-6.259699E-2,2.7097706E-2,4.4295467E-2],"split_indices":[3,0,2,1,3,4,0,0,0,0,0,0,0,0,0],"split_type":[0,0,0,0,0,0,0,0,0,0,0,0,0,0,0],"sum_hessian":[3.0404536E3,8.309176E2,2.209536E3,4.9218045E2,3.3873712E2,1.7443508E3,4.651851E2,4.6442722E2,2.7753258E1,2.8296982E2,5.5767326E1,1.3756021E2,1.6067906E3,2.7663425E2,1.8855084E2],"tree_param":{"num_deleted":"0","num_feature":"7","num_nodes":"15","size_leaf_vector":"1"}},{"base_weights":[4.184939E-1,-5.683755E-1,6.4144486E-1,-6.04718E-1,-4.3295127E-1,8.128369E-1,-5.189442E-1,-2.261733E-2,-6.1505593E-2,-2.1674363E-2,-5.5732127E-2,-5.4701027E-2,8.721658E-2,-5.280229E-2,3.7465405E-2],"categories":[],"categories_nodes":[],"categories_segments":[],"categories_sizes":[],"default_left":[0,0,0,0,0,0,0,0,0,0,0,0,0,0,0],"id":17,"left_children":[1,3,5,7,9,11,13,-1,-1,-1,-1,-1,-1,-1,-1],"loss_changes":[7.472533E2,2.819641E0,5.512213E2,1.7827606E0,3.5359669E0,1.9519104E2,3.0942764E0,0E0,0E0,0E0,0E0,0E0,0E0,0E0,0E0],"parents":[2147483647,0,0,1,1,2,2,3,3,4,4,5,5,6,6],"right_children":[2,4,6,8,10,12,14,-1,-1,-1,-1,-1,-1,-1,-1],"split_conditions":[6.01E1,7.51E1,8.1E1,7.6E1,1.188E2,5.04E1,1.36E2,-2.261733E-2,-6.1505593E-2,-2.1674363E-2,-5.5732127E-2,-5.4701027E-2,8.721658E-2,-5.280229E-2,3.7465405E-2],"split_indices":[3,2,2,4,4,6,2,0,0,0,0,0,0,0,0],"split_type":[0,0,0,0,0,0,0,0,0,0,0,0,0,0,0],"sum_hessian":[3.3935864E3,6.250994E2,2.768487E3,4.9010828E2,1.3499112E2,2.412461E3,3.5602625E2,1.3637006E1,4.7647128E2,5.0296772E1,8.469435E1,1.00509735E2,2.3119512E3,3.528505E2,3.1757615E0],"tree_param":{"num_deleted":"0","num_feature":"7","num_nodes":"15","size_leaf_vector":"1"}},{"base_weights":[-2.874437E-1,5.7248298E-2,-4.3972844E-1,1.1022401E-1,-1.1239292E-1,-5.6987447E-1,5.560661E-2,8.478436E-3,3.437035E-2,-3.9547186E-2,4.4124885E-3,9.131284E-3,-6.159797E-2,-2.2702137E-2,8.006244E-3],"categories":[],"categories_nodes":[],"categories_segments":[],"categories_sizes":[],"default_left":[0,0,0,0,0,0,0,0,0,0,0,0,0,0,0],"id":18,"left_children":[1,3,5,7,9,11,13,-1,-1,-1,-1,-1,-1,-1,-1],"loss_changes":[1.4952875E2,7.8635263E0,1.2738623E2,3.928049E0,9.250546E0,4.775067E1,2.865652E0,0E0,0E0,0E0,0E0,0E0,0E0,0E0,0E0],"parents":[2147483647,0,0,1,1,2,2,3,3,4,4,5,5,6,6],"right_children":[2,4,6,8,10,12,14,-1,-1,-1,-1,-1,-1,-1,-1],"split_conditions":[6.11E1,7.61E1,8.1E1,5.9E1,5.58E1,5.04E1,1.06E2,8.478436E-3,3.437035E-2,-3.9547186E-2,4.4124885E-3,9.131284E-3,-6.159797E-2,-2.2702137E-2,8.006244E-3],"split_indices":[3,2,2,3,6,6,4,0,0,0,0,0,0,0,0],"split_type":[0,0,0,0,0,0,0,0,0,0,0,0,0,0,0],"sum_hessian":[2.8471572E3,8.726237E2,1.9745336E3,6.652341E2,2.0738963E2,1.5635663E3,4.1096722E2,6.0110187E2,6.413223E1,7.329722E1,1.3409242E2,1.0185788E2,1.4617085E3,3.2069344E1,3.788979E2],"tree_param":{"num_deleted":"0","num_feature":"7","num_nodes":"15","size_leaf_vector":"1"}},{"base_weights":[-1.5971076E-1,3.1711277E-1,-3.4853837E-1,2.6540026E-1,3.913176E-1,-5.369103E-1,3.127007E-1,1.6016534E-2,2.9381087E-2,7.1817644E-2,3.720854E-2,2.6242761E-2,-6.1002135E-2,3.3940062E-2,7.1466113E-3],"categories":[],"categories_nodes":[],"categories_segments":[],"categories_sizes":[],"default_left":[0,0,0,0,0,0,0,0,0,0,0,0,0,0,0],"id":19,"left_children":[1,3,5,7,9,11,13,-1,-1,-1,-1,-1,-1,-1,-1],"loss_changes":[2.6612292E2,3.1142273E0,2.638387E2,1.4398308E0,1.8845787E0,9.646228E1,3.002777E0,0E0,0E0,0E0,0E0,0E0,0E0,0E0,0E0],"parents":[2147483647,0,0,1,1,2,2,3,3,4,4,5,5,6,6],"right_children":[2,4,6,8,10,12,14,-1,-1,-1,-1,-1,-1,-1,-1],"split_conditions":[6.01E1,2.1E1,8.1E1,7.4E1,6.6E1,5.11E1,1.01E2,1.6016534E-2,2.9381087E-2,7.1817644E-2,3.720854E-2,2.6242761E-2,-6.1002135E-2,3.3940062E-2,7.1466113E-3],"split_indices":[3,0,2,1,1,6,2,0,0,0,0,0,0,0,0],"split_type":[0,0,0,0,0,0,0,0,0,0,0,0,0,0,0],"sum_hessian":[2.9534639E3,8.3762683E2,2.1158372E3,4.963221E2,3.413047E2,1.6468696E3,4.689675E2,1.06920074E2,3.8940204E2,1.69467E1,3.2435797E2,1.3779037E2,1.5090792E3,4.2186807E2,4.709942E1],"tree_param":{"num_deleted":"0","num_feature":"7","num_nodes":"15","size_leaf_vector":"1"}},{"base_weights":[3.9119464E-1,-5.526075E-1,6.008082E-1,-5.89683E-1,-4.1635084E-1,7.6131517E-1,-5.019804E-1,-1.41905015E-2,-5.98589E-2,-2.029442E-2,-5.4189183E-2,-5.3118665E-2,8.1684195E-2,-5.3868324E-2,-2.54449E-2],"categories":[],"categories_nodes":[],"categories_segments":[],"categories_sizes":[],"default_left":[0,0,0,0,0,0,0,0,0,0,0,0,0,0,0],"id":20,"left_children":[1,3,5,7,9,11,13,-1,-1,-1,-1,-1,-1,-1,-1],"loss_changes":[6.5298206E2,2.7858276E0,4.782835E2,1.7865753E0,3.419859E0,1.6961304E2,2.9849396E0,0E0,0E0,0E0,0E0,0E0,0E0,0E0,0E0],"parents":[2147483647,0,0,1,1,2,2,3,3,4,4,5,5,6,6],"right_children":[2,4,6,8,10,12,14,-1,-1,-1,-1,-1,-1,-1,-1],"split_conditions":[6.01E1,7.51E1,8.1E1,7.4E1,1.188E2,5.04E1,9.9E1,-1.41905015E-2,-5.98589E-2,-2.029442E-2,-5.4189183E-2,-5.3118665E-2,8.1684195E-2,-5.3868324E-2,-2.54449E-2],"split_indices":[3,2,2,4,4,6,2,0,0,0,0,0,0,0,0],"split_type":[0,0,0,0,0,0,0,0,0,0,0,0,0,0,0],"sum_hessian":[3.297983E3,5.9905457E2,2.6989282E3,4.6830154E2,1.3075304E2,2.3562886E3,3.4263974E2,9.462793E0,4.5883878E2,4.9398037E1,8.1354996E1,9.670525E1,2.2595833E3,2.9737082E2,4.5268917E1],"tree_param":{"num_deleted":"0","num_feature":"7","num_nodes":"15","size_leaf_vector":"1"}},{"base_weights":[-2.6990125E-1,5.6874365E-2,-4.212654E-1,9.9660456E-2,-1.2739539E-1,-5.543248E-1,5.439685E-2,4.8359833E-3,1.6477056E-2,-4.1504707E-2,9.6863275E-4,8.567761E-3,-6.021747E-2,1.9174526E-2,6.610702E-4],"categories":[],"categories_nodes":[],"categories_segments":[],"categories_sizes":[],"default_left":[0,0,0,0,0,0,0,0,0,0,0,0,0,0,0],"id":21,"left_children":[1,3,5,7,9,11,13,-1,-1,-1,-1,-1,-1,-1,-1],"loss_changes":[1.3619542E2,6.89093E0,1.191214E2,2.3588042E0,6.5037394E0,4.508185E1,2.704239E0,0E0,0E0,0E0,0E0,0E0,0E0,0E0,0E0],"parents":[2147483647,0,0,1,1,2,2,3,3,4,4,5,5,6,6],"right_children":[2,4,6,8,10,12,14,-1,-1,-1,-1,-1,-1,-1,-1],"split_conditions":[6.11E1,7.71E1,8.1E1,9.76E1,5.58E1,5.04E1,8.1E1,4.8359833E-3,1.6477056E-2,-4.1504707E-2,9.6863275E-4,8.567761E-3,-6.021747E-2,1.9174526E-2,6.610702E-4],"split_indices":[3,2,2,5,6,6,1,0,0,0,0,0,0,0,0],"split_type":[0,0,0,0,0,0,0,0,0,0,0,0,0,0,0],"sum_hessian":[2.752045E3,8.714092E2,1.8806356E3,7.0757465E2,1.638345E2,1.4694215E3,4.112142E2,3.9673087E2,3.1084378E2,5.2222763E1,1.1161175E2,1.0216414E2,1.3672573E3,1.0536328E2,3.0585092E2],"tree_param":{"num_deleted":"0","num_feature":"7","num_nodes":"15","size_leaf_vector":"1"}},{"base_weights":[-1.4882794E-1,2.9134443E-1,-3.32285E-1,2.4250415E-1,3.6155856E-1,-5.2077186E-1,2.8684902E-1,3.7756708E-2,2.2023438E-2,6.739452E-2,3.432725E-2,2.4302585E-2,-5.961127E-2,2.2030221E-2,3.831513E-2],"categories":[],"categories_nodes":[],"categories_segments":[],"categories_sizes":[],"default_left":[0,0,0,0,0,0,0,0,0,0,0,0,0,0,0],"id":22,"left_children":[1,3,5,7,9,11,13,-1,-1,-1,-1,-1,-1,-1,-1],"loss_changes":[2.3158058E2,2.8059845E0,2.3631985E2,1.4228249E0,1.7343979E0,8.94436E1,2.9466171E0,0E0,0E0,0E0,0E0,0E0,0E0,0E0,0E0],"parents":[2147483647,0,0,1,1,2,2,3,3,4,4,5,5,6,6],"right_children":[2,4,6,8,10,12,14,-1,-1,-1,-1,-1,-1,-1,-1],"split_conditions":[6.01E1,2.1E1,8.1E1,3.7E1,6.6E1,1.141E2,2.07E1,3.7756708E-2,2.2023438E-2,6.739452E-2,3.432725E-2,2.4302585E-2,-5.961127E-2,2.2030221E-2,3.831513E-2],"split_indices":[3,0,2,6,1,4,0,0,0,0,0,0,0,0,0],"split_type":[0,0,0,0,0,0,0,0,0,0,0,0,0,0,0],"sum_hessian":[2.8655754E3,8.4281165E2,2.0227639E3,4.9968744E2,3.4312424E2,1.5508022E3,4.719616E2,6.847038E1,4.3121704E2,1.6991789E1,3.2613245E2,1.3903673E2,1.4117655E3,2.8104285E2,1.9091875E2],"tree_param":{"num_deleted":"0","num_feature":"7","num_nodes":"15","size_leaf_vector":"1"}},{"base_weights":[3.6709106E-1,-5.380083E-1,5.6611586E-1,-5.5663764E-1,-2.610867E-1,7.183203E-1,-4.859755E-1,-1.081655E-2,-5.640145E-2,9.400133E-2,-4.2569306E-2,-4.6665233E-2,7.7327564E-2,-4.955211E-2,3.829404E-2],"categories":[],"categories_nodes":[],"categories_segments":[],"categories_sizes":[],"default_left":[0,0,0,0,0,0,0,0,0,0,0,0,0,0,0],"id":23,"left_children":[1,3,5,7,9,11,13,-1,-1,-1,-1,-1,-1,-1,-1],"loss_changes":[5.7428296E2,2.820343E0,4.1869196E2,1.7180481E0,7.9365993E0,1.4901123E2,2.9332886E0,0E0,0E0,0E0,0E0,0E0,0E0,0E0,0E0],"parents":[2147483647,0,0,1,1,2,2,3,3,4,4,5,5,6,6],"right_children":[2,4,6,8,10,12,14,-1,-1,-1,-1,-1,-1,-1,-1],"split_conditions":[6.01E1,5.94E1,8.1E1,7.4E1,6E1,5.11E1,1.36E2,-1.081655E-2,-5.640145E-2,9.400133E-2,-4.2569306E-2,-4.6665233E-2,7.7327564E-2,-4.955211E-2,3.829404E-2],"split_indices":[3,3,2,4,3,6,2,0,0,0,0,0,0,0,0],"split_type":[0,0,0,0,0,0,0,0,0,0,0,0,0,0,0],"sum_hessian":[3.18534E3,5.73869E2,2.6114712E3,5.367501E2,3.711893E1,2.2816985E3,3.2977258E2,8.93955E0,5.2781055E2,3.9061134E0,3.321282E1,1.00795975E2,2.1809026E3,3.2661423E2,3.158334E0],"tree_param":{"num_deleted":"0","num_feature":"7","num_nodes":"15","size_leaf_vector":"1"}},{"base_weights":[-2.5301257E-1,5.6563485E-2,-4.0351537E-1,9.613873E-2,-1.1667544E-1,-5.499642E-1,2.2597602E-2,-2.6590273E-2,1.045026E-2,-3.954729E-2,1.0735567E-3,9.7753955E-3,-5.9587013E-2,-1.5779544E-2,9.822342E-3],"categories":[],"categories_nodes":[],"categories_segments":[],"categories_sizes":[],"default_left":[0,0,0,0,0,0,0,0,0,0,0,0,0,0,0],"id":24,"left_children":[1,3,5,7,9,11,13,-1,-1,-1,-1,-1,-1,-1,-1],"loss_changes":[1.2397096E2,5.983591E0,1.1172537E2,2.1767259E0,5.7746487E0,3.9673615E1,6.275242E0,0E0,0E0,0E0,0E0,0E0,0E0,0E0,0E0],"parents":[2147483647,0,0,1,1,2,2,3,3,4,4,5,5,6,6],"right_children":[2,4,6,8,10,12,14,-1,-1,-1,-1,-1,-1,-1,-1],"split_conditions":[6.11E1,7.71E1,8E1,7.6E1,5.58E1,5.04E1,1.18E2,-2.6590273E-2,1.045026E-2,-3.954729E-2,1.0735567E-3,9.7753955E-3,-5.9587013E-2,-1.5779544E-2,9.822342E-3],"split_indices":[3,2,2,4,6,6,4,0,0,0,0,0,0,0,0],"split_type":[0,0,0,0,0,0,0,0,0,0,0,0,0,0,0],"sum_hessian":[2.6592847E3,8.701199E2,1.7891648E3,7.0867334E2,1.6144652E2,1.3313192E3,4.5784564E2,1.5306776E1,6.933666E2,4.9979267E1,1.1146725E2,8.8035614E1,1.2432836E3,1.3492279E2,3.2292282E2],"tree_param":{"num_deleted":"0","num_feature":"7","num_nodes":"15","size_leaf_vector":"1"}},{"base_weights":[-1.3852043E-1,2.6813304E-1,-3.1682044E-1,2.2186945E-1,3.347989E-1,-5.19285E-1,2.2813232E-1,2.4385372E-2,9.6267145E-3,3.660447E-2,1.7312525E-2,2.1311369E-2,-5.902467E-2,-5.8939788E-3,2.7788881E-2],"categories":[],"categories_nodes":[],"categories_segments":[],"categories_sizes":[],"default_left":[0,0,0,0,0,0,0,0,0,0,0,0,0,0,0],"id":25,"left_children":[1,3,5,7,9,11,13,-1,-1,-1,-1,-1,-1,-1,-1],"loss_changes":[2.0159015E2,2.5400505E0,2.133368E2,1.3664455E0,1.6809158E0,7.337076E1,7.5035744E0,0E0,0E0,0E0,0E0,0E0,0E0,0E0,0E0],"parents":[2147483647,0,0,1,1,2,2,3,3,4,4,5,5,6,6],"right_children":[2,4,6,8,10,12,14,-1,-1,-1,-1,-1,-1,-1,-1],"split_conditions":[6.01E1,2.1E1,8E1,1.91E1,5.8E1,5.11E1,8.2E1,2.4385372E-2,9.6267145E-3,3.660447E-2,1.7312525E-2,2.1311369E-2,-5.902467E-2,-5.8939788E-3,2.7788881E-2],"split_indices":[3,0,2,0,3,6,2,0,0,0,0,0,0,0,0],"split_type":[0,0,0,0,0,0,0,0,0,0,0,0,0,0,0],"sum_hessian":[2.7781401E3,8.466529E2,1.9314872E3,5.023613E2,3.442916E2,1.4083094E3,5.2317773E2,4.2672913E2,7.563216E1,2.8746976E2,5.682183E1,1.2422052E2,1.284089E3,7.7256805E1,4.4592093E2],"tree_param":{"num_deleted":"0","num_feature":"7","num_nodes":"15","size_leaf_vector":"1"}},{"base_weights":[3.4558055E-1,-5.244696E-1,5.3604573E-1,-5.6376225E-1,-3.831057E-1,6.8183386E-1,-4.7088924E-1,-1.7151441E-2,-5.7528652E-2,-1.6905162E-2,-5.133869E-2,-5.0307777E-2,7.325177E-2,-5.0926264E-2,-2.191453E-2],"categories":[],"categories_nodes":[],"categories_segments":[],"categories_sizes":[],"default_left":[0,0,0,0,0,0,0,0,0,0,0,0,0,0,0],"id":26,"left_children":[1,3,5,7,9,11,13,-1,-1,-1,-1,-1,-1,-1,-1],"loss_changes":[5.0764343E2,2.8410797E0,3.6912415E2,1.8385162E0,3.3384838E0,1.3218915E2,2.9635315E0,0E0,0E0,0E0,0E0,0E0,0E0,0E0,0E0],"parents":[2147483647,0,0,1,1,2,2,3,3,4,4,5,5,6,6],"right_children":[2,4,6,8,10,12,14,-1,-1,-1,-1,-1,-1,-1,-1],"split_conditions":[6.01E1,7.51E1,8.1E1,7.6E1,1.188E2,5.04E1,9.9E1,-1.7151441E-2,-5.7528652E-2,-1.6905162E-2,-5.133869E-2,-5.0307777E-2,7.325177E-2,-5.0926264E-2,-2.191453E-2],"split_indices":[3,2,2,4,4,6,2,0,0,0,0,0,0,0,0],"split_type":[0,0,0,0,0,0,0,0,0,0,0,0,0,0,0],"sum_hessian":[3.060669E3,5.493715E2,2.5112976E3,4.2754562E2,1.21825905E2,2.1939688E3,3.1732877E2,1.2656125E1,4.148895E2,4.6962833E1,7.4863075E1,8.962989E1,2.1043389E3,2.7446854E2,4.286023E1],"tree_param":{"num_deleted":"0","num_feature":"7","num_nodes":"15","size_leaf_vector":"1"}},{"base_weights":[-2.3674285E-1,5.6318227E-2,-3.8636065E-1,9.285451E-2,-1.061996E-1,-5.369993E-1,2.4721697E-2,4.468478E-3,1.5379043E-2,-3.762388E-2,1.2149524E-3,9.184501E-3,-5.8505613E-2,-1.4783694E-2,9.608545E-3],"categories":[],"categories_nodes":[],"categories_segments":[],"categories_sizes":[],"default_left":[0,0,0,0,0,0,0,0,0,0,0,0,0,0,0],"id":27,"left_children":[1,3,5,7,9,11,13,-1,-1,-1,-1,-1,-1,-1,-1],"loss_changes":[1.1274982E2,5.1745768E0,1.0541742E2,2.0791779E0,5.1217804E0,3.76994E1,5.6470947E0,0E0,0E0,0E0,0E0,0E0,0E0,0E0,0E0],"parents":[2147483647,0,0,1,1,2,2,3,3,4,4,5,5,6,6],"right_children":[2,4,6,8,10,12,14,-1,-1,-1,-1,-1,-1,-1,-1],"split_conditions":[6.11E1,7.71E1,8E1,9.76E1,5.58E1,5.04E1,1.18E2,4.468478E-3,1.5379043E-2,-3.762388E-2,1.2149524E-3,9.184501E-3,-5.8505613E-2,-1.4783694E-2,9.608545E-3],"split_indices":[3,2,2,5,6,6,4,0,0,0,0,0,0,0,0],"split_type":[0,0,0,0,0,0,0,0,0,0,0,0,0,0,0],"sum_hessian":[2.5699324E3,8.688034E2,1.701129E3,7.0968494E2,1.5911845E2,1.2447073E3,4.5642175E2,3.9732977E2,3.1235516E2,4.782235E1,1.11296104E2,8.830376E1,1.1564034E3,1.3322063E2,3.232011E2],"tree_param":{"num_deleted":"0","num_feature":"7","num_nodes":"15","size_leaf_vector":"1"}},{"base_weights":[-1.2871613E-1,2.2053531E-1,-3.1532446E-1,2.4713872E-1,-3.585951E-2,-5.2384216E-1,2.0857045E-1,3.365774E-2,2.1503551E-2,-5.689421E-2,2.09369E-2,2.3069337E-2,-5.881386E-2,-1.0189843E-2,2.4027055E-2],"categories":[],"categories_nodes":[],"categories_segments":[],"categories_sizes":[],"default_left":[0,0,0,0,0,0,0,0,0,0,0,0,0,0,0],"id":28,"left_children":[1,3,5,7,9,11,13,-1,-1,-1,-1,-1,-1,-1,-1],"loss_changes":[1.7562538E2,6.411289E0,1.9194167E2,2.3697243E0,1.1768279E1,6.1087677E1,4.9519253E0,0E0,0E0,0E0,0E0,0E0,0E0,0E0,0E0],"parents":[2147483647,0,0,1,1,2,2,3,3,4,4,5,5,6,6],"right_children":[2,4,6,8,10,12,14,-1,-1,-1,-1,-1,-1,-1,-1],"split_conditions":[6.11E1,6.01E1,8E1,9.51E1,6.1E1,5.11E1,8.1E1,3.365774E-2,2.1503551E-2,-5.689421E-2,2.09369E-2,2.3069337E-2,-5.881386E-2,-1.0189843E-2,2.4027055E-2],"split_indices":[3,3,2,5,3,6,2,0,0,0,0,0,0,0,0],"split_type":[0,0,0,0,0,0,0,0,0,0,0,0,0,0,0],"sum_hessian":[2.6926804E3,9.376384E2,1.755042E3,8.495279E2,8.8110565E1,1.2553821E3,4.996599E2,2.2188321E2,6.2764465E2,2.734576E1,6.07648E1,9.837209E1,1.15701E3,4.608562E1,4.5357428E2],"tree_param":{"num_deleted":"0","num_feature":"7","num_nodes":"15","size_leaf_vector":"1"}},{"base_weights":[3.2608852E-1,-5.116734E-1,5.096522E-1,-5.520269E-1,-3.6883798E-1,6.5065545E-1,-4.567116E-1,-1.6262522E-2,-5.6389686E-2,-1.5760515E-2,-5.0066806E-2,-4.3312058E-2,7.0286855E-2,-4.9592778E-2,-2.0388355E-2],"categories":[],"categories_nodes":[],"categories_segments":[],"categories_sizes":[],"default_left":[0,0,0,0,0,0,0,0,0,0,0,0,0,0,0],"id":29,"left_children":[1,3,5,7,9,11,13,-1,-1,-1,-1,-1,-1,-1,-1],"loss_changes":[4.508112E2,2.8343964E0,3.2782855E2,1.7985306E0,3.2381725E0,1.1902765E2,2.9393845E0,0E0,0E0,0E0,0E0,0E0,0E0,0E0,0E0],"parents":[2147483647,0,0,1,1,2,2,3,3,4,4,5,5,6,6],"right_children":[2,4,6,8,10,12,14,-1,-1,-1,-1,-1,-1,-1,-1],"split_conditions":[6.01E1,7.51E1,8.1E1,7.6E1,1.188E2,1.141E2,9.9E1,-1.6262522E-2,-5.6389686E-2,-1.5760515E-2,-5.0066806E-2,-4.3312058E-2,7.0286855E-2,-4.9592778E-2,-2.0388355E-2],"split_indices":[3,2,2,4,4,4,2,0,0,0,0,0,0,0,0],"split_type":[0,0,0,0,0,0,0,0,0,0,0,0,0,0,0],"sum_hessian":[2.928787E3,5.26072E2,2.402715E3,4.0795328E2,1.1811872E2,2.0970576E3,3.0565744E2,1.2502384E1,3.954509E2,4.623361E1,7.188512E1,9.6050964E1,2.0010067E3,2.6378088E2,4.1876583E1],"tree_param":{"num_deleted":"0","num_feature":"7","num_nodes":"15","size_leaf_vector":"1"}},{"base_weights":[-2.2098412E-1,5.6213014E-2,-3.6963713E-1,8.975602E-2,-9.54423E-2,-5.2474916E-1,2.6627455E-2,-2.4907539E-2,9.744066E-3,-3.569385E-2,1.440714E-3,8.88987E-3,-5.7534844E-2,-1.3773111E-2,9.367693E-3],"categories":[],"categories_nodes":[],"categories_segments":[],"categories_sizes":[],"default_left":[0,0,0,0,0,0,0,0,0,0,0,0,0,0,0],"id":30,"left_children":[1,3,5,7,9,11,13,-1,-1,-1,-1,-1,-1,-1,-1],"loss_changes":[1.024284E2,4.4261084E0,9.945552E1,1.8772178E0,4.5370946E0,3.615518E1,5.03898E0,0E0,0E0,0E0,0E0,0E0,0E0,0E0,0E0],"parents":[2147483647,0,0,1,1,2,2,3,3,4,4,5,5,6,6],"right_children":[2,4,6,8,10,12,14,-1,-1,-1,-1,-1,-1,-1,-1],"split_conditions":[6.11E1,7.71E1,8E1,7.6E1,5.58E1,5.04E1,1.18E2,-2.4907539E-2,9.744066E-3,-3.569385E-2,1.440714E-3,8.88987E-3,-5.7534844E-2,-1.3773111E-2,9.367693E-3],"split_indices":[3,2,2,4,6,6,4,0,0,0,0,0,0,0,0],"split_type":[0,0,0,0,0,0,0,0,0,0,0,0,0,0,0],"sum_hessian":[2.4842485E3,8.674024E2,1.6168461E3,7.1063324E2,1.5676917E2,1.1617655E3,4.550805E2,1.5062983E1,6.9557025E2,4.5709213E1,1.1105995E2,8.84403E1,1.0733252E3,1.3155217E2,3.2352835E2],"tree_param":{"num_deleted":"0","num_feature":"7","num_nodes":"15","size_leaf_vector":"1"}},{"base_weights":[-1.1941736E-1,2.0442419E-1,-3.0106333E-1,2.2794732E-1,-2.8386224E-2,-5.116165E-1,1.9316556E-1,1.8986333E-2,3.0122234E-2,-5.5852182E-2,1.98286E-2,2.1517854E-2,-5.7857275E-2,-8.567403E-3,2.2074224E-2],"categories":[],"categories_nodes":[],"categories_segments":[],"categories_sizes":[],"default_left":[0,0,0,0,0,0,0,0,0,0,0,0,0,0,0],"id":31,"left_children":[1,3,5,7,9,11,13,-1,-1,-1,-1,-1,-1,-1,-1],"loss_changes":[1.5363464E2,5.1474457E0,1.7418887E2,2.3223839E0,1.0569574E1,5.7227783E1,3.8676472E0,0E0,0E0,0E0,0E0,0E0,0E0,0E0,0E0],"parents":[2147483647,0,0,1,1,2,2,3,3,4,4,5,5,6,6],"right_children":[2,4,6,8,10,12,14,-1,-1,-1,-1,-1,-1,-1,-1],"split_conditions":[6.11E1,6.01E1,8E1,2.17E1,6.1E1,5.11E1,8.1E1,1.8986333E-2,3.0122234E-2,-5.5852182E-2,1.98286E-2,2.1517854E-2,-5.7857275E-2,-8.567403E-3,2.2074224E-2],"split_indices":[3,3,2,0,3,6,2,0,0,0,0,0,0,0,0],"split_type":[0,0,0,0,0,0,0,0,0,0,0,0,0,0,0],"sum_hessian":[2.609699E3,9.3774524E2,1.6719537E3,8.517095E2,8.603576E1,1.172434E3,4.995198E2,5.627937E2,2.889158E2,2.5330166E1,6.0705593E1,9.871292E1,1.0737211E3,4.476591E1,4.547539E2],"tree_param":{"num_deleted":"0","num_feature":"7","num_nodes":"15","size_leaf_vector":"1"}},{"base_weights":[3.0819398E-1,-4.9949986E-1,4.861219E-1,-5.1993424E-1,-2.1145014E-1,6.2347615E-1,-4.4310585E-1,-6.968505E-3,-5.281007E-2,9.152233E-2,-3.8282882E-2,-4.3305196E-2,6.742954E-2,-4.8315626E-2,-1.8976113E-2],"categories":[],"categories_nodes":[],"categories_segments":[],"categories_sizes":[],"default_left":[0,0,0,0,0,0,0,0,0,0,0,0,0,0,0],"id":32,"left_children":[1,3,5,7,9,11,13,-1,-1,-1,-1,-1,-1,-1,-1],"loss_changes":[4.0171118E2,2.8613663E0,2.9252832E2,1.6938324E0,7.132389E0,1.0742438E2,2.9062386E0,0E0,0E0,0E0,0E0,0E0,0E0,0E0,0E0],"parents":[2147483647,0,0,1,1,2,2,3,3,4,4,5,5,6,6],"right_children":[2,4,6,8,10,12,14,-1,-1,-1,-1,-1,-1,-1,-1],"split_conditions":[6.01E1,5.94E1,8.1E1,7.4E1,6E1,5.11E1,9.9E1,-6.968505E-3,-5.281007E-2,9.152233E-2,-3.8282882E-2,-4.3305196E-2,6.742954E-2,-4.8315626E-2,-1.8976113E-2],"split_indices":[3,3,2,4,3,6,2,0,0,0,0,0,0,0,0],"split_type":[0,0,0,0,0,0,0,0,0,0,0,0,0,0,0],"sum_hessian":[2.7925762E3,5.0379938E2,2.2887769E3,4.6967538E2,3.4123997E1,1.9943152E3,2.944617E2,8.536868E0,4.6113852E2,3.932262E0,3.0191736E1,9.1179436E1,1.9031357E3,2.534824E2,4.0979298E1],"tree_param":{"num_deleted":"0","num_feature":"7","num_nodes":"15","size_leaf_vector":"1"}},{"base_weights":[-2.0580584E-1,5.6055717E-2,-3.5333502E-1,8.695344E-2,-8.58125E-2,-5.131827E-1,2.8334944E-2,4.247957E-3,1.4299001E-2,1.1746635E-2,-2.1159954E-2,8.56497E-3,-5.6657594E-2,-1.281392E-2,9.132789E-3],"categories":[],"categories_nodes":[],"categories_segments":[],"categories_sizes":[],"default_left":[0,0,0,0,0,0,0,0,0,0,0,0,0,0,0],"id":33,"left_children":[1,3,5,7,9,11,13,-1,-1,-1,-1,-1,-1,-1,-1],"loss_changes":[9.287286E1,3.807873E0,9.381679E1,1.769445E0,4.002473E0,3.4698853E1,4.4945397E0,0E0,0E0,0E0,0E0,0E0,0E0,0E0,0E0],"parents":[2147483647,0,0,1,1,2,2,3,3,4,4,5,5,6,6],"right_children":[2,4,6,8,10,12,14,-1,-1,-1,-1,-1,-1,-1,-1],"split_conditions":[6.11E1,7.71E1,8E1,9.76E1,5.9E1,5.04E1,1.18E2,4.247957E-3,1.4299001E-2,1.1746635E-2,-2.1159954E-2,8.56497E-3,-5.6657594E-2,-1.281392E-2,9.132789E-3],"split_indices":[3,2,2,5,3,6,4,0,0,0,0,0,0,0,0],"split_type":[0,0,0,0,0,0,0,0,0,0,0,0,0,0,0],"sum_hessian":[2.4025134E3,8.6599994E2,1.5365135E3,7.114411E2,1.5455888E2,1.0827156E3,4.537979E2,3.9762268E2,3.138184E2,5.910617E1,9.545271E1,8.858507E1,9.9413055E2,1.2995535E2,3.238426E2],"tree_param":{"num_deleted":"0","num_feature":"7","num_nodes":"15","size_leaf_vector":"1"}},{"base_weights":[-1.1057317E-1,1.8971153E-1,-2.872898E-1,2.1049587E-1,-2.1341128E-2,-5.001174E-1,1.7903422E-1,1.6861983E-2,2.7139088E-2,-5.4901596E-2,1.883164E-2,1.9844482E-2,-5.6993164E-2,-2.0781986E-3,2.1024657E-2],"categories":[],"categories_nodes":[],"categories_segments":[],"categories_sizes":[],"default_left":[0,0,0,0,0,0,0,0,0,0,0,0,0,0,0],"id":34,"left_children":[1,3,5,7,9,11,13,-1,-1,-1,-1,-1,-1,-1,-1],"loss_changes":[1.3433301E2,4.119396E0,1.5822664E2,2.132122E0,9.507691E0,5.3482513E1,3.1230888E0,0E0,0E0,0E0,0E0,0E0,0E0,0E0,0E0],"parents":[2147483647,0,0,1,1,2,2,3,3,4,4,5,5,6,6],"right_children":[2,4,6,8,10,12,14,-1,-1,-1,-1,-1,-1,-1,-1],"split_conditions":[6.11E1,6.01E1,8E1,2.1E1,6.1E1,5.11E1,8.2E1,1.6861983E-2,2.7139088E-2,-5.4901596E-2,1.883164E-2,1.9844482E-2,-5.6993164E-2,-2.0781986E-3,2.1024657E-2],"split_indices":[3,3,2,0,3,6,2,0,0,0,0,0,0,0,0],"split_type":[0,0,0,0,0,0,0,0,0,0,0,0,0,0,0],"sum_hessian":[2.5294392E3,9.3706445E2,1.5923749E3,8.530584E2,8.4006035E1,1.0933182E3,4.990566E2,5.0769662E2,3.4536176E2,2.342653E1,6.0579502E1,9.917084E1,9.941474E2,6.746853E1,4.3158807E2],"tree_param":{"num_deleted":"0","num_feature":"7","num_nodes":"15","size_leaf_vector":"1"}},{"base_weights":[2.9169753E-1,-4.8803708E-1,4.6501118E-1,-5.311871E-1,-3.3884296E-1,5.9969884E-1,-4.3002212E-1,-1.4000835E-2,-5.4390997E-2,-1.2652615E-2,-4.7625255E-2,-4.150975E-2,6.5070085E-2,-4.7092073E-2,-1.7639978E-2],"categories":[],"categories_nodes":[],"categories_segments":[],"categories_sizes":[],"default_left":[0,0,0,0,0,0,0,0,0,0,0,0,0,0,0],"id":35,"left_children":[1,3,5,7,9,11,13,-1,-1,-1,-1,-1,-1,-1,-1],"loss_changes":[3.5901953E2,2.9313889E0,2.6217584E2,1.7808304E0,3.1834927E0,9.8034424E1,2.8707962E0,0E0,0E0,0E0,0E0,0E0,0E0,0E0,0E0],"parents":[2147483647,0,0,1,1,2,2,3,3,4,4,5,5,6,6],"right_children":[2,4,6,8,10,12,14,-1,-1,-1,-1,-1,-1,-1,-1],"split_conditions":[6.01E1,7.51E1,8.1E1,7.6E1,1.188E2,1.141E2,9.9E1,-1.4000835E-2,-5.4390997E-2,-1.2652615E-2,-4.7625255E-2,-4.150975E-2,6.5070085E-2,-4.7092073E-2,-1.7639978E-2],"split_indices":[3,2,2,4,4,4,2,0,0,0,0,0,0,0,0],"split_type":[0,0,0,0,0,0,0,0,0,0,0,0,0,0,0],"sum_hessian":[2.6539963E3,4.8230402E2,2.1716924E3,3.7211908E2,1.1018497E2,1.8879214E3,2.8377084E2,1.2099823E1,3.6001926E2,4.4047028E1,6.613794E1,9.000181E1,1.7979197E3,2.4362727E2,4.0143578E1],"tree_param":{"num_deleted":"0","num_feature":"7","num_nodes":"15","size_leaf_vector":"1"}},{"base_weights":[-1.9116563E-1,5.5889294E-2,-3.373838E-1,8.4237635E-2,-7.6106176E-2,-5.02136E-1,2.9775076E-2,1.7255604E-2,5.722271E-3,-3.1420518E-2,2.556493E-3,8.296403E-3,-5.586322E-2,-1.1947018E-2,8.912575E-3],"categories":[],"categories_nodes":[],"categories_segments":[],"categories_sizes":[],"default_left":[0,0,0,0,0,0,0,0,0,0,0,0,0,0,0],"id":36,"left_children":[1,3,5,7,9,11,13,-1,-1,-1,-1,-1,-1,-1,-1],"loss_changes":[8.405147E1,3.245906E0,8.842056E1,1.6916642E0,3.7260325E0,3.339537E1,4.02872E0,0E0,0E0,0E0,0E0,0E0,0E0,0E0,0E0],"parents":[2147483647,0,0,1,1,2,2,3,3,4,4,5,5,6,6],"right_children":[2,4,6,8,10,12,14,-1,-1,-1,-1,-1,-1,-1,-1],"split_conditions":[6.11E1,7.71E1,8E1,1.6E1,7.9E1,5.04E1,1.18E2,1.7255604E-2,5.722271E-3,-3.1420518E-2,2.556493E-3,8.296403E-3,-5.586322E-2,-1.1947018E-2,8.912575E-3],"split_indices":[3,2,2,0,2,6,4,0,0,0,0,0,0,0,0],"split_type":[0,0,0,0,0,0,0,0,0,0,0,0,0,0,0],"sum_hessian":[2.3252322E3,8.6474646E2,1.4604857E3,7.1215955E2,1.5258693E2,1.00786646E3,4.526193E2,1.6554968E2,5.4660986E2,4.5033825E1,1.0755311E2,8.870713E1,9.191593E2,1.2849313E2,3.2412616E2],"tree_param":{"num_deleted":"0","num_feature":"7","num_nodes":"15","size_leaf_vector":"1"}},{"base_weights":[-1.0216415E-1,1.7609164E-1,-2.7385706E-1,2.0081978E-1,2.5733164E-2,-4.8911855E-1,1.6601501E-1,2.9731864E-2,1.6636312E-2,-2.076455E-2,3.925987E-2,1.8549694E-2,-5.6219447E-2,4.0202994E-2,1.4132291E-2],"categories":[],"categories_nodes":[],"categories_segments":[],"categories_sizes":[],"default_left":[0,0,0,0,0,0,0,0,0,0,0,0,0,0,0],"id":37,"left_children":[1,3,5,7,9,11,13,-1,-1,-1,-1,-1,-1,-1,-1],"loss_changes":[1.1727422E2,3.4783535E0,1.4379993E2,2.6253242E0,1.1509084E1,5.0356552E1,2.8539305E0,0E0,0E0,0E0,0E0,0E0,0E0,0E0,0E0],"parents":[2147483647,0,0,1,1,2,2,3,3,4,4,5,5,6,6],"right_children":[2,4,6,8,10,12,14,-1,-1,-1,-1,-1,-1,-1,-1],"split_conditions":[6.11E1,5.94E1,8E1,9.51E1,5.5E1,5.11E1,3.3E1,2.9731864E-2,1.6636312E-2,-2.076455E-2,3.925987E-2,1.8549694E-2,-5.6219447E-2,4.0202994E-2,1.4132291E-2],"split_indices":[3,3,2,5,6,6,6,0,0,0,0,0,0,0,0],"split_type":[0,0,0,0,0,0,0,0,0,0,0,0,0,0,0],"sum_hessian":[2.4527334E3,9.3591235E2,1.5168212E3,8.034418E2,1.3247057E2,1.0183542E3,4.9846695E2,2.093921E2,5.940497E2,8.1230446E1,5.124012E1,9.937892E1,9.189753E2,4.576347E1,4.527035E2],"tree_param":{"num_deleted":"0","num_feature":"7","num_nodes":"15","size_leaf_vector":"1"}},{"base_weights":[2.7621603E-1,-4.7691998E-1,4.457416E-1,-5.2142984E-1,-3.2565102E-1,5.7859E-1,-4.175501E-1,-1.2831571E-2,-5.3465076E-2,-1.1568583E-2,-4.650974E-2,-4.036742E-2,6.294217E-2,-4.593215E-2,-1.6360193E-2],"categories":[],"categories_nodes":[],"categories_segments":[],"categories_sizes":[],"default_left":[0,0,0,0,0,0,0,0,0,0,0,0,0,0,0],"id":38,"left_children":[1,3,5,7,9,11,13,-1,-1,-1,-1,-1,-1,-1,-1],"loss_changes":[3.2163882E2,2.9478378E0,2.3597815E2,1.782196E0,3.1063986E0,8.921826E1,2.8388748E0,0E0,0E0,0E0,0E0,0E0,0E0,0E0,0E0],"parents":[2147483647,0,0,1,1,2,2,3,3,4,4,5,5,6,6],"right_children":[2,4,6,8,10,12,14,-1,-1,-1,-1,-1,-1,-1,-1],"split_conditions":[6.01E1,7.51E1,8.1E1,7.6E1,1.188E2,1.141E2,9.9E1,-1.2831571E-2,-5.3465076E-2,-1.1568583E-2,-4.650974E-2,-4.036742E-2,6.294217E-2,-4.593215E-2,-1.6360193E-2],"split_indices":[3,2,2,4,4,4,2,0,0,0,0,0,0,0,0],"split_type":[0,0,0,0,0,0,0,0,0,0,0,0,0,0,0],"sum_hessian":[2.516519E3,4.6204037E2,2.0544788E3,3.5510583E2,1.0693455E2,1.7807727E3,2.7370596E2,1.1902397E1,3.4320343E2,4.340659E1,6.3527954E1,8.727831E1,1.6934944E3,2.3434955E2,3.935641E1],"tree_param":{"num_deleted":"0","num_feature":"7","num_nodes":"15","size_leaf_vector":"1"}},{"base_weights":[-1.7722546E-1,5.543428E-2,-3.2183614E-1,8.102592E-2,-6.553546E-2,-4.9150944E-1,3.069357E-2,-1.277266E-2,9.209843E-3,-3.1073362E-2,2.7167515E-3,8.045225E-3,-5.5140592E-2,-7.293721E-3,1.0527214E-2],"categories":[],"categories_nodes":[],"categories_segments":[],"categories_sizes":[],"default_left":[0,0,0,0,0,0,0,0,0,0,0,0,0,0,0],"id":39,"left_children":[1,3,5,7,9,11,13,-1,-1,-1,-1,-1,-1,-1,-1],"loss_changes":[7.583622E1,2.6820376E0,8.314868E1,1.6623416E0,3.4527826E0,3.218979E1,3.5051038E0,0E0,0E0,0E0,0E0,0E0,0E0,0E0,0E0],"parents":[2147483647,0,0,1,1,2,2,3,3,4,4,5,5,6,6],"right_children":[2,4,6,8,10,12,14,-1,-1,-1,-1,-1,-1,-1,-1],"split_conditions":[6.11E1,7.71E1,8E1,8.2E1,5.58E1,5.04E1,1.24E2,-1.277266E-2,9.209843E-3,-3.1073362E-2,2.7167515E-3,8.045225E-3,-5.5140592E-2,-7.293721E-3,1.0527214E-2],"split_indices":[3,2,2,4,6,6,4,0,0,0,0,0,0,0,0],"split_type":[0,0,0,0,0,0,0,0,0,0,0,0,0,0,0],"sum_hessian":[2.2524758E3,8.636279E2,1.388848E3,7.130991E2,1.5052881E2,9.373198E2,4.515282E2,3.5387867E1,6.7771124E2,4.0652245E1,1.09876564E2,8.881997E1,8.484998E2,1.8896858E2,2.6255963E2],"tree_param":{"num_deleted":"0","num_feature":"7","num_nodes":"15","size_leaf_vector":"1"}},{"base_weights":[-9.408335E-2,1.635678E-1,-2.607106E-1,1.858628E-1,2.6498169E-2,-4.785547E-1,1.5401937E-1,1.4544696E-2,2.6251445E-2,-1.9650267E-2,3.7112456E-2,1.7362995E-2,-5.552078E-2,9.3404995E-3,2.4191484E-2],"categories":[],"categories_nodes":[],"categories_segments":[],"categories_sizes":[],"default_left":[0,0,0,0,0,0,0,0,0,0,0,0,0,0,0],"id":40,"left_children":[1,3,5,7,9,11,13,-1,-1,-1,-1,-1,-1,-1,-1],"loss_changes":[1.0228327E2,2.8551311E0,1.3076707E2,2.4550247E0,1.0224833E1,4.7521454E1,2.6355448E0,0E0,0E0,0E0,0E0,0E0,0E0,0E0,0E0],"parents":[2147483647,0,0,1,1,2,2,3,3,4,4,5,5,6,6],"right_children":[2,4,6,8,10,12,14,-1,-1,-1,-1,-1,-1,-1,-1],"split_conditions":[6.11E1,5.94E1,8E1,2.17E1,5.5E1,5.11E1,2.07E1,1.4544696E-2,2.6251445E-2,-1.9650267E-2,3.7112456E-2,1.7362995E-2,-5.552078E-2,9.3404995E-3,2.4191484E-2],"split_indices":[3,3,2,0,6,6,0,0,0,0,0,0,0,0,0],"split_type":[0,0,0,0,0,0,0,0,0,0,0,0,0,0,0],"sum_hessian":[2.3804717E3,9.34892E2,1.4455796E3,8.037951E2,1.3109688E2,9.47654E2,4.9792557E2,5.281938E2,2.7560132E2,7.985446E1,5.1242416E1,9.953329E1,8.481207E2,2.9591772E2,2.0200783E2],"tree_param":{"num_deleted":"0","num_feature":"7","num_nodes":"15","size_leaf_vector":"1"}},{"base_weights":[2.6164216E-1,-4.6632895E-1,4.2805958E-1,-5.1213384E-1,-3.1341353E-1,5.5966306E-1,-4.0542972E-1,-1.1666009E-2,-5.258844E-2,-1.0785091E-2,-4.5394715E-2,-3.933932E-2,6.1070263E-2,-4.1697953E-2,4.5050602E-2],"categories":[],"categories_nodes":[],"categories_segments":[],"categories_sizes":[],"default_left":[0,0,0,0,0,0,0,0,0,0,0,0,0,0,0],"id":41,"left_children":[1,3,5,7,9,11,13,-1,-1,-1,-1,-1,-1,-1,-1],"loss_changes":[2.888639E2,2.9482346E0,2.1301724E2,1.7873077E0,2.9808855E0,8.175769E1,2.8087502E0,0E0,0E0,0E0,0E0,0E0,0E0,0E0,0E0],"parents":[2147483647,0,0,1,1,2,2,3,3,4,4,5,5,6,6],"right_children":[2,4,6,8,10,12,14,-1,-1,-1,-1,-1,-1,-1,-1],"split_conditions":[6.01E1,7.51E1,8.1E1,7.6E1,1.188E2,1.141E2,1.36E2,-1.1666009E-2,-5.258844E-2,-1.0785091E-2,-4.5394715E-2,-3.933932E-2,6.1070263E-2,-4.1697953E-2,4.5050602E-2],"split_indices":[3,2,2,4,4,4,2,0,0,0,0,0,0,0,0],"split_type":[0,0,0,0,0,0,0,0,0,0,0,0,0,0,0],"sum_hessian":[2.3817585E3,4.428347E2,1.938924E3,3.3895395E2,1.0388074E2,1.6748092E3,2.641148E2,1.170806E1,3.272459E2,4.289882E1,6.0981915E1,8.479196E1,1.5900172E3,2.6110434E2,3.010443E0],"tree_param":{"num_deleted":"0","num_feature":"7","num_nodes":"15","size_leaf_vector":"1"}},{"base_weights":[-1.6386598E-1,5.4921947E-2,-3.0656627E-1,7.798036E-2,-5.5708975E-2,-4.812003E-1,3.1423204E-2,1.6323311E-2,5.322972E-3,-2.8334204E-2,3.58461E-3,7.8080683E-3,-5.4480214E-2,-9.3615643E-4,2.095113E-2],"categories":[],"categories_nodes":[],"categories_segments":[],"categories_sizes":[],"default_left":[0,0,0,0,0,0,0,0,0,0,0,0,0,0,0],"id":42,"left_children":[1,3,5,7,9,11,13,-1,-1,-1,-1,-1,-1,-1,-1],"loss_changes":[6.8236206E1,2.2068799E0,7.8082695E1,1.4998088E0,3.1259248E0,3.1064789E1,3.2814472E0,0E0,0E0,0E0,0E0,0E0,0E0,0E0,0E0],"parents":[2147483647,0,0,1,1,2,2,3,3,4,4,5,5,6,6],"right_children":[2,4,6,8,10,12,14,-1,-1,-1,-1,-1,-1,-1,-1],"split_conditions":[6.11E1,7.71E1,8E1,7.7E1,7.9E1,5.04E1,1.12E2,1.6323311E-2,5.322972E-3,-2.8334204E-2,3.58461E-3,7.8080683E-3,-5.4480214E-2,-9.3615643E-4,2.095113E-2],"split_indices":[3,2,2,1,2,6,1,0,0,0,0,0,0,0,0],"split_type":[0,0,0,0,0,0,0,0,0,0,0,0,0,0,0],"sum_hessian":[2.1840405E3,8.624098E2,1.3216307E3,7.1390765E2,1.4850214E2,8.7111505E2,4.5051572E2,1.5936952E2,5.5453815E2,4.19951E1,1.06507034E2,8.892529E1,7.8218976E2,3.6733752E2,8.3178215E1],"tree_param":{"num_deleted":"0","num_feature":"7","num_nodes":"15","size_leaf_vector":"1"}},{"base_weights":[-8.638088E-2,1.5216517E-1,-2.479081E-1,1.7231184E-1,2.6999788E-2,-4.6832532E-1,1.4291768E-1,2.6400844E-2,1.3966392E-2,-1.8648967E-2,3.5205897E-2,1.6272618E-2,-5.488775E-2,1.3404611E-2,7.478865E-2],"categories":[],"categories_nodes":[],"categories_segments":[],"categories_sizes":[],"default_left":[0,0,0,0,0,0,0,0,0,0,0,0,0,0,0],"id":43,"left_children":[1,3,5,7,9,11,13,-1,-1,-1,-1,-1,-1,-1,-1],"loss_changes":[8.915882E1,2.3517227E0,1.18901764E2,2.3721905E0,9.138724E0,4.493712E1,2.5736666E0,0E0,0E0,0E0,0E0,0E0,0E0,0E0,0E0],"parents":[2147483647,0,0,1,1,2,2,3,3,4,4,5,5,6,6],"right_children":[2,4,6,8,10,12,14,-1,-1,-1,-1,-1,-1,-1,-1],"split_conditions":[6.11E1,5.94E1,8E1,9.51E1,5.5E1,5.11E1,9.7E1,2.6400844E-2,1.3966392E-2,-1.8648967E-2,3.5205897E-2,1.6272618E-2,-5.488775E-2,1.3404611E-2,7.478865E-2],"split_indices":[3,3,2,5,6,6,6,0,0,0,0,0,0,0,0],"split_type":[0,0,0,0,0,0,0,0,0,0,0,0,0,0,0],"sum_hessian":[2.3119304E3,9.3345166E2,1.3784788E3,8.037096E2,1.2974207E2,8.8126575E2,4.9721295E2,2.0916156E2,5.9454803E2,7.85675E1,5.1174572E1,9.964209E1,7.8162366E2,4.912309E2,5.982077E0],"tree_param":{"num_deleted":"0","num_feature":"7","num_nodes":"15","size_leaf_vector":"1"}},{"base_weights":[2.4778198E-1,-4.5614284E-1,4.1162607E-1,-5.033004E-1,-3.0150247E-1,5.4249346E-1,-3.9368552E-1,-1.09609105E-2,-5.1752824E-2,-1.0111836E-2,-4.4281825E-2,-3.9433926E-2,5.934626E-2,-4.377299E-2,-1.3337267E-2],"categories":[],"categories_nodes":[],"categories_segments":[],"categories_sizes":[],"default_left":[0,0,0,0,0,0,0,0,0,0,0,0,0,0,0],"id":44,"left_children":[1,3,5,7,9,11,13,-1,-1,-1,-1,-1,-1,-1,-1],"loss_changes":[2.5984613E2,2.9515991E0,1.927388E2,1.7615585E0,2.8419285E0,7.528961E1,2.8761253E0,0E0,0E0,0E0,0E0,0E0,0E0,0E0,0E0],"parents":[2147483647,0,0,1,1,2,2,3,3,4,4,5,5,6,6],"right_children":[2,4,6,8,10,12,14,-1,-1,-1,-1,-1,-1,-1,-1],"split_conditions":[6.01E1,7.51E1,8.1E1,7.6E1,1.188E2,5.11E1,9.9E1,-1.09609105E-2,-5.1752824E-2,-1.0111836E-2,-4.4281825E-2,-3.9433926E-2,5.934626E-2,-4.377299E-2,-1.3337267E-2],"split_indices":[3,2,2,4,4,6,2,0,0,0,0,0,0,0,0],"split_type":[0,0,0,0,0,0,0,0,0,0,0,0,0,0,0],"sum_hessian":[2.2503613E3,4.2455554E2,1.8258057E3,3.2361465E2,1.00940895E2,1.5708591E3,2.5494652E2,1.1590945E1,3.120237E2,4.2455315E1,5.8485577E1,8.0706474E1,1.4901527E3,2.1746956E2,3.7476967E1],"tree_param":{"num_deleted":"0","num_feature":"7","num_nodes":"15","size_leaf_vector":"1"}},{"base_weights":[-1.5101776E-1,5.4357387E-2,-2.9146326E-1,3.5852276E-2,1.848314E-1,-4.7113138E-1,3.206884E-2,6.4010024E-3,-8.998901E-3,1.2364351E-2,6.640405E-2,7.537891E-3,-5.3871673E-2,-9.95792E-3,8.289099E-3],"categories":[],"categories_nodes":[],"categories_segments":[],"categories_sizes":[],"default_left":[0,0,0,0,0,0,0,0,0,0,0,0,0,0,0],"id":45,"left_children":[1,3,5,7,9,11,13,-1,-1,-1,-1,-1,-1,-1,-1],"loss_changes":[6.1205006E1,2.0755424E0,7.325679E1,2.6863656E0,3.051761E0,2.9965454E1,3.0245261E0,0E0,0E0,0E0,0E0,0E0,0E0,0E0,0E0],"parents":[2147483647,0,0,1,1,2,2,3,3,4,4,5,5,6,6],"right_children":[2,4,6,8,10,12,14,-1,-1,-1,-1,-1,-1,-1,-1],"split_conditions":[6.11E1,1.1E2,8E1,5.9E1,2.9E1,5.04E1,1.18E2,6.4010024E-3,-8.998901E-3,1.2364351E-2,6.640405E-2,7.537891E-3,-5.3871673E-2,-9.95792E-3,8.289099E-3],"split_indices":[3,1,2,3,0,6,4,0,0,0,0,0,0,0,0],"split_type":[0,0,0,0,0,0,0,0,0,0,0,0,0,0,0],"sum_hessian":[2.1203816E3,8.6138336E2,1.2589983E3,7.55505E2,1.0587838E2,8.091784E2,4.4981992E2,6.177672E2,1.3773781E2,9.500559E1,1.0872788E1,8.904282E1,7.2013556E2,1.2501799E2,3.2480194E2],"tree_param":{"num_deleted":"0","num_feature":"7","num_nodes":"15","size_leaf_vector":"1"}},{"base_weights":[-7.912513E-2,1.4160071E-1,-2.354505E-1,1.5973878E-1,2.7719932E-2,-4.584135E-1,1.3261887E-1,1.21499915E-2,2.3268877E-2,-1.763939E-2,3.342729E-2,1.5042508E-2,-5.430607E-2,7.4194535E-3,2.1771759E-2],"categories":[],"categories_nodes":[],"categories_segments":[],"categories_sizes":[],"default_left":[0,0,0,0,0,0,0,0,0,0,0,0,0,0,0],"id":46,"left_children":[1,3,5,7,9,11,13,-1,-1,-1,-1,-1,-1,-1,-1],"loss_changes":[7.7615265E1,1.9223824E0,1.0810889E2,2.215763E0,8.153869E0,4.2349197E1,2.4571123E0,0E0,0E0,0E0,0E0,0E0,0E0,0E0,0E0],"parents":[2147483647,0,0,1,1,2,2,3,3,4,4,5,5,6,6],"right_children":[2,4,6,8,10,12,14,-1,-1,-1,-1,-1,-1,-1,-1],"split_conditions":[6.11E1,5.94E1,8E1,2.17E1,5.5E1,5.11E1,2.07E1,1.21499915E-2,2.3268877E-2,-1.763939E-2,3.342729E-2,1.5042508E-2,-5.430607E-2,7.4194535E-3,2.1771759E-2],"split_indices":[3,3,2,0,6,6,0,0,0,0,0,0,0,0,0],"split_type":[0,0,0,0,0,0,0,0,0,0,0,0,0,0,0],"sum_hessian":[2.2474224E3,9.3182E2,1.3156023E3,8.0344995E2,1.2837007E2,8.191473E2,4.9645505E2,5.2888495E2,2.7456497E2,7.731535E1,5.1054718E1,9.9890656E1,7.1925665E2,2.9547156E2,2.0098347E2],"tree_param":{"num_deleted":"0","num_feature":"7","num_nodes":"15","size_leaf_vector":"1"}},{"base_weights":[2.345416E-1,-4.4620848E-1,3.962343E-1,-4.947463E-1,-2.8997055E-1,5.2689993E-1,-3.823179E-1,-9.957346E-3,-5.095336E-2,-9.415875E-3,-4.3221377E-2,-3.7958093E-2,5.791625E-2,-4.2710867E-2,-1.2364683E-2],"categories":[],"categories_nodes":[],"categories_segments":[],"categories_sizes":[],"default_left":[0,0,0,0,0,0,0,0,0,0,0,0,0,0,0],"id":47,"left_children":[1,3,5,7,9,11,13,-1,-1,-1,-1,-1,-1,-1,-1],"loss_changes":[2.3402054E2,2.9522781E0,1.7489551E2,1.7610397E0,2.7216702E0,6.990207E1,2.813202E0,0E0,0E0,0E0,0E0,0E0,0E0,0E0,0E0],"parents":[2147483647,0,0,1,1,2,2,3,3,4,4,5,5,6,6],"right_children":[2,4,6,8,10,12,14,-1,-1,-1,-1,-1,-1,-1,-1],"split_conditions":[6.01E1,7.51E1,8.1E1,7.6E1,1.188E2,1.141E2,9.9E1,-9.957346E-3,-5.095336E-2,-9.415875E-3,-4.3221377E-2,-3.7958093E-2,5.791625E-2,-4.2710867E-2,-1.2364683E-2],"split_indices":[3,2,2,4,4,4,2,0,0,0,0,0,0,0,0],"split_type":[0,0,0,0,0,0,0,0,0,0,0,0,0,0,0],"sum_hessian":[2.1234558E3,4.0722382E2,1.7162319E3,3.0904684E2,9.8176994E1,1.4698654E3,2.463666E2,1.1426274E1,2.9762054E2,4.200918E1,5.6167816E1,7.978317E1,1.3900822E3,2.0944797E2,3.6918617E1],"tree_param":{"num_deleted":"0","num_feature":"7","num_nodes":"15","size_leaf_vector":"1"}},{"base_weights":[-1.3874069E-1,5.3753946E-2,-2.7667266E-1,3.6160767E-2,1.7723516E-1,-4.61202E-1,3.2587066E-2,1.3578238E-2,4.4741324E-4,1.1876273E-2,6.283352E-2,7.310146E-3,-5.3311076E-2,-6.5781164E-4,2.0254014E-2],"categories":[],"categories_nodes":[],"categories_segments":[],"categories_sizes":[],"default_left":[0,0,0,0,0,0,0,0,0,0,0,0,0,0,0],"id":48,"left_children":[1,3,5,7,9,11,13,-1,-1,-1,-1,-1,-1,-1,-1],"loss_changes":[5.4763695E1,1.8653443E0,6.857684E1,2.3839543E0,2.7527702E0,2.8951324E1,2.9960036E0,0E0,0E0,0E0,0E0,0E0,0E0,0E0,0E0],"parents":[2147483647,0,0,1,1,2,2,3,3,4,4,5,5,6,6],"right_children":[2,4,6,8,10,12,14,-1,-1,-1,-1,-1,-1,-1,-1],"split_conditions":[6.11E1,1.1E2,8E1,6.6E1,2.9E1,5.04E1,1.12E2,1.3578238E-2,4.4741324E-4,1.1876273E-2,6.283352E-2,7.310146E-3,-5.3311076E-2,-6.5781164E-4,2.0254014E-2],"split_indices":[3,1,2,2,0,6,1,0,0,0,0,0,0,0,0],"split_type":[0,0,0,0,0,0,0,0,0,0,0,0,0,0,0],"sum_hessian":[2.0610117E3,8.6059534E2,1.2004164E3,7.544033E2,1.0619197E2,7.515122E2,4.4890414E2,1.81256E2,5.7314734E2,9.512497E1,1.1067001E1,8.914225E1,6.6237E2,3.656114E2,8.329277E1],"tree_param":{"num_deleted":"0","num_feature":"7","num_nodes":"15","size_leaf_vector":"1"}},{"base_weights":[-7.227772E-2,1.3172111E-1,-2.2321671E-1,1.111198E-1,2.219518E-1,-4.485974E-1,1.2328435E-1,1.4183831E-2,-1.0068114E-2,7.2474435E-2,1.9637566E-2,1.4121559E-2,-5.378E-2,1.14734145E-2,7.058465E-2],"categories":[],"categories_nodes":[],"categories_segments":[],"categories_sizes":[],"default_left":[0,0,0,0,0,0,0,0,0,0,0,0,0,0,0],"id":49,"left_children":[1,3,5,7,9,11,13,-1,-1,-1,-1,-1,-1,-1,-1],"loss_changes":[6.739039E1,1.7058334E0,9.8276245E1,4.958356E0,2.0700197E0,4.018071E1,2.391873E0,0E0,0E0,0E0,0E0,0E0,0E0,0E0,0E0],"parents":[2147483647,0,0,1,1,2,2,3,3,4,4,5,5,6,6],"right_children":[2,4,6,8,10,12,14,-1,-1,-1,-1,-1,-1,-1,-1],"split_conditions":[6.11E1,1.23E2,8E1,5.94E1,6.1E1,5.11E1,9.7E1,1.4183831E-2,-1.0068114E-2,7.2474435E-2,1.9637566E-2,1.4121559E-2,-5.378E-2,1.14734145E-2,7.058465E-2],"split_indices":[3,4,2,3,1,6,6,0,0,0,0,0,0,0,0],"split_type":[0,0,0,0,0,0,0,0,0,0,0,0,0,0,0],"sum_hessian":[2.1866572E3,9.299405E2,1.2567167E3,7.58901E2,1.7103949E2,7.6126154E2,4.9545517E2,6.6306396E2,9.583706E1,6.9560604E0,1.6408342E2,9.9930725E1,6.613308E2,4.8946823E2,5.986932E0],"tree_param":{"num_deleted":"0","num_feature":"7","num_nodes":"15","size_leaf_vector":"1"}},{"base_weights":[2.217698E-1,-4.3655506E-1,3.8162386E-1,-4.865163E-1,-2.7873546E-1,4.9557123E-1,-5.04559E-1,-9.056493E-3,-5.018707E-2,-8.766809E-3,-4.21794E-2,-3.71785E-2,5.829796E-2,-1.441692E-1,-4.3089148E-2],"categories":[],"categories_nodes":[],"categories_segments":[],"categories_sizes":[],"default_left":[0,0,0,0,0,0,0,0,0,0,0,0,0,0,0],"id":50,"left_children":[1,3,5,7,9,11,13,-1,-1,-1,-1,-1,-1,-1,-1],"loss_changes":[2.1095352E2,2.9537354E0,1.630458E2,1.755661E0,2.60216E0,1.0855603E2,1.2093613E1,0E0,0E0,0E0,0E0,0E0,0E0,0E0,0E0],"parents":[2147483647,0,0,1,1,2,2,3,3,4,4,5,5,6,6],"right_children":[2,4,6,8,10,12,14,-1,-1,-1,-1,-1,-1,-1,-1],"split_conditions":[6.01E1,7.51E1,1.2E2,7.6E1,1.188E2,5.11E1,8.01E1,-9.056493E-3,-5.018707E-2,-8.766809E-3,-4.21794E-2,-3.71785E-2,5.829796E-2,-1.441692E-1,-4.3089148E-2],"split_indices":[3,2,4,4,4,6,2,0,0,0,0,0,0,0,0],"split_type":[0,0,0,0,0,0,0,0,0,0,0,0,0,0,0],"sum_hessian":[2.0019944E3,3.9080722E2,1.6111871E3,2.9525507E2,9.555215E1,1.4280111E3,1.8317607E2,1.1279622E1,2.8397543E2,4.1601913E1,5.3950237E1,1.3043604E2,1.2975751E3,1.1996529E1,1.7117953E2],"tree_param":{"num_deleted":"0","num_feature":"7","num_nodes":"15","size_leaf_vector":"1"}},{"base_weights":[-1.27009E-1,5.2987613E-2,-2.6205605E-1,1.998877E-1,3.944654E-2,-4.5127213E-1,3.247325E-2,4.5558732E-2,2.1662076E-3,-2.2105714E-2,5.0758305E-3,7.050432E-3,-5.2783806E-2,2.7147561E-2,6.1469636E-4],"categories":[],"categories_nodes":[],"categories_segments":[],"categories_sizes":[],"default_left":[0,0,0,0,0,0,0,0,0,0,0,0,0,0,0],"id":51,"left_children":[1,3,5,7,9,11,13,-1,-1,-1,-1,-1,-1,-1,-1],"loss_changes":[4.880615E1,1.7053251E0,6.3935913E1,3.291558E0,2.3386233E0,2.793901E1,2.8270776E0,0E0,0E0,0E0,0E0,0E0,0E0,0E0,0E0],"parents":[2147483647,0,0,1,1,2,2,3,3,4,4,5,5,6,6],"right_children":[2,4,6,8,10,12,14,-1,-1,-1,-1,-1,-1,-1,-1],"split_conditions":[6.11E1,4.5E1,8E1,9.7E1,8.3E1,5.04E1,6.7E1,4.5558732E-2,2.1662076E-3,-2.2105714E-2,5.0758305E-3,7.050432E-3,-5.2783806E-2,2.7147561E-2,6.1469636E-4],"split_indices":[3,3,2,4,4,6,1,0,0,0,0,0,0,0,0],"split_type":[0,0,0,0,0,0,0,0,0,0,0,0,0,0,0],"sum_hessian":[2.0062504E3,8.602625E2,1.1459879E3,7.144384E1,7.8881866E2,6.974129E2,4.48575E2,2.8704851E1,4.2738987E1,3.2055515E1,7.567631E2,8.925343E1,6.081595E2,4.358431E1,4.049907E2],"tree_param":{"num_deleted":"0","num_feature":"7","num_nodes":"15","size_leaf_vector":"1"}},{"base_weights":[-6.5859295E-2,1.2241494E-1,-2.1125232E-1,1.929534E-1,9.795958E-2,-4.388678E-1,1.1417381E-1,2.1233192E-2,-5.0169624E-2,-7.588305E-2,1.0392422E-2,1.3059214E-2,-5.3287614E-2,-4.7091077E-4,1.5349488E-2],"categories":[],"categories_nodes":[],"categories_segments":[],"categories_sizes":[],"default_left":[0,0,0,0,0,0,0,0,0,0,0,0,0,0,0],"id":52,"left_children":[1,3,5,7,9,11,13,-1,-1,-1,-1,-1,-1,-1,-1],"loss_changes":[5.8358818E1,1.5839949E0,8.914311E1,3.3127527E0,3.6153412E0,3.796968E1,2.318512E0,0E0,0E0,0E0,0E0,0E0,0E0,0E0,0E0],"parents":[2147483647,0,0,1,1,2,2,3,3,4,4,5,5,6,6],"right_children":[2,4,6,8,10,12,14,-1,-1,-1,-1,-1,-1,-1,-1],"split_conditions":[6.11E1,9.51E1,8E1,1.27E2,9.6E1,5.11E1,8.1E1,2.1233192E-2,-5.0169624E-2,-7.588305E-2,1.0392422E-2,1.3059214E-2,-5.3287614E-2,-4.7091077E-4,1.5349488E-2],"split_indices":[3,5,2,1,5,6,1,0,0,0,0,0,0,0,0],"split_type":[0,0,0,0,0,0,0,0,0,0,0,0,0,0,0],"sum_hessian":[2.129981E3,9.2819226E2,1.2017888E3,2.371815E2,6.9101074E2,7.0696313E2,4.9482568E2,2.3141997E2,5.761547E0,3.904657E0,6.871061E2,1.0011608E2,6.0684705E2,1.2320605E2,3.7161963E2],"tree_param":{"num_deleted":"0","num_feature":"7","num_nodes":"15","size_leaf_vector":"1"}},{"base_weights":[2.094639E-1,-4.2712405E-1,3.6778557E-1,-4.7851616E-1,-2.6790145E-1,4.8253435E-1,-4.9105784E-1,-8.137179E-3,-4.9446564E-2,-8.185889E-3,-4.1157883E-2,-3.6041215E-2,5.712089E-2,-1.302416E-1,-4.208001E-2],"categories":[],"categories_nodes":[],"categories_segments":[],"categories_sizes":[],"default_left":[0,0,0,0,0,0,0,0,0,0,0,0,0,0,0],"id":53,"left_children":[1,3,5,7,9,11,13,-1,-1,-1,-1,-1,-1,-1,-1],"loss_changes":[1.9035191E2,2.9511566E0,1.4922691E2,1.7537613E0,2.4815512E0,9.99288E1,9.63736E0,0E0,0E0,0E0,0E0,0E0,0E0,0E0,0E0],"parents":[2147483647,0,0,1,1,2,2,3,3,4,4,5,5,6,6],"right_children":[2,4,6,8,10,12,14,-1,-1,-1,-1,-1,-1,-1,-1],"split_conditions":[6.01E1,7.51E1,1.2E2,7.6E1,1.188E2,5.11E1,8.01E1,-8.137179E-3,-4.9446564E-2,-8.185889E-3,-4.1157883E-2,-3.6041215E-2,5.712089E-2,-1.302416E-1,-4.208001E-2],"split_indices":[3,2,4,4,4,6,2,0,0,0,0,0,0,0,0],"split_type":[0,0,0,0,0,0,0,0,0,0,0,0,0,0,0],"sum_hessian":[1.8861215E3,3.7531955E2,1.510802E3,2.822218E2,9.309775E1,1.3331235E3,1.7767847E2,1.113214E1,2.7108966E2,4.1251904E1,5.184584E1,1.26599106E2,1.2065244E3,1.2761938E1,1.6491653E2],"tree_param":{"num_deleted":"0","num_feature":"7","num_nodes":"15","size_leaf_vector":"1"}},{"base_weights":[-1.15963385E-1,5.196131E-2,-2.4771893E-1,3.5484742E-2,1.670254E-1,-4.4135854E-1,3.2312315E-2,6.0153618E-3,-7.7431398E-3,4.8753448E-2,9.510542E-3,6.7998925E-3,-5.2291345E-2,-5.45753E-4,1.9522887E-2],"categories":[],"categories_nodes":[],"categories_segments":[],"categories_sizes":[],"default_left":[0,0,0,0,0,0,0,0,0,0,0,0,0,0,0],"id":54,"left_children":[1,3,5,7,9,11,13,-1,-1,-1,-1,-1,-1,-1,-1],"loss_changes":[4.3299725E1,1.6264E0,5.9470634E1,2.1060987E0,2.433392E0,2.6966156E1,2.764998E0,0E0,0E0,0E0,0E0,0E0,0E0,0E0,0E0],"parents":[2147483647,0,0,1,1,2,2,3,3,4,4,5,5,6,6],"right_children":[2,4,6,8,10,12,14,-1,-1,-1,-1,-1,-1,-1,-1],"split_conditions":[6.11E1,1.1E2,8E1,5.9E1,1.12E2,5.04E1,1.12E2,6.0153618E-3,-7.7431398E-3,4.8753448E-2,9.510542E-3,6.7998925E-3,-5.2291345E-2,-5.45753E-4,1.9522887E-2],"split_indices":[3,1,2,3,1,6,1,0,0,0,0,0,0,0,0],"split_type":[0,0,0,0,0,0,0,0,0,0,0,0,0,0,0],"sum_hessian":[1.955467E3,8.5999475E2,1.0954724E3,7.534177E2,1.0657704E2,6.4729584E2,4.481765E2,6.1871405E2,1.3470366E2,1.847316E1,8.810388E1,8.935964E1,5.579362E2,3.6461282E2,8.3563705E1],"tree_param":{"num_deleted":"0","num_feature":"7","num_nodes":"15","size_leaf_vector":"1"}},{"base_weights":[-5.985104E-2,1.1369067E-1,-1.996014E-1,8.469766E-2,1.7070794E-1,-4.2918244E-1,1.057675E-1,6.7685815E-3,2.614289E-2,3.3633254E-2,1.2176747E-2,1.2081272E-2,-5.283437E-2,4.978377E-3,1.8775888E-2],"categories":[],"categories_nodes":[],"categories_segments":[],"categories_sizes":[],"default_left":[0,0,0,0,0,0,0,0,0,0,0,0,0,0,0],"id":55,"left_children":[1,3,5,7,9,11,13,-1,-1,-1,-1,-1,-1,-1,-1],"loss_changes":[5.043239E1,1.5193071E0,8.0789246E1,1.8374557E0,2.4861622E0,3.5930557E1,2.2631636E0,0E0,0E0,0E0,0E0,0E0,0E0,0E0,0E0],"parents":[2147483647,0,0,1,1,2,2,3,3,4,4,5,5,6,6],"right_children":[2,4,6,8,10,12,14,-1,-1,-1,-1,-1,-1,-1,-1],"split_conditions":[6.11E1,2.18E1,8E1,1.32E2,8E1,5.11E1,2.07E1,6.7685815E-3,2.614289E-2,3.3633254E-2,1.2176747E-2,1.2081272E-2,-5.283437E-2,4.978377E-3,1.8775888E-2],"split_indices":[3,0,2,4,1,6,0,0,0,0,0,0,0,0,0],"split_type":[0,0,0,0,0,0,0,0,0,0,0,0,0,0,0],"sum_hessian":[2.077535E3,9.2681024E2,1.1507246E3,6.1604156E2,3.1076868E2,6.5664404E2,4.9408057E2,5.632108E2,5.2830708E1,6.95443E1,2.412244E2,1.0027164E2,5.563724E2,2.9456125E2,1.9951933E2],"tree_param":{"num_deleted":"0","num_feature":"7","num_nodes":"15","size_leaf_vector":"1"}},{"base_weights":[1.9763951E-1,-4.1784942E-1,3.546784E-1,-4.7082436E-1,-2.5680232E-1,4.704635E-1,-4.7816005E-1,-7.5234906E-3,-4.8732545E-2,-7.4153678E-3,-4.018364E-2,-3.488984E-2,5.6052912E-2,-1.1913259E-1,-4.1096237E-2],"categories":[],"categories_nodes":[],"categories_segments":[],"categories_sizes":[],"default_left":[0,0,0,0,0,0,0,0,0,0,0,0,0,0,0],"id":56,"left_children":[1,3,5,7,9,11,13,-1,-1,-1,-1,-1,-1,-1,-1],"loss_changes":[1.7194225E2,2.9654655E0,1.3682986E2,1.7324562E0,2.400528E0,9.201401E1,7.8203964E0,0E0,0E0,0E0,0E0,0E0,0E0,0E0,0E0],"parents":[2147483647,0,0,1,1,2,2,3,3,4,4,5,5,6,6],"right_children":[2,4,6,8,10,12,14,-1,-1,-1,-1,-1,-1,-1,-1],"split_conditions":[6.01E1,7.51E1,1.2E2,7.6E1,1.188E2,5.11E1,8.01E1,-7.5234906E-3,-4.8732545E-2,-7.4153678E-3,-4.018364E-2,-3.488984E-2,5.6052912E-2,-1.1913259E-1,-4.1096237E-2],"split_indices":[3,2,4,4,4,6,2,0,0,0,0,0,0,0,0],"split_type":[0,0,0,0,0,0,0,0,0,0,0,0,0,0,0],"sum_hessian":[1.7763816E3,3.6076395E2,1.4156177E3,2.7001987E2,9.074407E1,1.2432151E3,1.7240254E2,1.1034831E1,2.5898505E2,4.08327E1,4.991137E1,1.2283777E2,1.1203773E3,1.3405194E1,1.5899734E2],"tree_param":{"num_deleted":"0","num_feature":"7","num_nodes":"15","size_leaf_vector":"1"}},{"base_weights":[-1.05555885E-1,5.0845984E-2,-2.3366573E-1,1.8732738E-1,3.8173866E-2,-4.314036E-1,3.2080527E-2,4.2657122E-2,1.874973E-3,-2.1347031E-2,4.904508E-3,6.5575573E-3,-5.1828057E-2,-3.8317434E-4,1.8593421E-2],"categories":[],"categories_nodes":[],"categories_segments":[],"categories_sizes":[],"default_left":[0,0,0,0,0,0,0,0,0,0,0,0,0,0,0],"id":57,"left_children":[1,3,5,7,9,11,13,-1,-1,-1,-1,-1,-1,-1,-1],"loss_changes":[3.826871E1,1.4811962E0,5.517803E1,2.9304304E0,2.1681073E0,2.6025131E1,2.480461E0,0E0,0E0,0E0,0E0,0E0,0E0,0E0,0E0],"parents":[2147483647,0,0,1,1,2,2,3,3,4,4,5,5,6,6],"right_children":[2,4,6,8,10,12,14,-1,-1,-1,-1,-1,-1,-1,-1],"split_conditions":[6.11E1,4.5E1,8E1,9.7E1,8.3E1,5.04E1,1.12E2,4.2657122E-2,1.874973E-3,-2.1347031E-2,4.904508E-3,6.5575573E-3,-5.1828057E-2,-3.8317434E-4,1.8593421E-2],"split_indices":[3,3,2,4,4,6,1,0,0,0,0,0,0,0,0],"split_type":[0,0,0,0,0,0,0,0,0,0,0,0,0,0,0],"sum_hessian":[1.9083456E3,8.5956085E2,1.0487848E3,7.185751E1,7.8770337E2,6.009806E2,4.4780417E2,2.9070507E1,4.2787003E1,3.1848389E1,7.55855E2,8.946154E1,5.1151904E2,3.6385E2,8.395417E1],"tree_param":{"num_deleted":"0","num_feature":"7","num_nodes":"15","size_leaf_vector":"1"}},{"base_weights":[-5.4113325E-2,1.0587399E-1,-1.8826082E-1,-1.3549927E-1,1.12262174E-1,-4.194849E-1,9.805085E-2,5.505873E-2,-2.7566407E-2,5.753777E-2,1.0119341E-2,1.118048E-2,-5.2414864E-2,8.986622E-3,6.582764E-2],"categories":[],"categories_nodes":[],"categories_segments":[],"categories_sizes":[],"default_left":[0,0,0,0,0,0,0,0,0,0,0,0,0,0,0],"id":58,"left_children":[1,3,5,7,9,11,13,-1,-1,-1,-1,-1,-1,-1,-1],"loss_changes":[4.3579712E1,1.4435158E0,7.315005E1,2.4921124E0,4.5704947E0,3.4041412E1,2.206871E0,0E0,0E0,0E0,0E0,0E0,0E0,0E0,0E0],"parents":[2147483647,0,0,1,1,2,2,3,3,4,4,5,5,6,6],"right_children":[2,4,6,8,10,12,14,-1,-1,-1,-1,-1,-1,-1,-1],"split_conditions":[6.11E1,2.7E1,8E1,2E1,3E1,5.11E1,9.7E1,5.505873E-2,-2.7566407E-2,5.753777E-2,1.0119341E-2,1.118048E-2,-5.2414864E-2,8.986622E-3,6.582764E-2],"split_indices":[3,6,2,6,6,6,6,0,0,0,0,0,0,0,0],"split_type":[0,0,0,0,0,0,0,0,0,0,0,0,0,0,0],"sum_hessian":[2.0286332E3,9.253048E2,1.1033284E3,2.3336613E1,9.019682E2,6.1012714E2,4.9320123E2,3.4620812E0,1.987453E1,1.986435E1,8.821038E2,1.00402054E2,5.097251E2,4.8724326E2,5.957976E0],"tree_param":{"num_deleted":"0","num_feature":"7","num_nodes":"15","size_leaf_vector":"1"}},{"base_weights":[1.860594E-1,-4.0873554E-1,3.419218E-1,-4.6328926E-1,-2.4600382E-1,4.5889568E-1,-4.6576002E-1,-7.7313962E-3,-4.8108622E-2,-6.7736777E-3,-3.918832E-2,-3.3779826E-2,5.506395E-2,-1.1001885E-1,-4.013283E-2],"categories":[],"categories_nodes":[],"categories_segments":[],"categories_sizes":[],"default_left":[0,0,0,0,0,0,0,0,0,0,0,0,0,0,0],"id":59,"left_children":[1,3,5,7,9,11,13,-1,-1,-1,-1,-1,-1,-1,-1],"loss_changes":[1.5528474E2,2.9748573E0,1.2554579E2,1.7449951E0,2.30063E0,8.4918564E1,6.438755E0,0E0,0E0,0E0,0E0,0E0,0E0,0E0,0E0],"parents":[2147483647,0,0,1,1,2,2,3,3,4,4,5,5,6,6],"right_children":[2,4,6,8,10,12,14,-1,-1,-1,-1,-1,-1,-1,-1],"split_conditions":[6.01E1,7.51E1,1.2E2,2.7E1,1.188E2,5.11E1,8.01E1,-7.7313962E-3,-4.8108622E-2,-6.7736777E-3,-3.918832E-2,-3.3779826E-2,5.506395E-2,-1.1001885E-1,-4.013283E-2],"split_indices":[3,2,4,6,4,6,2,0,0,0,0,0,0,0,0],"split_type":[0,0,0,0,0,0,0,0,0,0,0,0,0,0,0],"sum_hessian":[1.6725132E3,3.4693463E2,1.3255785E3,2.5844678E2,8.8487854E1,1.158263E3,1.6731555E2,1.16270485E1,2.4681973E2,4.0482227E1,4.800563E1,1.1933019E2,1.0389329E3,1.3943663E1,1.5337189E2],"tree_param":{"num_deleted":"0","num_feature":"7","num_nodes":"15","size_leaf_vector":"1"}},{"base_weights":[-9.5729455E-2,4.9689546E-2,-2.1991402E-1,3.4047797E-2,1.5851586E-1,-4.2135957E-1,3.1775247E-2,1.267264E-2,6.2308356E-4,1.0399972E-2,5.7042714E-2,6.3222195E-3,-5.1388837E-2,2.4956726E-2,7.4198976E-4],"categories":[],"categories_nodes":[],"categories_segments":[],"categories_sizes":[],"default_left":[0,0,0,0,0,0,0,0,0,0,0,0,0,0,0],"id":60,"left_children":[1,3,5,7,9,11,13,-1,-1,-1,-1,-1,-1,-1,-1],"loss_changes":[3.3712326E1,1.4592478E0,5.105878E1,1.941942E0,2.3626485E0,2.5109154E1,2.37719E0,0E0,0E0,0E0,0E0,0E0,0E0,0E0,0E0],"parents":[2147483647,0,0,1,1,2,2,3,3,4,4,5,5,6,6],"right_children":[2,4,6,8,10,12,14,-1,-1,-1,-1,-1,-1,-1,-1],"split_conditions":[6.11E1,1.1E2,8E1,1.6E1,2.9E1,5.04E1,6.7E1,1.267264E-2,6.2308356E-4,1.0399972E-2,5.7042714E-2,6.3222195E-3,-5.1388837E-2,2.4956726E-2,7.4198976E-4],"split_indices":[3,1,2,0,0,6,1,0,0,0,0,0,0,0,0],"split_type":[0,0,0,0,0,0,0,0,0,0,0,0,0,0,0],"sum_hessian":[1.8652042E3,8.5942505E2,1.0057791E3,7.5257007E2,1.06855034E2,5.582757E2,4.4750345E2,1.7291342E2,5.796566E2,9.5471886E1,1.138315E1,8.955977E1,4.687159E2,4.408015E1,4.0342328E2],"tree_param":{"num_deleted":"0","num_feature":"7","num_nodes":"15","size_leaf_vector":"1"}},{"base_weights":[-4.8767395E-2,9.855091E-2,-1.7719124E-1,1.6572803E-1,7.537555E-2,-4.097294E-1,9.0999365E-2,1.841378E-2,-4.9158186E-2,-7.500272E-2,8.108806E-3,1.2215717E-2,-5.1668346E-2,-2.2488968E-3,1.2866405E-2],"categories":[],"categories_nodes":[],"categories_segments":[],"categories_sizes":[],"default_left":[0,0,0,0,0,0,0,0,0,0,0,0,0,0,0],"id":61,"left_children":[1,3,5,7,9,11,13,-1,-1,-1,-1,-1,-1,-1,-1],"loss_changes":[3.756156E1,1.4274063E0,6.6179245E1,2.951128E0,3.3118052E0,3.2387886E1,2.111703E0,0E0,0E0,0E0,0E0,0E0,0E0,0E0,0E0],"parents":[2147483647,0,0,1,1,2,2,3,3,4,4,5,5,6,6],"right_children":[2,4,6,8,10,12,14,-1,-1,-1,-1,-1,-1,-1,-1],"split_conditions":[6.11E1,9.51E1,8E1,1.27E2,9.6E1,5.04E1,8.1E1,1.841378E-2,-4.9158186E-2,-7.500272E-2,8.108806E-3,1.2215717E-2,-5.1668346E-2,-2.2488968E-3,1.2866405E-2],"split_indices":[3,5,2,1,5,6,1,0,0,0,0,0,0,0,0],"split_type":[0,0,0,0,0,0,0,0,0,0,0,0,0,0,0],"sum_hessian":[1.9834463E3,9.238764E2,1.0595698E3,2.3539607E2,6.8848035E2,5.672235E2,4.923463E2,2.2968303E2,5.713039E0,3.8365798E0,6.8464374E2,9.494019E1,4.7228333E2,1.2278447E2,3.6956183E2],"tree_param":{"num_deleted":"0","num_feature":"7","num_nodes":"15","size_leaf_vector":"1"}},{"base_weights":[1.7477445E-1,-3.9975634E-1,3.295854E-1,-4.5587072E-1,-2.356383E-1,4.4785386E-1,-4.5376083E-1,-5.6420094E-3,-4.736625E-2,-6.098642E-3,-3.825335E-2,-3.2678507E-2,5.4142702E-2,-1.0243205E-1,-3.9180283E-2],"categories":[],"categories_nodes":[],"categories_segments":[],"categories_sizes":[],"default_left":[0,0,0,0,0,0,0,0,0,0,0,0,0,0,0],"id":62,"left_children":[1,3,5,7,9,11,13,-1,-1,-1,-1,-1,-1,-1,-1],"loss_changes":[1.4029807E2,2.9772987E0,1.1526349E2,1.7396317E0,2.2193484E0,7.842763E1,5.3752556E0,0E0,0E0,0E0,0E0,0E0,0E0,0E0,0E0],"parents":[2147483647,0,0,1,1,2,2,3,3,4,4,5,5,6,6],"right_children":[2,4,6,8,10,12,14,-1,-1,-1,-1,-1,-1,-1,-1],"split_conditions":[6.01E1,7.51E1,1.2E2,7.6E1,1.188E2,5.11E1,8.01E1,-5.6420094E-3,-4.736625E-2,-6.098642E-3,-3.825335E-2,-3.2678507E-2,5.4142702E-2,-1.0243205E-1,-3.9180283E-2],"split_indices":[3,2,4,4,4,6,2,0,0,0,0,0,0,0,0],"split_type":[0,0,0,0,0,0,0,0,0,0,0,0,0,0,0],"sum_hessian":[1.5749E3,3.339543E2,1.2409457E3,2.4753929E2,8.641504E1,1.0785378E3,1.6240779E2,1.0733272E1,2.3680602E2,4.0124245E1,4.6290794E1,1.1597274E2,9.625651E2,1.4387111E1,1.4802068E2],"tree_param":{"num_deleted":"0","num_feature":"7","num_nodes":"15","size_leaf_vector":"1"}},{"base_weights":[-8.6426966E-2,4.8636273E-2,-2.0645882E-1,4.2807445E-2,3.1744173E-1,-4.1109282E-1,3.1440012E-2,1.8009417E-2,2.9977174E-3,-6.7448914E-3,6.506229E-2,6.170008E-3,-5.096971E-2,-3.2366122E-4,1.7926026E-2],"categories":[],"categories_nodes":[],"categories_segments":[],"categories_sizes":[],"default_left":[0,0,0,0,0,0,0,0,0,0,0,0,0,0,0],"id":63,"left_children":[1,3,5,7,9,11,13,-1,-1,-1,-1,-1,-1,-1,-1],"loss_changes":[2.9616713E1,1.3340652E0,4.7094044E1,1.4795207E0,2.3649056E0,2.4272385E1,2.2976851E0,0E0,0E0,0E0,0E0,0E0,0E0,0E0,0E0],"parents":[2147483647,0,0,1,1,2,2,3,3,4,4,5,5,6,6],"right_children":[2,4,6,8,10,12,14,-1,-1,-1,-1,-1,-1,-1,-1],"split_conditions":[6.11E1,3.2E1,8E1,4.5E1,1.07E2,5.04E1,1.12E2,1.8009417E-2,2.9977174E-3,-6.7448914E-3,6.506229E-2,6.170008E-3,-5.096971E-2,-3.2366122E-4,1.7926026E-2],"split_indices":[3,0,2,3,4,6,1,0,0,0,0,0,0,0,0],"split_type":[0,0,0,0,0,0,0,0,0,0,0,0,0,0,0],"sum_hessian":[1.8252319E3,8.591203E2,9.661117E2,8.42021E2,1.7099285E1,5.1897534E2,4.4713632E2,7.085204E1,7.7116895E2,8.304032E0,8.795253E0,8.962259E1,4.2935278E2,3.6296722E2,8.416909E1],"tree_param":{"num_deleted":"0","num_feature":"7","num_nodes":"15","size_leaf_vector":"1"}},{"base_weights":[-4.3859605E-2,9.166995E-2,-1.664581E-1,5.7666946E-2,8.845967E-2,-3.998445E-1,8.448302E-2,5.9613995E-3,1.4521924E-2,1.1453419E-2,-5.1269155E-2,3.0886505E-3,1.633487E-2],"categories":[],"categories_nodes":[],"categories_segments":[],"categories_sizes":[],"default_left":[0,0,0,0,0,0,0,0,0,0,0,0,0],"id":64,"left_children":[1,3,5,-1,7,9,11,-1,-1,-1,-1,-1,-1],"loss_changes":[3.228872E1,1.386344E0,5.9781845E1,0E0,1.4948072E0,3.075074E1,2.076406E0,0E0,0E0,0E0,0E0,0E0,0E0],"parents":[2147483647,0,0,1,1,2,2,4,4,5,5,6,6],"right_children":[2,4,6,-1,8,10,12,-1,-1,-1,-1,-1,-1],"split_conditions":[6.11E1,5.2E1,8E1,5.7666946E-2,2.18E1,5.04E1,2.07E1,5.9613995E-3,1.4521924E-2,1.1453419E-2,-5.1269155E-2,3.0886505E-3,1.633487E-2],"split_indices":[3,1,2,0,0,6,0,0,0,0,0,0,0],"split_type":[0,0,0,0,0,0,0,0,0,0,0,0,0],"sum_hessian":[1.9413451E3,9.22166E2,1.01917914E3,4.8891926E0,9.172768E2,5.2775244E2,4.9142667E2,6.0954926E2,3.0772757E2,9.494767E1,4.3280478E2,2.9341544E2,1.9801123E2],"tree_param":{"num_deleted":"0","num_feature":"7","num_nodes":"13","size_leaf_vector":"1"}},{"base_weights":[1.637455E-1,-3.908703E-1,3.1749E-1,-4.1972587E-1,-6.534458E-2,4.3712178E-1,-4.4209173E-1,-3.5979453E-2,-5.395245E-2,9.132214E-2,-2.6763255E-2,-3.1728994E-2,5.3276356E-2,-5.3307302E-2,-7.923118E-3],"categories":[],"categories_nodes":[],"categories_segments":[],"categories_sizes":[],"default_left":[0,0,0,0,0,0,0,0,0,0,0,0,0,0,0],"id":65,"left_children":[1,3,5,7,9,11,13,-1,-1,-1,-1,-1,-1,-1,-1],"loss_changes":[1.26677925E2,3.0026093E0,1.0583817E2,1.9319725E0,5.6782417E0,7.267621E1,5.1965904E0,0E0,0E0,0E0,0E0,0E0,0E0,0E0,0E0],"parents":[2147483647,0,0,1,1,2,2,3,3,4,4,5,5,6,6],"right_children":[2,4,6,8,10,12,14,-1,-1,-1,-1,-1,-1,-1,-1],"split_conditions":[6.01E1,5.94E1,1.2E2,2.17E1,6E1,5.11E1,9.8E1,-3.5979453E-2,-5.395245E-2,9.132214E-2,-2.6763255E-2,-3.1728994E-2,5.3276356E-2,-5.3307302E-2,-7.923118E-3],"split_indices":[3,3,4,0,3,6,2,0,0,0,0,0,0,0,0],"split_type":[0,0,0,0,0,0,0,0,0,0,0,0,0,0,0],"sum_hessian":[1.4831692E3,3.2157648E2,1.1615927E3,2.9512622E2,2.6450249E1,1.0039052E3,1.5768742E2,1.9938416E2,9.574208E1,3.9290495E0,2.25212E1,1.1269128E2,8.91214E2,1.2570093E2,3.19865E1],"tree_param":{"num_deleted":"0","num_feature":"7","num_nodes":"15","size_leaf_vector":"1"}},{"base_weights":[-7.772645E-2,4.751714E-2,-1.9338283E-1,3.274219E-2,1.4997806E-1,-4.0060496E-1,3.0937497E-2,-1.0268281E-3,8.590584E-3,-5.0890385E-3,2.5638768E-2,6.022587E-3,-5.0562676E-2,-2.6628762E-3,1.1499253E-2],"categories":[],"categories_nodes":[],"categories_segments":[],"categories_sizes":[],"default_left":[0,0,0,0,0,0,0,0,0,0,0,0,0,0,0],"id":66,"left_children":[1,3,5,7,9,11,13,-1,-1,-1,-1,-1,-1,-1,-1],"loss_changes":[2.5930511E1,1.2969204E0,4.3268517E1,1.7223375E0,2.3235588E0,2.344432E1,2.1697104E0,0E0,0E0,0E0,0E0,0E0,0E0,0E0,0E0],"parents":[2147483647,0,0,1,1,2,2,3,3,4,4,5,5,6,6],"right_children":[2,4,6,8,10,12,14,-1,-1,-1,-1,-1,-1,-1,-1],"split_conditions":[6.11E1,1.1E2,8E1,9.8E1,5.3E1,5.04E1,7E1,-1.0268281E-3,8.590584E-3,-5.0890385E-3,2.5638768E-2,6.022587E-3,-5.0562676E-2,-2.6628762E-3,1.1499253E-2],"split_indices":[3,1,2,5,3,6,3,0,0,0,0,0,0,0,0],"split_type":[0,0,0,0,0,0,0,0,0,0,0,0,0,0,0],"sum_hessian":[1.7885013E3,8.5894464E2,9.295567E2,7.5184717E2,1.07097435E2,4.827849E2,4.467718E2,4.1605615E2,3.3579105E2,3.7268257E1,6.982918E1,8.968364E1,3.9310126E2,2.6557336E2,1.8119841E2],"tree_param":{"num_deleted":"0","num_feature":"7","num_nodes":"15","size_leaf_vector":"1"}},{"base_weights":[-3.929098E-2,8.539546E-2,-1.5615503E-1,-1.5007953E-1,9.166868E-2,-3.8977045E-1,7.829415E-2,5.143562E-2,-2.8454805E-2,5.7354655E-2,8.213601E-3,9.972341E-3,-5.1090386E-2,7.0424895E-3,6.205166E-2],"categories":[],"categories_nodes":[],"categories_segments":[],"categories_sizes":[],"default_left":[0,0,0,0,0,0,0,0,0,0,0,0,0,0,0],"id":67,"left_children":[1,3,5,7,9,11,13,-1,-1,-1,-1,-1,-1,-1,-1],"loss_changes":[2.774339E1,1.374774E0,5.385356E1,2.3163748E0,4.0782485E0,2.9246712E1,2.0526412E0,0E0,0E0,0E0,0E0,0E0,0E0,0E0,0E0],"parents":[2147483647,0,0,1,1,2,2,3,3,4,4,5,5,6,6],"right_children":[2,4,6,8,10,12,14,-1,-1,-1,-1,-1,-1,-1,-1],"split_conditions":[6.11E1,2.7E1,8E1,2E1,2.9E1,1.141E2,9.7E1,5.143562E-2,-2.8454805E-2,5.7354655E-2,8.213601E-3,9.972341E-3,-5.1090386E-2,7.0424895E-3,6.205166E-2],"split_indices":[3,6,2,6,6,4,6,0,0,0,0,0,0,0,0],"split_type":[0,0,0,0,0,0,0,0,0,0,0,0,0,0,0],"sum_hessian":[1.9020513E3,9.2035785E2,9.816934E2,2.3287859E1,8.9707E2,4.9138925E2,4.903042E2,3.444213E0,1.9843647E1,1.6254143E1,8.8081586E2,9.751458E1,3.9387466E2,4.8440393E2,5.9002633E0],"tree_param":{"num_deleted":"0","num_feature":"7","num_nodes":"15","size_leaf_vector":"1"}},{"base_weights":[1.5303443E-1,-3.821332E-1,3.058081E-1,-4.4168794E-1,-2.1287018E-1,4.2660517E-1,-4.3281204E-1,-2.9049532E-3,-4.6101984E-2,-9.7113475E-3,-4.4460434E-2,-3.081662E-2,5.2451707E-2,-5.257609E-2,-7.319636E-3],"categories":[],"categories_nodes":[],"categories_segments":[],"categories_sizes":[],"default_left":[0,0,0,0,0,0,0,0,0,0,0,0,0,0,0],"id":68,"left_children":[1,3,5,7,9,11,13,-1,-1,-1,-1,-1,-1,-1,-1],"loss_changes":[1.1437497E2,3.0388718E0,9.723264E1,1.813118E0,2.1784565E0,6.745119E1,5.088379E0,0E0,0E0,0E0,0E0,0E0,0E0,0E0,0E0],"parents":[2147483647,0,0,1,1,2,2,3,3,4,4,5,5,6,6],"right_children":[2,4,6,8,10,12,14,-1,-1,-1,-1,-1,-1,-1,-1],"split_conditions":[6.01E1,7.51E1,1.2E2,7.6E1,9.83E1,5.11E1,9.8E1,-2.9049532E-3,-4.6101984E-2,-9.7113475E-3,-4.4460434E-2,-3.081662E-2,5.2451707E-2,-5.257609E-2,-7.319636E-3],"split_indices":[3,2,4,4,5,6,2,0,0,0,0,0,0,0,0],"split_type":[0,0,0,0,0,0,0,0,0,0,0,0,0,0,0],"sum_hessian":[1.39649E3,3.0979028E2,1.0866997E3,2.2797011E2,8.182018E1,9.343195E2,1.5238016E2,1.0314297E1,2.176558E2,5.5510464E1,2.630972E1,1.0961039E2,8.2470917E2,1.2071682E2,3.1663342E1],"tree_param":{"num_deleted":"0","num_feature":"7","num_nodes":"15","size_leaf_vector":"1"}},{"base_weights":[-6.966136E-2,4.6336055E-2,-1.8075328E-1,4.075982E-2,3.013033E-1,-3.9001855E-1,3.0377774E-2,1.701168E-2,2.8607748E-3,-6.3479035E-3,6.1088916E-2,5.80861E-3,-5.0165784E-2,-1.6241875E-3,1.318146E-2],"categories":[],"categories_nodes":[],"categories_segments":[],"categories_sizes":[],"default_left":[0,0,0,0,0,0,0,0,0,0,0,0,0,0,0],"id":69,"left_children":[1,3,5,7,9,11,13,-1,-1,-1,-1,-1,-1,-1,-1],"loss_changes":[2.2634628E1,1.2100676E0,3.9647087E1,1.3195081E0,2.099111E0,2.257109E1,2.1182427E0,0E0,0E0,0E0,0E0,0E0,0E0,0E0,0E0],"parents":[2147483647,0,0,1,1,2,2,3,3,4,4,5,5,6,6],"right_children":[2,4,6,8,10,12,14,-1,-1,-1,-1,-1,-1,-1,-1],"split_conditions":[6.11E1,3.2E1,8E1,4.5E1,1.07E2,5.04E1,1.36E2,1.701168E-2,2.8607748E-3,-6.3479035E-3,6.1088916E-2,5.80861E-3,-5.0165784E-2,-1.6241875E-3,1.318146E-2],"split_indices":[3,0,2,3,4,6,4,0,0,0,0,0,0,0,0],"split_type":[0,0,0,0,0,0,0,0,0,0,0,0,0,0,0],"sum_hessian":[1.7548276E3,8.587454E2,8.960822E2,8.4150134E2,1.7244097E1,4.4960403E2,4.464782E2,7.114756E1,7.7035376E2,8.281285E0,8.962811E0,8.976787E1,3.5983618E2,3.0646768E2,1.400105E2],"tree_param":{"num_deleted":"0","num_feature":"7","num_nodes":"15","size_leaf_vector":"1"}},{"base_weights":[-3.4975763E-2,7.964927E-2,-1.4609773E-1,5.4823853E-2,7.657395E-2,-3.79489E-1,7.273315E-2,4.9492293E-3,1.3008255E-2,8.5380655E-3,-5.098465E-2,2.7304411E-2,5.2005555E-3],"categories":[],"categories_nodes":[],"categories_segments":[],"categories_sizes":[],"default_left":[0,0,0,0,0,0,0,0,0,0,0,0,0],"id":70,"left_children":[1,3,5,-1,7,9,11,-1,-1,-1,-1,-1,-1],"loss_changes":[2.3793053E1,1.2833486E0,4.846386E1,0E0,1.3192825E0,2.7863312E1,2.0214715E0,0E0,0E0,0E0,0E0,0E0,0E0],"parents":[2147483647,0,0,1,1,2,2,4,4,5,5,6,6],"right_children":[2,4,6,-1,8,10,12,-1,-1,-1,-1,-1,-1],"split_conditions":[6.11E1,5.2E1,8E1,5.4823853E-2,2.18E1,5.11E1,3.3E1,4.9492293E-3,1.3008255E-2,8.5380655E-3,-5.098465E-2,2.7304411E-2,5.2005555E-3],"split_indices":[3,1,2,0,0,6,6,0,0,0,0,0,0],"split_type":[0,0,0,0,0,0,0,0,0,0,0,0,0],"sum_hessian":[1.86606E3,9.1869104E2,9.473691E2,4.834156E0,9.138569E2,4.5807788E2,4.892912E2,6.080412E2,3.058157E2,1.0039676E2,3.5768112E2,4.474113E1,4.4455008E2],"tree_param":{"num_deleted":"0","num_feature":"7","num_nodes":"13","size_leaf_vector":"1"}},{"base_weights":[1.4248236E-1,-4.0368164E-1,2.8601757E-1,-3.40569E-1,-5.3255886E-1,4.1040418E-1,-4.2965284E-1,-3.818665E-2,2.7319158E-3,-2.1501012E-2,-5.426983E-2,-2.8644118E-2,5.14925E-2,-5.210483E-2,-6.8811625E-3],"categories":[],"categories_nodes":[],"categories_segments":[],"categories_sizes":[],"default_left":[0,0,0,0,0,0,0,0,0,0,0,0,0,0,0],"id":71,"left_children":[1,3,5,7,9,11,13,-1,-1,-1,-1,-1,-1,-1,-1],"loss_changes":[1.03341286E2,2.0509415E0,9.305172E1,2.851551E0,1.6808891E-1,6.4922455E1,5.0749664E0,0E0,0E0,0E0,0E0,0E0,0E0,0E0,0E0],"parents":[2147483647,0,0,1,1,2,2,3,3,4,4,5,5,6,6],"right_children":[2,4,6,8,10,12,14,-1,-1,-1,-1,-1,-1,-1,-1],"split_conditions":[5.94E1,2.17E1,1.2E2,2.01E1,2.8E1,5.11E1,9.8E1,-3.818665E-2,2.7319158E-3,-2.1501012E-2,-5.426983E-2,-2.8644118E-2,5.14925E-2,-5.210483E-2,-6.8811625E-3],"split_indices":[3,0,4,0,6,6,2,0,0,0,0,0,0,0,0],"split_type":[0,0,0,0,0,0,0,0,0,0,0,0,0,0,0],"sum_hessian":[1.3157607E3,2.734494E2,1.0423113E3,1.860038E2,8.74456E1,8.8834045E2,1.5397087E2,1.6719702E2,1.8806791E1,3.3928633E0,8.405274E1,1.15637695E2,7.7270276E2,1.2249964E2,3.1471233E1],"tree_param":{"num_deleted":"0","num_feature":"7","num_nodes":"15","size_leaf_vector":"1"}},{"base_weights":[-6.213592E-2,4.520601E-2,-1.6856669E-1,3.1114668E-2,1.4268154E-1,-3.7921122E-1,2.9818205E-2,1.1622173E-2,5.445026E-4,4.484264E-2,7.369174E-3,5.6117633E-3,-4.977604E-2,-2.9625956E-4,1.6868053E-2],"categories":[],"categories_nodes":[],"categories_segments":[],"categories_sizes":[],"default_left":[0,0,0,0,0,0,0,0,0,0,0,0,0,0,0],"id":72,"left_children":[1,3,5,7,9,11,13,-1,-1,-1,-1,-1,-1,-1,-1],"loss_changes":[1.9713661E1,1.1762191E0,3.621432E1,1.6428343E0,2.251082E0,2.1716537E1,2.035606E0,0E0,0E0,0E0,0E0,0E0,0E0,0E0,0E0],"parents":[2147483647,0,0,1,1,2,2,3,3,4,4,5,5,6,6],"right_children":[2,4,6,8,10,12,14,-1,-1,-1,-1,-1,-1,-1,-1],"split_conditions":[6.11E1,1.1E2,8E1,1.6E1,1.12E2,5.04E1,1.12E2,1.1622173E-2,5.445026E-4,4.484264E-2,7.369174E-3,5.6117633E-3,-4.977604E-2,-2.9625956E-4,1.6868053E-2],"split_indices":[3,1,2,0,1,6,1,0,0,0,0,0,0,0,0],"split_type":[0,0,0,0,0,0,0,0,0,0,0,0,0,0,0],"sum_hessian":[1.7238956E3,8.5856036E2,8.6533527E2,7.512733E2,1.0728701E2,4.1925742E2,4.4607782E2,1.7327078E2,5.7800256E2,1.873932E1,8.854769E1,8.9848404E1,3.29409E2,3.616766E2,8.440122E1],"tree_param":{"num_deleted":"0","num_feature":"7","num_nodes":"15","size_leaf_vector":"1"}},{"base_weights":[-3.0993791E-2,7.436214E-2,-1.364578E-1,1.379261E-1,5.2563E-2,-3.6909238E-1,6.76237E-2,1.5522117E-2,-4.766635E-2,-7.387542E-2,5.802313E-3,9.021347E-3,-5.041672E-2,6.1113806E-3,6.976103E-2],"categories":[],"categories_nodes":[],"categories_segments":[],"categories_sizes":[],"default_left":[0,0,0,0,0,0,0,0,0,0,0,0,0,0,0],"id":73,"left_children":[1,3,5,7,9,11,13,-1,-1,-1,-1,-1,-1,-1,-1],"loss_changes":[2.0384089E1,1.2646737E0,4.3546486E1,2.559094E0,3.0031297E0,2.663216E1,1.963489E0,0E0,0E0,0E0,0E0,0E0,0E0,0E0,0E0],"parents":[2147483647,0,0,1,1,2,2,3,3,4,4,5,5,6,6],"right_children":[2,4,6,8,10,12,14,-1,-1,-1,-1,-1,-1,-1,-1],"split_conditions":[6.11E1,9.51E1,8E1,1.27E2,9.6E1,1.141E2,1.01E2,1.5522117E-2,-4.766635E-2,-7.387542E-2,5.802313E-3,9.021347E-3,-5.041672E-2,6.1113806E-3,6.976103E-2],"split_indices":[3,5,2,1,5,4,6,0,0,0,0,0,0,0,0],"split_type":[0,0,0,0,0,0,0,0,0,0,0,0,0,0,0],"sum_hessian":[1.8326305E3,9.1693256E2,9.1569794E2,2.3279625E2,6.841363E2,4.2753635E2,4.881616E2,2.2715146E2,5.644791E0,3.7679029E0,6.803684E2,9.723441E1,3.3030194E2,4.842546E2,3.9069796E0],"tree_param":{"num_deleted":"0","num_feature":"7","num_nodes":"15","size_leaf_vector":"1"}},{"base_weights":[1.3211188E-1,-3.0408102E-1,3.0457464E-1,-4.2996666E-1,-1.0011852E-1,4.4617584E-1,-3.1083557E-1,-7.311112E-4,-4.502806E-2,2.4209209E-2,-3.958489E-2,-3.6648862E-2,5.0402563E-2,-3.8010843E-2,4.3720548E-4],"categories":[],"categories_nodes":[],"categories_segments":[],"categories_sizes":[],"default_left":[0,0,0,0,0,0,0,0,0,0,0,0,0,0,0],"id":74,"left_children":[1,3,5,7,9,11,13,-1,-1,-1,-1,-1,-1,-1,-1],"loss_changes":[9.348271E1,9.001659E0,7.771145E1,1.8642845E0,1.3833407E1,3.4225494E1,3.6503487E0,0E0,0E0,0E0,0E0,0E0,0E0,0E0,0E0],"parents":[2147483647,0,0,1,1,2,2,3,3,4,4,5,5,6,6],"right_children":[2,4,6,8,10,12,14,-1,-1,-1,-1,-1,-1,-1,-1],"split_conditions":[6.11E1,7.51E1,8.2E1,7.6E1,5.58E1,5.04E1,9.9E1,-7.311112E-4,-4.502806E-2,2.4209209E-2,-3.958489E-2,-3.6648862E-2,5.0402563E-2,-3.8010843E-2,4.3720548E-4],"split_indices":[3,2,2,4,6,6,2,0,0,0,0,0,0,0,0],"split_type":[0,0,0,0,0,0,0,0,0,0,0,0,0,0,0],"sum_hessian":[1.2404432E3,3.5126373E2,8.891795E2,2.1651971E2,1.34744E2,7.230794E2,1.6610007E2,9.991637E0,2.0652808E2,6.254738E1,7.2196625E1,4.769751E1,6.753819E2,1.3600458E2,3.0095486E1],"tree_param":{"num_deleted":"0","num_feature":"7","num_nodes":"15","size_leaf_vector":"1"}},{"base_weights":[-5.5174287E-2,4.3687634E-2,-1.5653783E-1,5.473208E-2,-7.8121595E-2,-3.681684E-1,2.9691726E-2,4.172237E-3,3.2570787E-2,1.4362295E-2,-1.7680582E-2,5.354214E-3,-4.937909E-2,2.255047E-2,7.441521E-4],"categories":[],"categories_nodes":[],"categories_segments":[],"categories_sizes":[],"default_left":[0,0,0,0,0,0,0,0,0,0,0,0,0,0,0],"id":75,"left_children":[1,3,5,7,9,11,13,-1,-1,-1,-1,-1,-1,-1,-1],"loss_changes":[1.7010166E1,1.1609329E0,3.3038216E1,2.7674623E0,1.5984616E0,2.0810413E1,1.9444433E0,0E0,0E0,0E0,0E0,0E0,0E0,0E0,0E0],"parents":[2147483647,0,0,1,1,2,2,3,3,4,4,5,5,6,6],"right_children":[2,4,6,8,10,12,14,-1,-1,-1,-1,-1,-1,-1,-1],"split_conditions":[6.11E1,1.32E2,8E1,1.28E2,7.8E1,5.04E1,6.7E1,4.172237E-3,3.2570787E-2,1.4362295E-2,-1.7680582E-2,5.354214E-3,-4.937909E-2,2.255047E-2,7.441521E-4],"split_indices":[3,4,2,4,1,6,1,0,0,0,0,0,0,0,0],"split_type":[0,0,0,0,0,0,0,0,0,0,0,0,0,0,0],"sum_hessian":[1.6957703E3,8.5876666E2,8.3700354E2,7.8788025E2,7.088643E1,3.9132562E2,4.4567795E2,7.5288763E2,3.4992607E1,2.169104E1,4.919539E1,8.994775E1,3.0137787E2,4.4542927E1,4.01135E2],"tree_param":{"num_deleted":"0","num_feature":"7","num_nodes":"15","size_leaf_vector":"1"}},{"base_weights":[-2.7326474E-2,6.9024935E-2,-1.2681746E-1,-1.5556864E-1,7.504419E-2,-3.5821122E-1,6.329339E-2,4.890029E-2,-2.8501326E-2,4.9995117E-2,6.498627E-3,7.6104463E-3,-5.0353456E-2,1.9133076E-4,1.2988028E-2],"categories":[],"categories_nodes":[],"categories_segments":[],"categories_sizes":[],"default_left":[0,0,0,0,0,0,0,0,0,0,0,0,0,0,0],"id":76,"left_children":[1,3,5,7,9,11,13,-1,-1,-1,-1,-1,-1,-1,-1],"loss_changes":[1.7292122E1,1.2507873E0,3.9059E1,2.162637E0,3.7853222E0,2.5309116E1,1.9942461E0,0E0,0E0,0E0,0E0,0E0,0E0,0E0,0E0],"parents":[2147483647,0,0,1,1,2,2,3,3,4,4,5,5,6,6],"right_children":[2,4,6,8,10,12,14,-1,-1,-1,-1,-1,-1,-1,-1],"split_conditions":[6.11E1,2.7E1,8E1,2E1,3E1,5.11E1,2E1,4.890029E-2,-2.8501326E-2,4.9995117E-2,6.498627E-3,7.6104463E-3,-5.0353456E-2,1.9133076E-4,1.2988028E-2],"split_indices":[3,6,2,6,6,6,0,0,0,0,0,0,0,0,0],"split_type":[0,0,0,0,0,0,0,0,0,0,0,0,0,0,0],"sum_hessian":[1.8019618E3,9.1558026E2,8.863816E2,2.3249207E1,8.9233105E2,3.993851E2,4.869965E2,3.4236062E0,1.9825602E1,1.950756E1,8.728235E2,1.00250656E2,2.9913443E2,2.5394115E2,2.3305534E2],"tree_param":{"num_deleted":"0","num_feature":"7","num_nodes":"15","size_leaf_vector":"1"}},{"base_weights":[1.2192726E-1,2.692687E-1,-3.7714452E-1,-3.4817842E-1,4.847275E-1,-2.6463744E-1,-5.9593046E-1,-5.2269597E-2,-2.946584E-2,5.290469E-2,-3.8186494E-2,-1.713354E-2,-4.7963258E-2,-2.9316017E-2,-6.331285E-2],"categories":[],"categories_nodes":[],"categories_segments":[],"categories_sizes":[],"default_left":[0,0,0,0,0,0,0,0,0,0,0,0,0,0,0],"id":77,"left_children":[1,3,5,7,9,11,13,-1,-1,-1,-1,-1,-1,-1,-1],"loss_changes":[8.627608E1,1.2061349E2,6.4276886E0,2.0389137E0,2.5995316E1,3.4980326E0,8.286476E-1,0E0,0E0,0E0,0E0,0E0,0E0,0E0,0E0],"parents":[2147483647,0,0,1,1,2,2,3,3,4,4,5,5,6,6],"right_children":[2,4,6,8,10,12,14,-1,-1,-1,-1,-1,-1,-1,-1],"split_conditions":[5.6E1,1.141E2,9.8E1,9.51E1,6.6E1,2.19E1,5.7E1,-5.2269597E-2,-2.946584E-2,5.290469E-2,-3.8186494E-2,-1.713354E-2,-4.7963258E-2,-2.9316017E-2,-6.331285E-2],"split_indices":[6,4,1,5,3,0,6,0,0,0,0,0,0,0,0],"split_type":[0,0,0,0,0,0,0,0,0,0,0,0,0,0,0],"sum_hessian":[1.1709012E3,9.043651E2,2.665361E2,2.3378476E2,6.705804E2,1.7747966E2,8.905643E1,5.2811447E1,1.8097331E2,6.383246E2,3.2255795E1,1.25020905E2,5.2458755E1,1.0715946E1,7.8340485E1],"tree_param":{"num_deleted":"0","num_feature":"7","num_nodes":"15","size_leaf_vector":"1"}},{"base_weights":[-4.8723605E-2,4.2556882E-2,-1.4529784E-1,8.732754E-2,1.3193053E-2,-3.5687476E-1,2.8816367E-2,6.2202117E-3,3.918846E-2,-1.0703314E-2,5.6333626E-3,5.1080333E-3,-4.898433E-2,-2.4878606E-4,1.6080743E-2],"categories":[],"categories_nodes":[],"categories_segments":[],"categories_sizes":[],"default_left":[0,0,0,0,0,0,0,0,0,0,0,0,0,0,0],"id":78,"left_children":[1,3,5,7,9,11,13,-1,-1,-1,-1,-1,-1,-1,-1],"loss_changes":[1.4735967E1,1.1291468E0,2.992856E1,2.5801842E0,2.7051945E0,1.9917019E1,1.8450387E0,0E0,0E0,0E0,0E0,0E0,0E0,0E0,0E0],"parents":[2147483647,0,0,1,1,2,2,3,3,4,4,5,5,6,6],"right_children":[2,4,6,8,10,12,14,-1,-1,-1,-1,-1,-1,-1,-1],"split_conditions":[6.11E1,1.04E2,8E1,1.17E2,5.58E1,5.04E1,1.12E2,6.2202117E-3,3.918846E-2,-1.0703314E-2,5.6333626E-3,5.1080333E-3,-4.898433E-2,-2.4878606E-4,1.6080743E-2],"split_indices":[3,4,2,1,6,6,1,0,0,0,0,0,0,0,0],"split_type":[0,0,0,0,0,0,0,0,0,0,0,0,0,0,0],"sum_hessian":[1.6699255E3,8.5877954E2,8.1114594E2,3.3937097E2,5.1940857E2,3.6570526E2,4.454407E2,3.1461963E2,2.475133E1,1.367701E2,3.826385E2,9.004815E1,2.756571E2,3.6084137E2,8.459935E1],"tree_param":{"num_deleted":"0","num_feature":"7","num_nodes":"15","size_leaf_vector":"1"}},{"base_weights":[-2.3962628E-2,6.457901E-2,-1.1810387E-1,5.219505E-2,6.161094E-2,-3.473272E-1,5.846063E-2,3.292092E-3,1.0715022E-2,7.14968E-3,-5.0048888E-2,6.8704E-2,5.2325856E-3],"categories":[],"categories_nodes":[],"categories_segments":[],"categories_sizes":[],"default_left":[0,0,0,0,0,0,0,0,0,0,0,0,0],"id":79,"left_children":[1,3,5,-1,7,9,11,-1,-1,-1,-1,-1,-1],"loss_changes":[1.4798558E1,1.2100658E0,3.4842678E1,0E0,1.1858127E0,2.4060001E1,1.8415446E0,0E0,0E0,0E0,0E0,0E0,0E0],"parents":[2147483647,0,0,1,1,2,2,4,4,5,5,6,6],"right_children":[2,4,6,-1,8,10,12,-1,-1,-1,-1,-1,-1],"split_conditions":[6.11E1,5.2E1,8E1,5.219505E-2,9.42E1,5.11E1,8E0,3.292092E-3,1.0715022E-2,7.14968E-3,-5.0048888E-2,6.8704E-2,5.2325856E-3],"split_indices":[3,1,2,0,1,6,0,0,0,0,0,0,0],"split_type":[0,0,0,0,0,0,0,0,0,0,0,0,0],"sum_hessian":[1.7734673E3,9.140757E2,8.593916E2,4.7661695E0,9.093095E2,3.7351364E2,4.85878E2,5.5891345E2,3.5039603E2,1.0015921E2,2.7335443E2,3.623436E0,4.8225455E2],"tree_param":{"num_deleted":"0","num_feature":"7","num_nodes":"13","size_leaf_vector":"1"}},{"base_weights":[1.1202974E-1,2.5905097E-1,-3.692879E-1,-3.3938074E-1,4.777247E-1,-2.5674167E-1,-5.9252656E-1,-5.181374E-2,-2.855652E-2,5.2338142E-2,-3.735282E-2,-1.6509384E-2,-4.7280658E-2,-6.755892E-2,-4.3673884E-2],"categories":[],"categories_nodes":[],"categories_segments":[],"categories_sizes":[],"default_left":[0,0,0,0,0,0,0,0,0,0,0,0,0,0,0],"id":80,"left_children":[1,3,5,7,9,11,13,-1,-1,-1,-1,-1,-1,-1,-1],"loss_changes":[7.837928E1,1.1113304E2,6.3617096E0,2.0408287E0,2.4349442E1,3.37E0,8.195133E-1,0E0,0E0,0E0,0E0,0E0,0E0,0E0,0E0],"parents":[2147483647,0,0,1,1,2,2,3,3,4,4,5,5,6,6],"right_children":[2,4,6,8,10,12,14,-1,-1,-1,-1,-1,-1,-1,-1],"split_conditions":[5.6E1,1.141E2,9.8E1,9.51E1,6.6E1,2.19E1,6.31E1,-5.181374E-2,-2.855652E-2,5.2338142E-2,-3.735282E-2,-1.6509384E-2,-4.7280658E-2,-6.755892E-2,-4.3673884E-2],"split_indices":[6,4,1,5,3,0,3,0,0,0,0,0,0,0,0],"split_type":[0,0,0,0,0,0,0,0,0,0,0,0,0,0,0],"sum_hessian":[1.1052646E3,8.470042E2,2.5826047E2,2.2652751E2,6.204767E2,1.731278E2,8.513267E1,5.04204E1,1.7610712E2,5.892572E2,3.1219475E1,1.2280286E2,5.0324955E1,5.3350662E1,3.1782005E1],"tree_param":{"num_deleted":"0","num_feature":"7","num_nodes":"15","size_leaf_vector":"1"}},{"base_weights":[-4.2799063E-2,4.1360393E-2,-1.3447872E-1,8.911466E-3,8.124383E-2,-3.4537753E-1,2.8085718E-2,-4.874684E-4,5.5516876E-2,8.992786E-3,-4.9818136E-2,7.4236128E-3,-4.7737252E-2,2.140775E-2,6.8180554E-4],"categories":[],"categories_nodes":[],"categories_segments":[],"categories_sizes":[],"default_left":[0,0,0,0,0,0,0,0,0,0,0,0,0,0,0],"id":81,"left_children":[1,3,5,7,9,11,13,-1,-1,-1,-1,-1,-1,-1,-1],"loss_changes":[1.2715475E1,1.1117852E0,2.7048248E1,3.5806937E0,1.9846041E0,1.9053387E1,1.7638642E0,0E0,0E0,0E0,0E0,0E0,0E0,0E0,0E0],"parents":[2147483647,0,0,1,1,2,2,3,3,4,4,5,5,6,6],"right_children":[2,4,6,8,10,12,14,-1,-1,-1,-1,-1,-1,-1,-1],"split_conditions":[6.11E1,9.8E1,8E1,1.27E2,1.32E2,4.7E1,6.7E1,-4.874684E-4,5.5516876E-2,8.992786E-3,-4.9818136E-2,7.4236128E-3,-4.7737252E-2,2.140775E-2,6.8180554E-4],"split_indices":[3,5,2,1,1,6,1,0,0,0,0,0,0,0,0],"split_type":[0,0,0,0,0,0,0,0,0,0,0,0,0,0,0],"sum_hessian":[1.6462772E3,8.5862836E2,7.876489E2,4.741148E2,3.8451355E2,3.423654E2,4.4528354E2,4.6341058E2,1.0704233E1,3.7966812E2,4.8454022E0,8.2029686E1,2.603357E2,4.476192E1,4.005216E2],"tree_param":{"num_deleted":"0","num_feature":"7","num_nodes":"15","size_leaf_vector":"1"}},{"base_weights":[-2.0773394E-2,6.0520664E-2,-1.0961634E-1,-1.565311E-1,6.635833E-2,-3.362812E-1,5.430846E-2,4.6323385E-2,-2.797679E-2,5.1565077E-2,5.7580257E-3,6.723547E-3,-4.974958E-2,4.802635E-3,6.6845156E-2],