{"learner":{"attributes":{"scikit_learn":"{\"_estimator_type\": \"classifier\"}"},"feature_names":[],"feature_types":[],"gradient_booster":{"model":{"gbtree_model_param":{"num_parallel_tree":"1","num_trees":"150"},"iteration_indptr":[0,1,2,3,4,5,6,7,8,9,10,11,12,13,14,15,16,17,18,19,20,21,22,23,24,25,26,27,28,29,30,31,32,33,34,35,36,37,38,39,40,41,42,43,44,45,46,47,48,49,50,51,52,53,54,55,56,57,58,59,60,61,62,63,64,65,66,67,68,69,70,71,72,73,74,75,76,77,78,79,80,81,82,83,84,85,86,87,88,89,90,91,92,93,94,95,96,97,98,99,100,101,102,103,104,105,106,107,108,109,110,111,112,113,114,115,116,117,118,119,120,121,122,123,124,125,126,127,128,129,130,131,132,133,134,135,136,137,138,139,140,141,142,143,144,145,146,147,148,149,150],"tree_info":[0,0,0,0,0,0,0,0,0,0,0,0,0,0,0,0,0,0,0,0,0,0,0,0,0,0,0,0,0,0,0,0,0,0,0,0,0,0,0,0,0,0,0,0,0,0,0,0,0,0,0,0,0,0,0,0,0,0,0,0,0,0,0,0,0,0,0,0,0,0,0,0,0,0,0,0,0,0,0,0,0,0,0,0,0,0,0,0,0,0,0,0,0,0,0,0,0,0,0,0,0,0,0,0,0,0,0,0,0,0,0,0,0,0,0,0,0,0,0,0,0,0,0,0,0,0,0,0,0,0,0,0,0,0,0,0,0,0,0,0,0,0,0,0,0,0,0,0,0,0],"trees":[{"base_weights":[1.3221635E-2,6.196755E-1,-5.4399613E-2,6.762889E-1,-2.1516159E0,-3.602503E-1,1.6043174E-1,1.319447E0,5.3337437E-1,-2.4317983E-1,-1.6009057E-1,-1.06731035E-1,-6.8846506E-1,7.645873E-1,1.7650662E-3,-4.8982885E-2,1.4572942E0,4.6981737E-1,1.6085747E-1,-3.756694E-1,2.8890252E-1,-2.0223186E0,-6.212539E-1,1.0982773E0,5.91992E-1,-4.4296297E-1,2.296826E-1,-1.6009057E-1,1.5067455E-1,1.5294403E0,9.001111E-1,3.8167334E-1,1.3268257E0,-2.8641474E-1,-2.0163677E0,-1.4402902E-2,7.811403E-1,-8.2399294E-2,-2.155379E0,1.6102804E-1,-6.926105E-1,5.746705E-1,1.2075694E0,-1.4378778E0,6.838569E-1,-3.38506E-1,-2.1389198E0,5.0181305E-1,-3.065147E-2,1.1874818E0,1.6234617E-1,-4.7080116E-3,1.5409507E-1,4.5904398E-1,-5.292838E-1,7.2983265E-2,1.3965158E0,-4.0318295E-1,6.156556E-1,-2.2655237E0,-1.1216954E-1,-9.481718E-2,1.589049E-1,1.3764303E0,6.5009934E-1,-2.3697212E-1,-1.7904998E0,-6.339138E-1,-2.284807E0,1.0648054E0,-9.816428E-2,1.3190017E0,7.830653E-1,-4.7080116E-3,-1.9187095E0,5.181416E-1,1.3332921E0,-4.1855147E-1,1.6124444E-1,-2.2760274E0,-8.2399294E-2,2.2415829E-1,9.6662045E-1,-2.8202137E-1,3.4664994E-1,1.589049E-1,-4.7080116E-3,7.4630463E-1,3.0137643E-1,-1.3345988E0,8.018035E-2,8.70591E-2,1.4825361E0,-4.451851E-1,1.5824E-1,1.5606333E-1,4.925441E-1,-2.5274253E-1,-1.5687501E-1,1.5824E-1,-1.7113742E-1,9.547677E-1,1.602979E-1,-4.486063E-2,7.0786875E-1,-4.7080116E-3,-2.4906968E-1,-7.245721E-1,1.6136776E-1,-8.2399294E-2,-2.5385168E-1,1.5824E-1,3.551732E-1,-9.487481E-2,6.665237E-2,1.3664341E0,-4.7080116E-3,-1.1713122E-1,1.1648824E0,-1.4488898E-1,-2.4090116E-1,1.2110318E0,3.6505243E-1,1.4922286E0,8.515853E-1,1.5999734E-1,-4.7196537E-1,-2.529686E-1,-1.9922699E0,1.6124444E-1,1.3181119E-1,8.880738E-1,1.4285481E0,-3.6992672E-1,6.208175E-1,1.2307132E0,1.4518863E-1,1.1127065E0,-4.660896E-1,-3.9777946E-2,8.045054E-1,-1.8642627E-1,-7.291916E-2,6.409515E-1,-1.0971706E-1,1.6085747E-1,7.2983265E-2,3.0715832E-1,-5.690959E-1,-1.2967272E-1,6.8641573E-1,-2.1341898E0,-1.7078483E-2,1.5265116E-1,4.0587958E-2,7.949103E-1,-1.6637726E-1,-2.0681164E0,-6.519416E-1,-4.7080116E-3,7.2983265E-2,2.1467049E-2,1.4157052E0,8.70591E-2,-1.0971706E-1,7.6969856E-1,1.5824E-1,-4.7080116E-3,1.3228761E0,2.3489764E-1,1.6076249E-1,1.6202861E-1,9.547677E-1,1.2391919E0,3.551732E-1,-2.2040412E0,-4.124699E-1,-1.6266541E0,-2.4628596E-1,-1.2455399E0,2.2952758E-1,9.438135E-1,-6.746406E-2,1.0428153E0,1.6102804E-1,-2.3546857E-1,-8.647758E-1,8.4840894E-1,-4.486063E-2,9.156348E-1,1.4082499E0,-2.5804773E-1,3.3033675E-1,7.995988E-1,1.5257913E0,-1.6656072E0,1.00191675E-1,5.0364338E-2,-1.2614511E0,-9.487481E-2,9.572849E-1,-8.2399294E-2,1.5519606E-1,-8.234509E-1,5.773442E-1,-5.005486E-1,-1.7989515E0,1.0365701E0,2.71341E-1,-1.7455034E0,-2.4739194E-1,2.718441E-1,-4.511608E-1,-1.1713122E-1,8.7985647E-1,-1.1216954E-1,1.5067455E-1,-1.3767339E0,-2.284807E0,1.6076249E-1,-7.2799E-1,1.1893289E0,1.5727398E0,1.5265116E-1,2.1946896E-2,1.1089939E0,1.6042893E-1,3.6591E-1,-1.5487375E0,1.5409507E-1,2.1467049E-2,1.5409507E-1,7.2983265E-2,-4.7080116E-3,7.2983265E-2,-2.522205E-1,-1.0971706E-1,1.6066006E-1,-4.8367247E-1,-1.0971706E-1,-1.9490315E-1,-1.6165601E-2,-1.5413208E0,1.6130795E-1,1.2009373E-1,8.7934697E-1,1.602979E-1,1.5606333E-1,2.1467049E-2,-7.081408E-1,-8.920351E-2,-2.49721E-1,-6.128744E-1,1.4049287E0,1.4359793E-1,1.3159322E0,2.1946896E-2,4.0587958E-2,1.6130795E-1,-1.6009057E-1,-1.7052755E-1,3.782462E-1,-1.0971706E-1,4.43269E-2,1.1808161E-1,7.2983265E-2,1.6166447E-1,-8.2399294E-2,-2.3778184E-1,-1.2967272E-1,7.6969855E-2,1.1634854E-1,-3.8063158E-3,-1.6009057E-1,-8.2399294E-2,1.1079331E-1,1.3319199E-3,5.5167716E-2,-2.0158048E-1,8.129608E-2,-8.57295E-2,-5.9609342E-2,1.602979E-1,-1.4378779E-1,-2.4628596E-1,1.3013826E-1,2.1946896E-2,-1.19151315E-2,1.5409507E-1,-2.3778184E-1,-1.0971706E-1,1.5676415E-1,1.8365523E-2,2.2708284E-2,-7.850211E-2,-1.0971706E-1,8.70591E-2,1.05123855E-1,2.2621086E-2,-2.3778184E-1,-4.4125006E-2,-2.5317538E-1,-1.5687501E-1,-8.015292E-2,2.80489E-2,1.4612658E-1,9.18804E-2,1.6244216E-1,8.70591E-2,6.81763E-2,1.589049E-1,1.5296913E-2,1.6136776E-1,-9.487481E-2,-2.0158048E-1,-4.4809412E-2,-2.4906968E-1,-1.0079644E-1,-1.9187096E-1,-5.6964852E-2,2.914981E-2,9.146943E-2,-4.4125006E-2,1.5067455E-1,-8.485013E-2,3.1609826E-2,-2.9423375E-2,1.5734224E-1,-9.32063E-2,7.2983265E-2,1.591766E-1,-4.53139E-2,9.7341515E-2,1.5606333E-1,8.70591E-2,6.4095154E-2,-3.2201182E-2,1.01169325E-1,2.9624645E-2],"categories":[],"categories_nodes":[],"categories_segments":[],"categories_sizes":[],"default_left":[0,0,0,0,0,0,0,0,0,0,0,0,0,0,0,0,0,0,0,0,0,0,0,0,0,0,0,0,0,0,0,0,0,0,0,0,0,0,0,0,0,0,0,0,0,0,0,0,0,0,0,0,0,0,0,0,0,0,0,0,0,0,0,0,0,0,0,0,0,0,0,0,0,0,0,0,0,0,0,0,0,0,0,0,0,0,0,0,0,0,0,0,0,0,0,0,0,0,0,0,0,0,0,0,0,0,0,0,0,0,0,0,0,0,0,0,0,0,0,0,0,0,0,0,0,0,0,0,0,0,0,0,0,0,0,0,0,0,0,0,0,0,0,0,0,0,0,0,0,0,0,0,0,0,0,0,0,0,0,0,0,0,0,0,0,0,0,0,0,0,0,0,0,0,0,0,0,0,0,0,0,0,0,0,0,0,0,0,0,0,0,0,0,0,0,0,0,0,0,0,0,0,0,0,0,0,0,0,0,0,0,0,0,0,0,0,0,0,0,0,0,0,0,0,0,0,0,0,0,0,0,0,0,0,0,0,0,0,0,0,0,0,0,0,0,0,0,0,0,0,0,0,0,0,0,0,0,0,0,0,0,0,0,0,0,0,0,0,0,0,0,0,0,0,0,0,0,0,0,0,0,0,0,0,0,0,0,0,0,0,0,0,0,0,0,0,0,0,0,0,0,0,0,0,0,0,0,0,0,0,0,0,0,0,0,0,0,0,0,0,0,0,0,0,0,0,0,0,0,0,0,0,0,0,0,0,0,0,0],"id":0,"left_children":[1,3,5,7,9,11,13,15,17,-1,-1,19,21,23,25,27,29,31,-1,33,35,37,39,41,43,45,47,-1,-1,49,51,53,55,57,59,61,63,-1,65,-1,67,69,71,73,75,77,79,81,83,85,-1,-1,-1,87,89,-1,91,93,95,97,-1,99,-1,101,103,-1,105,107,109,111,113,115,117,-1,119,121,123,125,-1,127,-1,129,131,133,135,-1,-1,137,139,141,143,-1,145,147,-1,-1,149,-1,-1,-1,151,153,-1,-1,155,-1,-1,157,-1,-1,-1,-1,159,-1,-1,161,-1,163,165,-1,-1,167,169,171,173,-1,175,-1,177,-1,179,181,183,185,187,189,191,193,195,197,199,-1,-1,201,-1,-1,-1,203,205,-1,207,209,211,-1,-1,213,215,217,219,-1,-1,-1,221,-1,-1,223,-1,-1,225,227,-1,-1,229,231,233,235,237,239,-1,241,243,245,-1,247,-1,249,251,253,-1,255,257,259,261,263,265,267,269,271,273,-1,275,-1,-1,277,279,281,283,285,287,289,-1,291,293,295,297,-1,-1,299,301,-1,303,305,307,-1,-1,309,-1,311,313,-1,-1,-1,-1,-1,-1,-1,-1,-1,315,-1,-1,-1,317,-1,319,321,-1,-1,-1,323,325,-1,327,329,331,333,-1,-1,-1,-1,335,337,-1,-1,-1,-1,-1,-1,-1,-1,-1,-1,-1,-1,-1,-1,-1,-1,-1,-1,-1,-1,-1,-1,-1,-1,-1,-1,-1,-1,-1,-1,-1,-1,-1,-1,-1,-1,-1,-1,-1,-1,-1,-1,-1,-1,-1,-1,-1,-1,-1,-1,-1,-1,-1,-1,-1,-1,-1,-1,-1,-1,-1,-1,-1,-1,-1,-1,-1,-1,-1,-1,-1,-1,-1,-1,-1,-1,-1],"loss_changes":[5.9732838E1,2.3070423E1,8.611203E1,1.3098503E1,6.57444E-2,4.498581E1,7.379673E1,4.90781E0,7.946453E0,0E0,0E0,3.2484074E1,2.0998535E1,9.157249E0,6.1822144E1,6.2150717E0,8.1124115E-1,8.33276E0,0E0,2.6555273E1,1.8448906E1,1.617672E0,3.5855034E1,3.047783E0,1.9819046E1,3.653894E1,2.8570051E1,0E0,0E0,4.7455978E-1,1.7973816E0,7.1266994E0,3.2699966E-1,1.8192001E1,1.8322906E0,9.885736E0,3.5855217E0,0E0,3.634224E-1,0E0,2.0189934E1,3.1754034E0,2.024147E0,3.0746288E0,1.0827019E1,3.0487116E1,1.9707451E0,2.542381E1,1.9565153E1,2.4112124E0,0E0,0E0,0E0,4.18668E0,3.9053624E0,0E0,2.8362656E-1,1.281102E1,2.227387E0,9.2158127E-1,0E0,9.370308E0,0E0,6.503382E-1,2.4945145E0,0E0,5.0376024E0,4.2904556E1,2.6437798E0,1.9863157E0,2.7536118E0,2.3052177E0,3.3122911E0,0E0,4.396925E-1,8.529316E0,1.4438667E0,2.0258282E1,0E0,2.722473E-1,0E0,1.5820062E1,2.5472946E0,9.84832E0,1.4673605E1,0E0,0E0,1.4651371E1,1.0330986E1,9.620099E-1,3.11472E0,0E0,6.128826E-1,1.3971203E1,0E0,0E0,6.218452E0,0E0,0E0,0E0,2.1137177E1,9.380648E-1,0E0,0E0,2.8212738E0,0E0,0E0,1.956849E1,0E0,0E0,0E0,0E0,3.7633166E-1,0E0,0E0,1.9155121E0,0E0,2.9503152E0,9.9160004E-1,0E0,0E0,2.0582676E0,1.0691633E1,8.980255E-1,9.802847E-1,0E0,1.8710224E1,0E0,5.5615425E-1,0E0,1.5636349E1,5.573612E0,5.7141495E-1,7.490201E0,2.7206607E0,7.2665405E-1,5.032475E0,3.1460953E0,5.245484E0,3.9655244E0,6.6046095E0,0E0,0E0,4.3806176E0,0E0,0E0,0E0,6.5331326E0,1.0747074E1,0E0,2.2984443E0,2.3977661E-1,8.154052E0,0E0,0E0,2.6117039E0,5.6418233E0,1.2299652E0,3.3058983E1,0E0,0E0,0E0,9.812622E-1,0E0,0E0,1.4911964E0,0E0,0E0,6.2838364E-1,1.4116991E1,0E0,0E0,1.3493617E0,3.4083128E-1,3.7633166E-1,1.8488522E0,2.545329E1,3.7061405E-1,0E0,2.4429178E0,1.6388298E1,2.4562569E0,0E0,1.5366256E0,0E0,6.13972E0,9.74909E0,3.5579705E0,0E0,1.5869513E0,1.9049721E0,2.4679422E0,3.1985164E0,1.9286222E0,6.618843E-1,1.287178E0,5.0785403E0,3.3094797E0,2.3551178E-1,0E0,3.1865616E0,0E0,0E0,6.893241E0,5.881998E0,2.4595388E1,1.2635021E0,1.8425627E0,3.7169766E0,8.507843E-1,0E0,4.432317E0,5.9006515E0,2.9503152E0,3.4185066E0,0E0,0E0,2.4346013E0,9.640045E-1,0E0,1.3782059E1,8.861637E-1,5.514755E-1,0E0,0E0,1.5191202E0,0E0,1.4889969E1,9.678869E-1,0E0,0E0,0E0,0E0,0E0,0E0,0E0,0E0,0E0,1.206852E1,0E0,0E0,0E0,1.0214882E0,0E0,1.1902047E1,2.6495552E0,0E0,0E0,0E0,6.6544437E0,5.660434E0,0E0,1.4796963E1,5.2534294E-1,2.0923307E0,2.6313972E-1,0E0,0E0,0E0,0E0,2.48458E0,2.2937636E0,0E0,0E0,0E0,0E0,0E0,0E0,0E0,0E0,0E0,0E0,0E0,0E0,0E0,0E0,0E0,0E0,0E0,0E0,0E0,0E0,0E0,0E0,0E0,0E0,0E0,0E0,0E0,0E0,0E0,0E0,0E0,0E0,0E0,0E0,0E0,0E0,0E0,0E0,0E0,0E0,0E0,0E0,0E0,0E0,0E0,0E0,0E0,0E0,0E0,0E0,0E0,0E0,0E0,0E0,0E0,0E0,0E0,0E0,0E0,0E0,0E0,0E0,0E0,0E0,0E0,0E0,0E0,0E0,0E0,0E0,0E0,0E0,0E0,0E0,0E0,0E0,0E0],"parents":[2147483647,0,0,1,1,2,2,3,3,4,4,5,5,6,6,7,7,8,8,11,11,12,12,13,13,14,14,15,15,16,16,17,17,19,19,20,20,21,21,22,22,23,23,24,24,25,25,26,26,29,29,30,30,31,31,32,32,33,33,34,34,35,35,36,36,38,38,40,40,41,41,42,42,43,43,44,44,45,45,46,46,47,47,48,48,49,49,53,53,54,54,56,56,57,57,58,58,59,59,61,61,63,63,64,64,66,66,67,67,68,68,69,69,70,70,71,71,72,72,74,74,75,75,76,76,77,77,79,79,81,81,82,82,83,83,84,84,87,87,88,88,89,89,90,90,92,92,93,93,96,96,100,100,101,101,104,104,107,107,112,112,115,115,117,117,118,118,121,121,122,122,123,123,124,124,126,126,128,128,130,130,131,131,132,132,133,133,134,134,135,135,136,136,137,137,138,138,139,139,140,140,143,143,147,147,148,148,150,150,151,151,152,152,155,155,156,156,157,157,158,158,162,162,165,165,168,168,169,169,172,172,173,173,174,174,175,175,176,176,177,177,179,179,180,180,181,181,183,183,185,185,186,186,187,187,189,189,190,190,191,191,192,192,193,193,194,194,195,195,196,196,197,197,198,198,200,200,203,203,204,204,205,205,206,206,207,207,208,208,209,209,211,211,212,212,213,213,214,214,217,217,218,218,220,220,221,221,222,222,225,225,227,227,228,228,238,238,242,242,244,244,245,245,249,249,250,250,252,252,253,253,254,254,255,255,260,260,261,261],"right_children":[2,4,6,8,10,12,14,16,18,-1,-1,20,22,24,26,28,30,32,-1,34,36,38,40,42,44,46,48,-1,-1,50,52,54,56,58,60,62,64,-1,66,-1,68,70,72,74,76,78,80,82,84,86,-1,-1,-1,88,90,-1,92,94,96,98,-1,100,-1,102,104,-1,106,108,110,112,114,116,118,-1,120,122,124,126,-1,128,-1,130,132,134,136,-1,-1,138,140,142,144,-1,146,148,-1,-1,150,-1,-1,-1,152,154,-1,-1,156,-1,-1,158,-1,-1,-1,-1,160,-1,-1,162,-1,164,166,-1,-1,168,170,172,174,-1,176,-1,178,-1,180,182,184,186,188,190,192,194,196,198,200,-1,-1,202,-1,-1,-1,204,206,-1,208,210,212,-1,-1,214,216,218,220,-1,-1,-1,222,-1,-1,224,-1,-1,226,228,-1,-1,230,232,234,236,238,240,-1,242,244,246,-1,248,-1,250,252,254,-1,256,258,260,262,264,266,268,270,272,274,-1,276,-1,-1,278,280,282,284,286,288,290,-1,292,294,296,298,-1,-1,300,302,-1,304,306,308,-1,-1,310,-1,312,314,-1,-1,-1,-1,-1,-1,-1,-1,-1,316,-1,-1,-1,318,-1,320,322,-1,-1,-1,324,326,-1,328,330,332,334,-1,-1,-1,-1,336,338,-1,-1,-1,-1,-1,-1,-1,-1,-1,-1,-1,-1,-1,-1,-1,-1,-1,-1,-1,-1,-1,-1,-1,-1,-1,-1,-1,-1,-1,-1,-1,-1,-1,-1,-1,-1,-1,-1,-1,-1,-1,-1,-1,-1,-1,-1,-1,-1,-1,-1,-1,-1,-1,-1,-1,-1,-1,-1,-1,-1,-1,-1,-1,-1,-1,-1,-1,-1,-1,-1,-1,-1,-1,-1,-1,-1,-1],"split_conditions":[3E1,1.132E2,1.121E2,7.29E1,2.01E1,4.6E1,5.4E1,1.31E1,2.94E1,-2.4317983E-1,-1.6009057E-1,1.002E2,4.62E1,4.6E1,1.251E2,9.61E1,2.78E1,2.81E1,1.6085747E-1,1E2,2.01E1,9.48E1,4.7E1,1.41E1,4.62E1,1.25E2,7.2E1,-1.6009057E-1,1.5067455E-1,5.88E1,9.59E1,2.9E1,7.96E1,2.51E1,4.14E1,4.52E1,1.02E2,-8.2399294E-2,9.71E1,1.6102804E-1,1.12E2,4.2E1,9.96E1,1.51E1,1.281E2,1.242E2,2.81E1,1.353E2,1.49E2,1.7E1,1.6234617E-1,-4.7080116E-3,1.5409507E-1,2.12E1,1.72E1,7.2983265E-2,2.92E1,9.91E1,9.31E1,2.11E1,-1.1216954E-1,1.01E2,1.589049E-1,3.61E1,1.024E2,-2.3697212E-1,9.81E1,1.112E2,4.99E1,1.22E1,4.31E1,1.326E2,1.151E2,-4.7080116E-3,9.71E1,4.8E1,9.88E1,1.13E2,1.6124444E-1,9.71E1,-8.2399294E-2,1.26E2,7.02E1,2.71E1,7.9E1,1.589049E-1,-4.7080116E-3,9.2E1,9.12E1,9.34E1,9.91E1,8.70591E-2,9.91E1,8.3E1,1.5824E-1,1.5606333E-1,9.41E1,-2.5274253E-1,-1.5687501E-1,1.5824E-1,1.012E2,2.47E1,1.602979E-1,-4.486063E-2,2.81E1,-4.7080116E-3,-2.4906968E-1,4.72E1,1.6136776E-1,-8.2399294E-2,-2.5385168E-1,1.5824E-1,1.136E2,-9.487481E-2,6.665237E-2,3.25E1,-4.7080116E-3,1.94E1,2.01E1,-1.4488898E-1,-2.4090116E-1,1.22E1,5.31E1,1.38E2,1.318E2,1.5999734E-1,1.132E2,-2.529686E-1,6.53E1,1.6124444E-1,1.264E2,7E1,1.403E2,8.4E1,3.31E1,1.525E2,1.543E2,9.71E1,1.39E1,9.1E1,2.22E1,-1.8642627E-1,-7.291916E-2,9.31E1,-1.0971706E-1,1.6085747E-1,7.2983265E-2,1.31E1,9.9E1,-1.2967272E-1,9.79E1,1.61E1,9.87E1,1.5265116E-1,4.0587958E-2,3.16E1,3.12E1,9.51E1,4.8E1,-4.7080116E-3,7.2983265E-2,2.1467049E-2,1.91E1,8.70591E-2,-1.0971706E-1,1.187E2,1.5824E-1,-4.7080116E-3,9.81E1,5.3E1,1.6076249E-1,1.6202861E-1,5.2E1,1.81E1,1.364E2,2.31E1,1.14E2,1.75E1,-2.4628596E-1,5.7E1,1.27E2,6.91E1,-6.746406E-2,1.389E2,1.6102804E-1,1.313E2,8.42E1,1.403E2,-4.486063E-2,1.508E2,7.42E1,1.11E1,3.02E1,1.7E1,7.59E1,1.91E1,1.61E1,2.3E1,2.11E1,-9.487481E-2,2.41E1,-8.2399294E-2,1.5519606E-1,1.07E1,2.41E1,9.81E1,9.81E1,9.7E1,3.12E1,3.61E1,-2.4739194E-1,1.02E2,3.78E1,2.31E1,4.4E1,-1.1216954E-1,1.5067455E-1,2.21E1,1.053E2,1.6076249E-1,6.32E1,4.3E1,3.21E1,1.5265116E-1,2.1946896E-2,4.72E1,1.6042893E-1,5.21E1,2.02E1,1.5409507E-1,2.1467049E-2,1.5409507E-1,7.2983265E-2,-4.7080116E-3,7.2983265E-2,-2.522205E-1,-1.0971706E-1,1.6066006E-1,7.96E1,-1.0971706E-1,-1.9490315E-1,-1.6165601E-2,9.71E1,1.6130795E-1,1.281E2,6.9E1,1.602979E-1,1.5606333E-1,2.1467049E-2,1.26E2,1.65E1,-2.49721E-1,8.5E1,1.264E2,1.447E2,2.01E1,2.1946896E-2,4.0587958E-2,1.6130795E-1,-1.6009057E-1,9.43E1,8.2E1,-1.0971706E-1,4.43269E-2,1.1808161E-1,7.2983265E-2,1.6166447E-1,-8.2399294E-2,-2.3778184E-1,-1.2967272E-1,7.6969855E-2,1.1634854E-1,-3.8063158E-3,-1.6009057E-1,-8.2399294E-2,1.1079331E-1,1.3319199E-3,5.5167716E-2,-2.0158048E-1,8.129608E-2,-8.57295E-2,-5.9609342E-2,1.602979E-1,-1.4378779E-1,-2.4628596E-1,1.3013826E-1,2.1946896E-2,-1.19151315E-2,1.5409507E-1,-2.3778184E-1,-1.0971706E-1,1.5676415E-1,1.8365523E-2,2.2708284E-2,-7.850211E-2,-1.0971706E-1,8.70591E-2,1.05123855E-1,2.2621086E-2,-2.3778184E-1,-4.4125006E-2,-2.5317538E-1,-1.5687501E-1,-8.015292E-2,2.80489E-2,1.4612658E-1,9.18804E-2,1.6244216E-1,8.70591E-2,6.81763E-2,1.589049E-1,1.5296913E-2,1.6136776E-1,-9.487481E-2,-2.0158048E-1,-4.4809412E-2,-2.4906968E-1,-1.0079644E-1,-1.9187096E-1,-5.6964852E-2,2.914981E-2,9.146943E-2,-4.4125006E-2,1.5067455E-1,-8.485013E-2,3.1609826E-2,-2.9423375E-2,1.5734224E-1,-9.32063E-2,7.2983265E-2,1.591766E-1,-4.53139E-2,9.7341515E-2,1.5606333E-1,8.70591E-2,6.4095154E-2,-3.2201182E-2,1.01169325E-1,2.9624645E-2],"split_indices":[6,4,4,4,0,6,6,0,6,0,0,4,6,6,4,5,0,0,0,4,0,4,6,0,6,4,6,0,0,4,5,6,4,0,6,6,4,0,5,0,4,6,5,0,4,4,0,4,4,6,0,0,0,6,0,0,0,4,5,0,0,4,0,6,4,0,5,4,6,0,6,4,4,0,5,6,5,4,0,5,0,4,6,0,6,0,0,4,4,4,5,0,5,4,0,0,5,0,0,0,4,0,0,0,0,0,0,6,0,0,0,0,4,0,0,6,0,0,0,0,0,0,6,4,4,0,4,0,6,0,4,6,4,6,0,4,4,5,6,4,6,0,0,5,0,0,0,0,4,0,5,0,5,0,0,6,0,5,6,0,0,0,0,0,0,4,0,0,5,6,0,0,6,0,4,0,4,0,0,6,4,6,0,4,0,4,6,4,0,4,6,0,0,6,4,0,0,6,0,0,0,0,0,0,0,4,5,4,0,6,0,4,6,0,6,0,0,0,4,0,6,6,0,0,0,6,0,6,0,0,0,0,0,0,0,0,0,0,6,0,0,0,5,0,4,6,0,0,0,4,0,0,6,4,4,0,0,0,0,0,5,6,0,0,0,0,0,0,0,0,0,0,0,0,0,0,0,0,0,0,0,0,0,0,0,0,0,0,0,0,0,0,0,0,0,0,0,0,0,0,0,0,0,0,0,0,0,0,0,0,0,0,0,0,0,0,0,0,0,0,0,0,0,0,0,0,0,0,0,0,0,0,0,0,0,0,0,0,0],"split_type":[0,0,0,0,0,0,0,0,0,0,0,0,0,0,0,0,0,0,0,0,0,0,0,0,0,0,0,0,0,0,0,0,0,0,0,0,0,0,0,0,0,0,0,0,0,0,0,0,0,0,0,0,0,0,0,0,0,0,0,0,0,0,0,0,0,0,0,0,0,0,0,0,0,0,0,0,0,0,0,0,0,0,0,0,0,0,0,0,0,0,0,0,0,0,0,0,0,0,0,0,0,0,0,0,0,0,0,0,0,0,0,0,0,0,0,0,0,0,0,0,0,0,0,0,0,0,0,0,0,0,0,0,0,0,0,0,0,0,0,0,0,0,0,0,0,0,0,0,0,0,0,0,0,0,0,0,0,0,0,0,0,0,0,0,0,0,0,0,0,0,0,0,0,0,0,0,0,0,0,0,0,0,0,0,0,0,0,0,0,0,0,0,0,0,0,0,0,0,0,0,0,0,0,0,0,0,0,0,0,0,0,0,0,0,0,0,0,0,0,0,0,0,0,0,0,0,0,0,0,0,0,0,0,0,0,0,0,0,0,0,0,0,0,0,0,0,0,0,0,0,0,0,0,0,0,0,0,0,0,0,0,0,0,0,0,0,0,0,0,0,0,0,0,0,0,0,0,0,0,0,0,0,0,0,0,0,0,0,0,0,0,0,0,0,0,0,0,0,0,0,0,0,0,0,0,0,0,0,0,0,0,0,0,0,0,0,0,0,0,0,0,0,0,0,0,0,0,0,0,0,0,0,0,0,0,0,0,0,0],"sum_hessian":[1.4563905E3,1.4601894E2,1.3103715E3,1.4316978E2,2.84915E0,5.406262E2,7.697453E2,2.5879778E1,1.1729E2,1.6620041E0,1.1871458E0,3.0509647E2,2.3552972E2,1.6002725E2,6.097181E2,2.3742917E0,2.3505487E1,1.1087942E2,6.4105873E0,1.816333E2,1.23463165E2,1.115917E1,2.2437056E2,5.4371277E1,1.05655975E2,2.0656337E2,4.031547E2,1.1871458E0,1.1871458E0,2.0656336E1,2.84915E0,1.0066996E2,1.0209454E1,1.7237357E2,9.259737E0,7.645219E1,4.7010975E1,1.1871458E0,9.972025E0,6.8854456E0,2.174851E2,9.497167E0,4.487411E1,4.511154E0,1.0114482E2,1.9469191E2,1.1871458E1,1.970662E2,2.060885E2,4.7485833E0,1.5907754E1,1.1871458E0,1.6620041E0,9.28348E1,7.835162E0,1.1871458E0,9.022308E0,1.5266695E2,1.970662E1,7.1228747E0,2.1368625E0,7.2890755E1,3.5614374E0,8.31002E0,3.8700954E1,5.935729E0,4.036296E0,2.0988737E2,7.597733E0,5.4608707E0,4.036296E0,3.5376945E1,9.497167E0,1.1871458E0,3.3240082E0,8.0725914E1,2.0418907E1,1.8709418E2,7.597733E0,1.0684312E1,1.1871458E0,1.23463165E2,7.3603035E1,1.2370059E2,8.238792E1,3.5614374E0,1.1871458E0,3.2765224E1,6.0069576E1,3.3240082E0,4.511154E0,1.424575E0,7.597733E0,1.4958037E2,3.086579E0,2.1368625E0,1.7569757E1,4.9860125E0,2.1368625E0,3.086579E0,6.980417E1,3.086579E0,5.2234416E0,1.8994333E0,3.6801517E1,1.1871458E0,2.84915E0,2.0181479E2,8.072592E0,1.1871458E0,6.4105873E0,3.086579E0,2.3742917E0,1.8994333E0,2.1368625E0,3.41898E1,1.1871458E0,2.84915E0,6.6480165E0,1.8994333E0,1.424575E0,1.4483178E1,6.624274E1,1.5195466E1,5.2234416E0,4.7485833E0,1.823456E2,5.2234416E0,5.4608707E0,7.597733E0,1.15865425E2,6.3156155E1,1.0446883E1,1.1277885E2,1.09217415E1,1.5195466E1,6.719245E1,2.516749E1,7.597733E0,3.5851803E1,2.4217773E1,1.6620041E0,1.6620041E0,3.086579E0,1.424575E0,6.4105873E0,1.1871458E0,2.1131195E1,1.2844917E2,1.6620041E0,1.5907754E1,4.9860125E0,6.481816E1,1.424575E0,1.6620041E0,3.3477512E1,3.3240082E0,1.0209454E1,1.9160533E2,1.1871458E0,1.1871458E0,1.424575E0,3.2765224E1,1.424575E0,1.424575E0,3.5614374E0,3.086579E0,1.1871458E0,1.3296033E1,6.0069576E1,6.173158E0,1.2108887E1,3.086579E0,2.84915E0,2.3742917E0,5.935729E0,1.7640987E2,3.3240082E0,2.1368625E0,7.597733E0,1.0826769E2,6.1019295E1,2.1368625E0,3.5614374E0,6.8854456E0,8.879851E1,2.3980345E1,9.022308E0,1.8994333E0,5.6983E0,9.497167E0,2.1131195E1,4.6061256E1,1.4483178E1,1.0684312E1,2.3742917E0,5.2234416E0,3.3477512E1,2.3742917E0,1.8994333E0,2.231834E1,1.1871458E0,1.8994333E0,4.036296E0,1.70949E1,1.21801155E2,6.6480165E0,8.54745E0,7.360304E0,2.6117208E0,2.3742917E0,3.893838E1,2.5879778E1,2.84915E0,3.062836E1,2.1368625E0,1.1871458E0,2.6117208E0,7.597733E0,6.173158E0,1.8543217E2,1.3770891E1,1.8994333E1,1.424575E0,2.1368625E0,7.835162E0,5.4608707E0,5.603328E1,4.036296E0,1.6620041E0,1.424575E0,1.6620041E0,1.1871458E0,1.1871458E0,1.1871458E0,4.511154E0,1.424575E0,5.935729E0,1.7047414E2,1.424575E0,1.8994333E0,1.6620041E0,5.935729E0,7.835162E0,1.0043253E2,5.5795853E1,5.2234416E0,2.1368625E0,1.424575E0,2.0893766E1,6.790474E1,3.086579E0,2.0893766E1,4.9860125E0,4.036296E0,3.5614374E0,2.1368625E0,1.6620041E0,7.835162E0,1.1871458E0,1.994405E1,4.463668E1,1.424575E0,7.597733E0,6.8854456E0,1.1871458E0,9.497167E0,1.1871458E0,1.1871458E0,1.6620041E0,3.5614374E0,2.3742917E0,3.110322E1,1.1871458E0,1.1871458E0,1.9231762E1,3.086579E0,1.8994333E0,2.1368625E0,1.4720608E1,2.3742917E0,1.1657771E2,5.2234416E0,4.511154E0,2.1368625E0,6.4105873E0,2.1368625E0,5.6983E0,1.6620041E0,1.1871458E0,1.424575E0,2.3742917E0,3.656409E1,8.54745E0,1.7332329E1,1.424575E0,1.424575E0,2.4217773E1,6.4105873E0,1.1871458E0,1.424575E0,5.4608707E0,2.1368625E0,1.7284842E2,1.2583745E1,6.6480165E0,7.1228747E0,1.7569757E1,1.424575E0,4.273725E0,3.5614374E0,4.796069E1,8.072592E0,1.8994333E0,2.1368625E0,1.6762498E2,2.84915E0,2.6117208E0,3.3240082E0,1.994405E1,8.048849E1,5.4371277E1,1.424575E0,1.1871458E0,1.970662E1,2.27932E1,4.5111538E1,2.6117208E0,1.8282045E1,1.1871458E0,3.7988665E0,2.3742917E0,1.6620041E0,2.1368625E0,1.424575E0,3.086579E0,1.685747E1,4.9860125E0,3.965067E1],"tree_param":{"num_deleted":"0","num_feature":"7","num_nodes":"339","size_leaf_vector":"1"}},{"base_weights":[7.3476676E-3,1.5229253E0,-3.5735056E-1,1.8400071E-2,1.5950508E0,-9.617401E-1,1.3001524E0,1.5934668E-1,-1.5974698E0,9.998153E-1,1.6128491E-1,-1.1352774E0,2.775205E-1,1.4582158E0,4.9688816E-1,-1.2334245E0,-2.0565164E0,1.5940239E-1,-6.2644444E-2,-1.2738754E0,-3.3292508E-1,1.5298271E0,-6.092243E-1,1.5406803E0,2.2143486E-1,-4.1412058E-1,1.2381402E0,-9.245777E-2,-1.6407438E-1,-2.3445503E-1,-1.5559208E-1,-1.4587836E0,-4.5618486E-1,1.399623E0,-1.2250625E0,6.4957224E-2,1.5519713E-1,-1.0583575E0,1.05832264E-1,1.0166507E0,1.595315E0,-2.244434E0,1.6003363E-1,2.3934911E-1,-8.6559945E-1,1.4569952E0,-4.176061E-1,-2.7640578E-1,-1.559415E0,1.3851985E0,-1.2687688E0,1.5788937E0,1.1816944E-1,8.479484E-1,-1.4578904E0,1.530394E-1,-1.2479255E0,-1.0616677E0,7.817487E-1,1.6026562E-1,-2.2643363E-1,1.608494E-1,1.2893293E0,-2.566226E-1,-8.566179E-2,6.074428E-1,-2.1087258E-1,2.4312875E-1,-1.2752193E0,1.5714304E-1,1.9252002E-2,-2.2872877E-1,1.05608776E-1,-1.8529178E0,1.2496326E0,3.6850635E-2,-1.6316131E0,4.452745E-1,1.604883E-1,1.5502197E-1,-1.3695695E0,1.609847E-1,1.001197E-1,-1.2488731E0,1.5125543E-1,-4.0796188E-1,1.631953E-1,-1.1845354E0,-2.2230399E0,-2.4348776E0,-9.4614434E-1,-1.7702329E0,-4.3620154E-1,1.3107864E0,-1.3210866E0,4.8978513E-1,-8.58077E-1,1.694699E-3,1.5937299E-1,-1.031872E-1,1.089051E0,-8.97172E-2,7.7647763E-1,-2.4360617E-1,-1.0960339E0,-7.2346777E-1,-2.104636E0,-2.4186039E-1,1.5727595E0,-1.1621519E0,1.1130314E0,-1.6416816E0,1.537528E-1,1.3017801E0,-9.8135495E-1,-1.6779279E0,-4.6968937E-1,-1.1414392E-2,-2.2539084E-1,1.5346648E-1,-1.8042164E-1,-5.510484E-1,-1.8672298E0,-2.5667801E-1,-1.6087643E0,-2.568895E-1,-1.7665708E-1,-1.2306412E0,1.2395939E0,-2.3983407E-1,-1.4385836E0,3.4066552E-1,-1.1814307E0,8.761446E-1,1.5412757E-1,-1.7224096E-1,-9.987491E-2,1.0545983E-1,-1.829473E-2,-4.8190346E-1,-1.6552782E-1,1.5185754E-1,2.9975116E-1,1.405661E-2,1.4662431E-1,-1.698059E0,-7.195381E-1,-1.8787469E-1,4.966821E-2,-1.7870812E0,-2.2094505E0,7.6992905E-1,-2.2837281E-1,1.1377549E0,1.6329494E-1,-1.6170943E-1,-1.6519638E0,1.3606029E0,-9.7002365E-2,-1.6994607E0,-1.0962057E0,6.2761486E-2,1.5155886E-1,-2.2539456E-1,1.8298183E-2,3.1222805E-2,-1.7338268E0,1.5756336E-1,-1.2037853E0,-8.3002865E-1,1.2908801E0,-2.0135732E0,-7.7381766E-1,-1.1573384E-2,-1.93175E0,1.5026493E-1,-1.4248286E0,6.609788E-2,1.5154928E-1,-7.219079E-2,-2.2995332E-1,-7.9779476E-2,1.4707078E-1,-7.4522525E-2,-1.5286975E-1,1.2242932E0,-1.1028401E-2,-1.0698982E-1,1.5023844E-2,-8.5767046E-2,1.4521639E-1,-1.2088472E-1,-2.4060653E-1,-3.106334E-1,-1.8407695E-1,-2.3714435E-1,-1.05819546E-1,-1.5527962E-1,-2.2671206E-1,1.4143857E-1,1.9303953E-2,6.722403E-2,1.5067409E-1,-2.3123243E-1,1.5242337E-1,-9.0375535E-2,-2.4489515E-1,4.6741426E-2,1.5563956E-1,-1.8458144E-1,-1.4313766E-1,9.6588604E-2,-1.8456332E-1,-1.8103345E-1,-4.5891378E-2,7.129538E-2,-1.5571085E-1,3.0260677E-2,-1.0620017E-1,1.570448E-1,6.980275E-2,-1.2314393E-1,-2.1081968E-1,-1.1601919E-2,-1.6235037E-1,-2.225112E-1,-1.0572497E-1,-2.3916855E-1,-1.1094252E-1,6.309282E-2,1.5069044E-1,-1.6619706E-1,2.5043124E-2],"categories":[],"categories_nodes":[],"categories_segments":[],"categories_sizes":[],"default_left":[0,0,0,0,0,0,0,0,0,0,0,0,0,0,0,0,0,0,0,0,0,0,0,0,0,0,0,0,0,0,0,0,0,0,0,0,0,0,0,0,0,0,0,0,0,0,0,0,0,0,0,0,0,0,0,0,0,0,0,0,0,0,0,0,0,0,0,0,0,0,0,0,0,0,0,0,0,0,0,0,0,0,0,0,0,0,0,0,0,0,0,0,0,0,0,0,0,0,0,0,0,0,0,0,0,0,0,0,0,0,0,0,0,0,0,0,0,0,0,0,0,0,0,0,0,0,0,0,0,0,0,0,0,0,0,0,0,0,0,0,0,0,0,0,0,0,0,0,0,0,0,0,0,0,0,0,0,0,0,0,0,0,0,0,0,0,0,0,0,0,0,0,0,0,0,0,0,0,0,0,0,0,0,0,0,0,0,0,0,0,0,0,0,0,0,0,0,0,0,0,0,0,0,0,0,0,0,0,0,0,0,0,0,0,0,0,0,0,0,0,0,0,0,0,0,0,0,0,0,0,0,0,0],"id":1,"left_children":[1,3,5,7,9,11,13,-1,15,17,-1,19,21,23,25,27,29,-1,-1,31,33,35,37,39,41,43,45,-1,-1,-1,-1,47,49,51,53,-1,-1,55,57,59,61,63,-1,65,67,69,71,73,75,77,79,81,83,85,87,-1,89,91,93,-1,95,-1,97,-1,-1,99,-1,101,103,-1,-1,-1,-1,105,107,109,111,113,-1,-1,115,-1,-1,117,-1,119,-1,121,123,125,127,129,131,133,135,137,139,-1,-1,-1,141,-1,143,-1,145,147,149,151,153,155,157,159,-1,161,163,165,167,-1,-1,-1,-1,169,171,-1,173,-1,-1,175,177,-1,179,181,183,185,-1,-1,-1,-1,-1,187,-1,-1,189,-1,-1,191,193,-1,-1,195,197,199,-1,201,-1,203,205,207,-1,209,211,-1,-1,-1,-1,-1,213,-1,215,217,219,221,223,-1,225,-1,227,-1,-1,-1,-1,-1,-1,-1,-1,229,-1,-1,-1,-1,-1,-1,-1,231,-1,-1,-1,-1,-1,-1,-1,-1,-1,-1,-1,-1,-1,-1,-1,-1,-1,-1,-1,-1,-1,-1,-1,-1,-1,-1,-1,-1,-1,-1,-1,-1,-1,-1,-1,-1,-1,-1,-1],"loss_changes":[8.1030096E2,3.0852722E1,1.183883E3,3.3617924E1,2.7132568E0,1.862652E2,4.0022095E1,0E0,8.360176E-1,7.9666376E0,0E0,8.4430786E1,1.1830287E2,2.6872375E1,3.5216278E1,3.3721018E-1,2.9435158E-2,0E0,0E0,9.78634E1,1.733242E2,7.5992584E-1,2.0048847E1,6.918213E0,5.6827656E1,6.9352565E0,1.0474308E1,0E0,0E0,0E0,0E0,6.28042E1,1.7912979E2,8.739464E0,3.584021E1,0E0,0E0,1.9001747E1,1.9149433E1,1.7246134E1,6.951294E-1,2.4587097E0,0E0,8.472669E0,6.3357563E0,3.645794E0,9.699869E0,1.0019349E2,5.6102295E1,7.4996643E0,2.380664E1,4.3672943E-1,9.313698E0,7.486102E0,1.3659256E1,0E0,1.258271E1,3.8677807E0,1.7260584E1,0E0,3.5058646E0,0E0,3.7714462E0,0E0,0E0,6.763063E0,0E0,2.398473E0,1.8449154E0,0E0,0E0,0E0,0E0,5.6695023E0,1.0242065E1,2.7433537E1,1.5111694E1,8.784714E0,0E0,0E0,2.2180939E1,0E0,0E0,2.7933865E0,0E0,8.34912E0,0E0,2.1200043E1,3.2626038E0,1.8993759E-1,1.7988811E1,5.1755714E-1,2.854317E0,1.0994282E0,2.3381996E-1,1.4068525E0,1.1512318E0,0E0,0E0,0E0,2.1783566E0,0E0,1.1472454E0,0E0,1.91261E0,5.568792E0,1.6077423E-1,8.1439E0,2.7020645E-1,4.9019766E0,5.909132E0,1.4445923E1,0E0,5.491843E-1,4.063857E0,6.696457E0,3.1137764E1,0E0,0E0,0E0,0E0,1.3309065E1,3.6311111E0,0E0,3.1187248E0,0E0,0E0,1.3711575E1,4.3514204E-1,0E0,1.6602669E0,3.2788606E0,2.652676E-1,1.5595462E0,0E0,0E0,0E0,0E0,0E0,1.1051326E0,0E0,0E0,3.3741152E0,0E0,0E0,8.800545E-1,2.5546343E0,0E0,0E0,1.7362938E0,1.0721207E-1,9.5930314E-1,0E0,3.1896353E-1,0E0,1.2740664E1,3.7985992E0,1.6855068E0,0E0,1.619934E1,6.9331406E1,0E0,0E0,0E0,0E0,0E0,5.5832214E0,0E0,1.0421576E1,5.9104443E0,4.5697832E-1,1.2805176E0,1.6333568E0,0E0,1.1369667E0,0E0,6.9907837E0,0E0,0E0,0E0,0E0,0E0,0E0,0E0,0E0,4.6429873E-1,0E0,0E0,0E0,0E0,0E0,0E0,0E0,3.2977815E0,0E0,0E0,0E0,0E0,0E0,0E0,0E0,0E0,0E0,0E0,0E0,0E0,0E0,0E0,0E0,0E0,0E0,0E0,0E0,0E0,0E0,0E0,0E0,0E0,0E0,0E0,0E0,0E0,0E0,0E0,0E0,0E0,0E0,0E0,0E0,0E0,0E0,0E0,0E0],"parents":[2147483647,0,0,1,1,2,2,3,3,4,4,5,5,6,6,8,8,9,9,11,11,12,12,13,13,14,14,15,15,16,16,19,19,20,20,21,21,22,22,23,23,24,24,25,25,26,26,31,31,32,32,33,33,34,34,37,37,38,38,39,39,40,40,41,41,43,43,44,44,45,45,46,46,47,47,48,48,49,49,50,50,51,51,52,52,53,53,54,54,56,56,57,57,58,58,60,60,62,62,65,65,67,67,68,68,73,73,74,74,75,75,76,76,77,77,80,80,83,83,85,85,87,87,88,88,89,89,90,90,91,91,92,92,93,93,94,94,95,95,96,96,100,100,102,102,104,104,105,105,106,106,107,107,108,108,109,109,110,110,111,111,113,113,114,114,115,115,116,116,121,121,122,122,124,124,127,127,128,128,130,130,131,131,132,132,133,133,139,139,142,142,145,145,146,146,149,149,150,150,151,151,153,153,155,155,156,156,157,157,159,159,160,160,166,166,168,168,169,169,170,170,171,171,172,172,174,174,176,176,185,185,193,193],"right_children":[2,4,6,8,10,12,14,-1,16,18,-1,20,22,24,26,28,30,-1,-1,32,34,36,38,40,42,44,46,-1,-1,-1,-1,48,50,52,54,-1,-1,56,58,60,62,64,-1,66,68,70,72,74,76,78,80,82,84,86,88,-1,90,92,94,-1,96,-1,98,-1,-1,100,-1,102,104,-1,-1,-1,-1,106,108,110,112,114,-1,-1,116,-1,-1,118,-1,120,-1,122,124,126,128,130,132,134,136,138,140,-1,-1,-1,142,-1,144,-1,146,148,150,152,154,156,158,160,-1,162,164,166,168,-1,-1,-1,-1,170,172,-1,174,-1,-1,176,178,-1,180,182,184,186,-1,-1,-1,-1,-1,188,-1,-1,190,-1,-1,192,194,-1,-1,196,198,200,-1,202,-1,204,206,208,-1,210,212,-1,-1,-1,-1,-1,214,-1,216,218,220,222,224,-1,226,-1,228,-1,-1,-1,-1,-1,-1,-1,-1,230,-1,-1,-1,-1,-1,-1,-1,232,-1,-1,-1,-1,-1,-1,-1,-1,-1,-1,-1,-1,-1,-1,-1,-1,-1,-1,-1,-1,-1,-1,-1,-1,-1,-1,-1,-1,-1,-1,-1,-1,-1,-1,-1,-1,-1,-1,-1],"split_conditions":[5.5E1,3.91E1,9.83E1,3.45E1,4.23E1,7.21E1,7.9E1,1.5934668E-1,9.71E1,5.01E1,1.6128491E-1,8.73E1,8.3E1,1.55E2,1.189E2,9.3E1,8.43E1,1.5940239E-1,-6.2644444E-2,6.41E1,1.19E2,9.2E1,7.71E1,1.016E2,1.062E2,1.347E2,9.37E1,-9.245777E-2,-1.6407438E-1,-2.3445503E-1,-1.5559208E-1,6E1,7.6E1,7E1,5.98E1,6.4957224E-2,1.5519713E-1,7.3E1,1.163E2,1.318E2,1.49E2,1.689E2,1.6003363E-1,9.37E1,9.58E1,1.734E2,1.37E2,4.71E1,8.26E1,1.012E2,6.5E1,6.8E1,8.95E1,8.95E1,7E1,1.530394E-1,7.32E1,8.14E1,9.6E1,1.6026562E-1,7.18E1,1.608494E-1,1.078E2,-2.566226E-1,-8.566179E-2,1.016E2,-2.1087258E-1,1.054E2,7.95E1,1.5714304E-1,1.9252002E-2,-2.2872877E-1,1.05608776E-1,7.96E1,8.57E1,6.66E1,1.001E2,7.3E1,1.604883E-1,1.5502197E-1,6.91E1,1.609847E-1,1.001197E-1,1.102E2,1.5125543E-1,1.23E2,1.631953E-1,1.37E2,1.371E2,1.395E2,1.454E2,7.81E1,8.5E1,7.95E1,9.61E1,9.65E1,9.91E1,1.694699E-3,1.5937299E-1,-1.031872E-1,9.86E1,-8.97172E-2,1.536E2,-2.4360617E-1,9.71E1,9.51E1,5.7E1,5.87E1,5.59E1,5.09E1,6.05E1,8.21E1,1.537528E-1,6.56E1,9.51E1,8.61E1,7E1,-1.1414392E-2,-2.2539084E-1,1.5346648E-1,-1.8042164E-1,9.54E1,9.64E1,-2.5667801E-1,1.417E2,-2.568895E-1,-1.7665708E-1,7.4E1,9.05E1,-2.3983407E-1,8E1,1.044E2,9.54E1,7.85E1,1.5412757E-1,-1.7224096E-1,-9.987491E-2,1.0545983E-1,-1.829473E-2,7.41E1,-1.6552782E-1,1.5185754E-1,1.119E2,1.405661E-2,1.4662431E-1,1.07E2,1.655E2,-1.8787469E-1,4.966821E-2,4.23E1,3.8E1,7.29E1,-2.2837281E-1,5.54E1,1.6329494E-1,6.02E1,6.4E1,6.88E1,-9.7002365E-2,5.71E1,1.179E2,6.2761486E-2,1.5155886E-1,-2.2539456E-1,1.8298183E-2,3.1222805E-2,1.382E2,1.5756336E-1,7.89E1,6.3E1,6.56E1,1.389E2,9.71E1,-1.1573384E-2,9.81E1,1.5026493E-1,9.51E1,6.609788E-2,1.5154928E-1,-7.219079E-2,-2.2995332E-1,-7.9779476E-2,1.4707078E-1,-7.4522525E-2,-1.5286975E-1,1.211E2,-1.1028401E-2,-1.0698982E-1,1.5023844E-2,-8.5767046E-2,1.4521639E-1,-1.2088472E-1,-2.4060653E-1,1.054E2,-1.8407695E-1,-2.3714435E-1,-1.05819546E-1,-1.5527962E-1,-2.2671206E-1,1.4143857E-1,1.9303953E-2,6.722403E-2,1.5067409E-1,-2.3123243E-1,1.5242337E-1,-9.0375535E-2,-2.4489515E-1,4.6741426E-2,1.5563956E-1,-1.8458144E-1,-1.4313766E-1,9.6588604E-2,-1.8456332E-1,-1.8103345E-1,-4.5891378E-2,7.129538E-2,-1.5571085E-1,3.0260677E-2,-1.0620017E-1,1.570448E-1,6.980275E-2,-1.2314393E-1,-2.1081968E-1,-1.1601919E-2,-1.6235037E-1,-2.225112E-1,-1.0572497E-1,-2.3916855E-1,-1.1094252E-1,6.309282E-2,1.5069044E-1,-1.6619706E-1,2.5043124E-2],"split_indices":[2,3,2,2,3,3,3,0,5,2,0,2,2,4,2,4,4,0,0,3,4,4,3,2,2,4,3,0,0,0,0,2,2,3,3,0,0,3,4,4,4,4,0,3,5,4,2,3,4,4,3,3,2,2,3,0,3,3,2,0,3,0,2,0,0,2,0,2,3,0,0,0,0,4,4,2,5,2,0,0,3,0,0,4,0,4,0,4,4,4,4,3,3,3,5,5,5,0,0,0,5,0,4,0,5,5,2,2,2,3,3,2,0,3,5,4,3,0,0,0,0,2,2,0,4,0,0,3,2,0,3,4,2,3,0,0,0,0,0,3,0,0,2,0,0,2,4,0,0,3,3,4,0,3,0,2,2,2,0,3,4,0,0,0,0,0,4,0,2,3,3,4,5,0,5,0,5,0,0,0,0,0,0,0,0,4,0,0,0,0,0,0,0,2,0,0,0,0,0,0,0,0,0,0,0,0,0,0,0,0,0,0,0,0,0,0,0,0,0,0,0,0,0,0,0,0,0,0,0,0,0,0,0],"split_type":[0,0,0,0,0,0,0,0,0,0,0,0,0,0,0,0,0,0,0,0,0,0,0,0,0,0,0,0,0,0,0,0,0,0,0,0,0,0,0,0,0,0,0,0,0,0,0,0,0,0,0,0,0,0,0,0,0,0,0,0,0,0,0,0,0,0,0,0,0,0,0,0,0,0,0,0,0,0,0,0,0,0,0,0,0,0,0,0,0,0,0,0,0,0,0,0,0,0,0,0,0,0,0,0,0,0,0,0,0,0,0,0,0,0,0,0,0,0,0,0,0,0,0,0,0,0,0,0,0,0,0,0,0,0,0,0,0,0,0,0,0,0,0,0,0,0,0,0,0,0,0,0,0,0,0,0,0,0,0,0,0,0,0,0,0,0,0,0,0,0,0,0,0,0,0,0,0,0,0,0,0,0,0,0,0,0,0,0,0,0,0,0,0,0,0,0,0,0,0,0,0,0,0,0,0,0,0,0,0,0,0,0,0,0,0,0,0,0,0,0,0,0,0,0,0,0,0,0,0,0,0,0,0],"sum_hessian":[1.4658033E3,2.8424557E2,1.1815577E3,1.3008848E1,2.7123672E2,8.658701E2,3.1568765E2,6.5882993E0,6.4205484E0,8.040822E0,2.631959E2,7.595206E2,1.063495E2,2.637135E2,5.1974148E1,3.7864277E0,2.634121E0,5.8905087E0,2.150313E0,6.475963E2,1.1192432E2,4.4057175E1,6.2292328E1,2.4720607E2,1.6507446E1,2.3336906E1,2.863724E1,2.3395057E0,1.446922E0,1.4382341E0,1.1958867E0,5.2809686E2,1.1949942E2,3.8024033E1,7.390028E1,1.1555668E0,4.2901608E1,3.8231064E1,2.4061266E1,2.3525152E1,2.2368091E2,5.8977737E0,1.0609672E1,9.554592E0,1.3782314E1,2.5304518E1,3.3327227E0,4.145009E1,4.866468E2,3.6566406E1,8.2933014E1,3.3337086E1,4.686947E0,7.435271E0,6.646502E1,2.5602915E0,3.5670773E1,8.8015E0,1.5259765E1,1.5968484E1,7.556669E0,2.140365E2,9.644418E0,4.7187333E0,1.1790404E0,8.323843E0,1.230749E0,3.7291574E0,1.0053157E1,2.3182243E1,2.1222727E0,1.4446639E0,1.8880589E0,2.0377344E1,2.1072744E1,2.10604E1,4.655864E2,6.984744E0,2.9581663E1,2.8134775E0,8.011954E1,3.1472126E1,1.8649597E0,2.3719468E0,2.315E0,2.876047E0,4.5592237E0,4.915785E1,1.7307169E1,7.087541E0,2.8583231E1,4.040807E0,4.7606936E0,1.22224655E1,3.0372992E0,3.5517771E0,4.0048923E0,1.8822503E0,7.7621675E0,1.8641907E0,6.4596524E0,1.1666478E0,2.5625098E0,1.1758647E0,8.877293E0,3.7843819E0,1.6592962E1,3.7568734E0,1.731587E1,9.957967E0,1.1102433E1,4.6415994E2,1.4264531E0,4.369924E0,2.61482E0,5.9607582E1,2.0511955E1,1.1663939E0,1.2055529E0,1.198561E0,1.6774861E0,2.559158E1,2.3566267E1,1.08934765E1,6.4136934E0,5.6667805E0,1.4207606E0,2.5329966E1,3.2532663E0,1.1809882E0,2.8598187E0,2.3574488E0,2.4032447E0,4.4018555E0,7.8206105E0,1.1594229E0,1.8778762E0,1.8998969E0,1.6518801E0,2.82997E0,1.1749221E0,4.1233797E0,2.3362727E0,1.3959388E0,1.166571E0,3.280571E0,5.5967216E0,1.9161395E0,1.8682423E0,4.5656095E0,1.2027353E1,2.5537353E0,1.203138E0,2.346624E0,1.4969247E1,3.31667E0,6.6412964E0,9.954073E0,1.148361E0,4.1951187E2,4.464807E1,1.1469586E0,3.2229655E0,1.2046195E0,1.4102005E0,1.6159705E0,5.799161E1,5.387309E0,1.5124646E1,2.2273024E1,3.318556E0,2.0710234E1,2.8560336E0,1.1648595E0,5.248834E0,1.6355075E0,2.3694458E1,1.1600285E0,2.0932376E0,1.6610062E0,1.1988124E0,1.1889964E0,1.1684523E0,1.2046582E0,1.1985865E0,3.2357287E0,1.1661268E0,1.4303044E0,1.3996655E0,1.1783636E0,1.157909E0,2.1001606E0,1.1804104E0,4.1946635E0,1.4020578E0,2.4089527E0,2.156657E0,1.1964631E0,1.083089E1,1.1376574E0,1.4160779E0,1.1623646E0,1.1842594E0,1.441156E0,1.875514E0,3.5355418E0,3.1057549E0,1.8505883E0,8.103484E0,2.7098557E2,1.4852628E2,1.1893516E1,3.2754555E1,5.4668922E1,3.322686E0,2.338229E0,1.2786417E1,3.7810678E0,1.8491955E1,2.1430666E0,1.1754895E0,2.3863873E0,1.8323847E1,1.6738496E0,1.182184E0,3.8147016E0,1.4341323E0,5.666311E0,1.8028147E1,1.1482127E0,2.087516E0,1.1730729E0,3.0215907E0],"tree_param":{"num_deleted":"0","num_feature":"7","num_nodes":"233","size_leaf_vector":"1"}},{"base_weights":[3.6936023E-4,-2.6933327E-1,4.3196902E-1,1.1347233E0,-3.2256076E-1,5.9577715E-1,-1.8503964E-2,1.2555884E0,2.7693652E-2,-2.79961E-1,-1.957271E0,3.7178814E-1,8.8177353E-1,1.4974311E-1,-8.1576906E-2,5.8519006E-2,1.304083E0,1.4086346E-1,-7.497361E-2,-3.318413E-1,1.5723087E-1,-1.5043575E0,-2.275321E-1,4.5009536E-1,-1.6478852E0,9.2602074E-1,-7.132134E-1,-9.225248E-1,4.51613E-2,6.4075336E-2,1.3304919E0,-2.83739E-1,-1.6119163E0,-7.199498E-1,-1.8423176E0,1.5185533E-1,3.4952947E-1,-1.2419955E0,-2.187058E-1,-9.899061E-2,9.473645E-1,-1.3321419E0,8.058631E-2,-2.8917754E-1,-1.9910786E0,1.4930926E-1,-2.735472E-2,9.6150637E-1,1.3884284E-1,-3.3455127E-1,1.5572815E-1,-6.7613006E-1,-1.7290975E0,-1.4510724E-1,-1.3174975E-2,-7.735028E-2,-2.0697163E-1,-9.573061E-1,4.6962285E-1,-7.041685E-1,-2.1832566E-1,1.502182E-1,8.834154E-1,-1.9481747E-1,-6.1776247E-2,-1.4139792E0,1.5006913E-1,-2.230349E-1,-1.3039619E-1,-1.8133605E0,6.702794E-2,1.4363901E-1,-1.6368441E-2,-2.9231063E-1,-1.6164441E0,5.4057736E-2,-2.1649586E-1,-1.5972389E0,-2.1262458E-1,2.1347728E-1,-1.4330305E0,1.5383865E-1,3.4775865E-1,-1.0094792E-1,-4.3396145E-2,-6.090578E-1,9.5488715E-1,-1.7414098E0,-4.4476625E-2,-1.0217061E-1,-2.0432315E0,1.4939182E-1,3.0743278E-4,-3.6389634E-1,1.5873289E-1,-1.4804236E0,-2.2194377E-1,-1.448873E0,-2.0433154E0,1.4658535E-1,-4.1623276E-1,6.1388392E-2,-1.6507431E0,-1.4175503E0,4.6636406E-1,3.8178554E-1,-1.9851453E0,5.366409E-1,1.0423559E0,-2.2322941E-1,-1.1843373E0,-2.2658907E-1,-1.340445E-1,-1.8870491E0,1.0175282E-1,-3.042857E-1,-1.8344992E0,-1.8359385E0,-1.1898364E0,-1.5623049E0,-3.2825682E-2,-2.205474E-1,-1.4500853E-1,-1.0079471E-1,6.762585E-2,-1.4320918E0,-2.2406569E-1,-4.2772686E-1,-1.9716921E0,1.5327442E-1,2.970778E-1,1.1021411E0,-7.025185E-2,-1.5470919E-1,-2.3019929E-1,8.4374243E-1,-1.8533619E-1,1.3532932E0,9.691981E-1,-7.0497386E-2,-1.5056913E-1,-2.2009932E-1,-1.4364544E-1,1.4816003E-1,1.07782455E-2,-3.6791652E-2,1.5663564E-1,-1.9352092E-1,-7.426898E-2,-2.013016E-1,-6.564879E-2,-2.9339394E-2,-1.5127158E-1,-7.2998315E-2,-1.6345377E-1,-1.6208091E-1,-4.7420505E-2,9.218979E-3,-1.4612448E-1,-9.596714E-2,-2.2288875E-1,1.4211208E-2,1.5171044E-1,1.4179382E-1,6.416799E-2,4.2087298E-2,1.0892004E-1,7.291825E-2,-1.0090943E-1,1.1821405E-1,1.5192711E-1,-9.838517E-3,1.0497923E-1,-1.5693244E-1,1.18470965E-2],"categories":[],"categories_nodes":[],"categories_segments":[],"categories_sizes":[],"default_left":[0,0,0,0,0,0,0,0,0,0,0,0,0,0,0,0,0,0,0,0,0,0,0,0,0,0,0,0,0,0,0,0,0,0,0,0,0,0,0,0,0,0,0,0,0,0,0,0,0,0,0,0,0,0,0,0,0,0,0,0,0,0,0,0,0,0,0,0,0,0,0,0,0,0,0,0,0,0,0,0,0,0,0,0,0,0,0,0,0,0,0,0,0,0,0,0,0,0,0,0,0,0,0,0,0,0,0,0,0,0,0,0,0,0,0,0,0,0,0,0,0,0,0,0,0,0,0,0,0,0,0,0,0,0,0,0,0,0,0,0,0,0,0,0,0,0,0,0,0,0,0,0,0,0,0,0,0,0,0,0,0,0,0,0,0,0,0,0,0,0,0,0,0,0,0],"id":2,"left_children":[1,3,5,7,9,11,13,15,17,19,21,23,25,-1,27,-1,29,-1,-1,31,-1,33,-1,35,37,39,41,43,45,-1,47,49,51,53,55,-1,57,59,-1,-1,61,63,-1,65,67,-1,69,71,-1,73,-1,75,77,-1,-1,-1,-1,79,81,83,-1,-1,85,-1,-1,87,-1,-1,-1,89,91,-1,-1,93,95,-1,-1,97,-1,99,101,-1,103,-1,-1,105,107,109,-1,-1,111,-1,113,115,-1,117,-1,119,121,-1,123,-1,125,127,129,131,133,135,137,-1,139,-1,-1,141,143,145,147,149,151,153,-1,-1,-1,-1,-1,155,-1,157,159,-1,161,163,-1,-1,-1,165,167,169,171,-1,-1,-1,-1,-1,173,-1,-1,-1,-1,-1,-1,-1,-1,-1,-1,-1,-1,-1,-1,-1,-1,-1,-1,-1,-1,-1,-1,-1,-1,-1,-1,-1,-1,-1,-1],"loss_changes":[1.6869731E2,6.669245E1,4.1128E1,4.3583145E0,5.9792656E1,2.6149887E1,1.4232134E1,8.791084E-1,3.660319E0,8.0551506E1,2.7994385E0,3.635186E1,1.2729797E1,0E0,1.5231878E1,0E0,3.934059E-1,0E0,0E0,5.0134605E1,0E0,2.3308182E0,0E0,2.3682453E1,1.6067352E0,7.235321E0,4.7143755E0,1.2609536E1,1.3051002E1,0E0,4.2628098E-1,7.353839E1,3.1172562E0,1.2547971E0,1.4027786E0,0E0,3.1751167E1,2.4423442E0,0E0,0E0,5.9970856E0,1.4283967E0,0E0,2.4106848E1,8.515396E-1,0E0,1.997571E1,2.0960464E0,0E0,4.135119E1,0E0,6.360177E0,1.0296478E0,0E0,0E0,0E0,0E0,9.518989E0,2.4053223E1,2.3759794E-1,0E0,0E0,1.6608421E1,0E0,0E0,2.2518768E0,0E0,0E0,0E0,8.7364006E-1,1.0718113E1,0E0,0E0,9.9665726E1,1.670021E0,0E0,0E0,1.0296974E0,0E0,4.0114055E0,5.505415E0,0E0,3.4879704E1,0E0,0E0,9.826847E0,5.3621674E0,1.2265549E0,0E0,0E0,4.0192223E-1,0E0,2.063088E1,6.2465607E1,0E0,1.8665848E0,0E0,1.9031868E0,1.3769722E-1,0E0,2.273227E0,0E0,1.0963917E0,5.671011E0,2.8094624E1,3.3905115E0,6.162548E-2,5.740912E0,2.65271E0,0E0,3.2008243E-1,0E0,0E0,4.613552E-1,1.2834819E1,8.165713E1,2.9090195E0,1.7252026E0,3.2522469E0,7.185211E-1,0E0,0E0,0E0,0E0,0E0,1.4223824E0,0E0,2.1057062E0,1.5298061E0,0E0,2.543554E1,2.8526282E-1,0E0,0E0,0E0,1.8364229E0,5.94054E0,4.7539902E-1,8.564819E0,0E0,0E0,0E0,0E0,0E0,1.6360058E1,0E0,0E0,0E0,0E0,0E0,0E0,0E0,0E0,0E0,0E0,0E0,0E0,0E0,0E0,0E0,0E0,0E0,0E0,0E0,0E0,0E0,0E0,0E0,0E0,0E0,0E0,0E0,0E0,0E0,0E0],"parents":[2147483647,0,0,1,1,2,2,3,3,4,4,5,5,6,6,7,7,8,8,9,9,10,10,11,11,12,12,14,14,16,16,19,19,21,21,23,23,24,24,25,25,26,26,27,27,28,28,30,30,31,31,32,32,33,33,34,34,36,36,37,37,40,40,41,41,43,43,44,44,46,46,47,47,49,49,51,51,52,52,57,57,58,58,59,59,62,62,65,65,69,69,70,70,73,73,74,74,77,77,79,79,80,80,82,82,85,85,86,86,87,87,90,90,92,92,93,93,95,95,97,97,98,98,100,100,102,102,103,103,104,104,105,105,106,106,107,107,108,108,110,110,113,113,114,114,115,115,116,116,117,117,118,118,119,119,125,125,127,127,128,128,130,130,131,131,135,135,136,136,137,137,138,138,144,144],"right_children":[2,4,6,8,10,12,14,16,18,20,22,24,26,-1,28,-1,30,-1,-1,32,-1,34,-1,36,38,40,42,44,46,-1,48,50,52,54,56,-1,58,60,-1,-1,62,64,-1,66,68,-1,70,72,-1,74,-1,76,78,-1,-1,-1,-1,80,82,84,-1,-1,86,-1,-1,88,-1,-1,-1,90,92,-1,-1,94,96,-1,-1,98,-1,100,102,-1,104,-1,-1,106,108,110,-1,-1,112,-1,114,116,-1,118,-1,120,122,-1,124,-1,126,128,130,132,134,136,138,-1,140,-1,-1,142,144,146,148,150,152,154,-1,-1,-1,-1,-1,156,-1,158,160,-1,162,164,-1,-1,-1,166,168,170,172,-1,-1,-1,-1,-1,174,-1,-1,-1,-1,-1,-1,-1,-1,-1,-1,-1,-1,-1,-1,-1,-1,-1,-1,-1,-1,-1,-1,-1,-1,-1,-1,-1,-1,-1,-1],"split_conditions":[6.41E1,2.3E1,1.06E2,6.3E1,6.4E1,7.21E1,6.5E1,3.8E1,8.2E1,6.32E1,8.7E1,7.2E1,9.37E1,1.4974311E-1,6.61E1,5.8519006E-2,6.2E1,1.4086346E-1,-7.497361E-2,6.3E1,1.5723087E-1,9.51E1,-2.275321E-1,6.5E1,5.46E1,5.6E1,4.72E1,6.6E1,6.7E1,6.4075336E-2,9.41E1,6.22E1,3.3E1,9.41E1,4.55E1,1.5185533E-1,6.52E1,9.91E1,-2.187058E-1,-9.899061E-2,7.3E1,2.12E1,8.058631E-2,6.52E1,9.71E1,1.4930926E-1,6.72E1,5.4E1,1.3884284E-1,6.2E1,1.5572815E-1,9.8E1,7.1E1,-1.4510724E-1,-1.3174975E-2,-7.735028E-2,-2.0697163E-1,9.61E1,6.6E1,7.8E1,-2.1832566E-1,1.502182E-1,7.32E1,-1.9481747E-1,-6.1776247E-2,6.44E1,1.5006913E-1,-2.230349E-1,-1.3039619E-1,9.51E1,6.8E1,1.4363901E-1,-1.6368441E-2,6.11E1,7.35E1,5.4057736E-2,-2.1649586E-1,1.15E2,-2.1262458E-1,4.48E1,3.3E1,1.5383865E-1,6.61E1,-1.0094792E-1,-4.3396145E-2,6E1,3.25E1,9.61E1,-4.4476625E-2,-1.0217061E-1,9.71E1,1.4939182E-1,6.81E1,6.1E1,1.5873289E-1,4.31E1,-2.2194377E-1,1.084E2,5.43E1,1.4658535E-1,6.91E1,6.1388392E-2,7.52E1,9.66E1,6.7E1,9.6E1,6.89E1,9.91E1,7.5E1,-2.2322941E-1,1.137E2,-2.2658907E-1,-1.340445E-1,9.61E1,6.9E1,6.01E1,1.19E2,1.16E2,5.07E1,9.44E1,-3.2825682E-2,-2.205474E-1,-1.4500853E-1,-1.0079471E-1,6.762585E-2,6.01E1,-2.2406569E-1,7.17E1,4.03E1,1.5327442E-1,7.11E1,9.71E1,-7.025185E-2,-1.5470919E-1,-2.3019929E-1,2.12E1,2.8E1,7.41E1,7.52E1,-7.0497386E-2,-1.5056913E-1,-2.2009932E-1,-1.4364544E-1,1.4816003E-1,6.91E1,-3.6791652E-2,1.5663564E-1,-1.9352092E-1,-7.426898E-2,-2.013016E-1,-6.564879E-2,-2.9339394E-2,-1.5127158E-1,-7.2998315E-2,-1.6345377E-1,-1.6208091E-1,-4.7420505E-2,9.218979E-3,-1.4612448E-1,-9.596714E-2,-2.2288875E-1,1.4211208E-2,1.5171044E-1,1.4179382E-1,6.416799E-2,4.2087298E-2,1.0892004E-1,7.291825E-2,-1.0090943E-1,1.1821405E-1,1.5192711E-1,-9.838517E-3,1.0497923E-1,-1.5693244E-1,1.18470965E-2],"split_indices":[3,6,1,3,3,3,3,3,1,3,1,3,3,0,3,0,1,0,0,3,0,5,0,3,6,1,6,3,3,0,5,3,6,5,6,0,3,5,0,0,3,6,0,3,5,0,3,3,0,3,0,1,6,0,0,0,0,5,3,1,0,0,3,0,0,6,0,0,0,5,3,0,0,3,6,0,0,1,0,6,6,0,3,0,0,6,6,5,0,0,5,0,3,3,0,6,0,1,6,0,6,0,6,5,3,1,6,5,3,0,1,0,0,5,3,3,1,1,6,5,0,0,0,0,0,6,0,6,6,0,3,5,0,0,0,6,6,3,3,0,0,0,0,0,3,0,0,0,0,0,0,0,0,0,0,0,0,0,0,0,0,0,0,0,0,0,0,0,0,0,0,0,0,0,0],"split_type":[0,0,0,0,0,0,0,0,0,0,0,0,0,0,0,0,0,0,0,0,0,0,0,0,0,0,0,0,0,0,0,0,0,0,0,0,0,0,0,0,0,0,0,0,0,0,0,0,0,0,0,0,0,0,0,0,0,0,0,0,0,0,0,0,0,0,0,0,0,0,0,0,0,0,0,0,0,0,0,0,0,0,0,0,0,0,0,0,0,0,0,0,0,0,0,0,0,0,0,0,0,0,0,0,0,0,0,0,0,0,0,0,0,0,0,0,0,0,0,0,0,0,0,0,0,0,0,0,0,0,0,0,0,0,0,0,0,0,0,0,0,0,0,0,0,0,0,0,0,0,0,0,0,0,0,0,0,0,0,0,0,0,0,0,0,0,0,0,0,0,0,0,0,0,0],"sum_hessian":[1.4490453E3,8.918033E2,5.57242E2,3.2499012E1,8.5930426E2,4.086206E2,1.4862138E2,2.9287949E1,3.2110653E0,8.3759406E2,2.1710176E1,2.2928065E2,1.7933997E2,5.845792E0,1.4277559E2,2.0638366E0,2.7224112E1,1.1273584E0,2.0837069E0,8.148529E2,2.274117E1,9.192603E0,1.2517574E1,2.2079756E2,8.483096E0,1.7453992E2,4.800047E0,1.8617136E1,1.24158455E2,1.1390897E0,2.6085022E1,7.854593E2,2.9393597E1,2.8622742E0,6.3303285E0,1.8872925E1,2.0192464E2,5.0282087E0,3.4548876E0,1.8729848E0,1.7266693E2,3.4192305E0,1.3808165E0,1.1768713E1,6.8484235E0,5.828166E0,1.1833029E2,3.7787194E0,2.2306303E1,7.644425E2,2.101683E1,3.3464546E0,2.6047142E1,1.210699E0,1.6515751E0,1.1877664E0,5.1425624E0,1.6935734E1,1.849889E2,3.3110945E0,1.7171141E0,1.7612576E1,1.5505435E2,1.7432555E0,1.6759751E0,7.2399406E0,4.5287724E0,4.913003E0,1.9354204E0,5.8479567E0,1.1248234E2,2.63779E0,1.1409296E0,7.401752E2,2.4267292E1,1.876568E0,1.4698867E0,1.9931719E1,6.115422E0,4.9091578E0,1.2026576E1,1.8815178E1,1.6617372E2,1.426114E0,1.8849806E0,7.0515585E0,1.4800279E2,5.352145E0,1.8877957E0,1.4384694E0,4.4094872E0,4.9291015E0,1.0755323E2,7.1309766E2,2.7077545E1,2.0082655E1,4.1846375E0,1.5275773E1,4.6559467E0,1.5980839E0,3.311074E0,1.1386954E0,1.0887881E1,1.0392833E1,1.5578088E2,4.141647E0,2.9099114E0,2.5722061E1,1.2228074E2,2.6852355E0,2.6669097E0,3.1796763E0,1.229811E0,5.3963237E0,1.02156906E2,6.854344E2,2.7663263E1,8.793081E0,1.1289574E1,1.3835855E1,1.4399179E0,3.4430265E0,1.2129202E0,2.1528096E0,1.1582644E0,8.193666E0,2.6942148E0,3.7936668E0,6.5991664E0,2.1231634E1,1.3454926E2,2.4874613E0,1.6541857E0,1.4682615E0,1.4416499E0,1.8034153E1,7.687908E0,2.295728E1,9.9323456E1,1.1984937E0,1.4684159E0,2.9514728E0,2.4448512E0,6.224151E0,9.593276E1,6.629637E2,2.2470705E1,2.525634E1,2.4069245E0,7.583808E0,1.2092733E0,3.0400488E0,8.249525E0,1.1935427E0,1.2642312E1,6.7872715E0,1.4063945E0,2.5845668E0,1.2091E0,1.4331377E0,5.1660285E0,1.19484215E2,1.5065038E1,1.3521681E0,1.1352931E0,6.7231417E0,1.1311012E1,3.6486905E0,4.039218E0,1.17023325E1,1.1254946E1,6.970277E0,9.235318E1,6.0345564E0,8.98982E1],"tree_param":{"num_deleted":"0","num_feature":"7","num_nodes":"175","size_leaf_vector":"1"}},{"base_weights":[1.355917E-2,-2.4268636E-1,4.1492838E-1,7.11476E-1,-3.3329916E-1,1.4469181E-1,3.6512473E-1,1.0876274E0,4.6314767E-1,-2.9059115E-1,-1.7484683E-1,-9.240057E-1,4.276281E-1,7.2146046E-1,1.2684137E0,-3.3054766E-1,5.7075995E-1,-3.4365824E-1,1.4910121E-1,-4.0315992E-1,-1.2699571E0,1.462969E-1,3.7955776E-1,9.459088E-1,-2.5448442E-2,5.639815E-2,1.3064212E0,-1.0350548E0,1.0200524E-1,7.723637E-1,-1.5634327E-1,-2.9261974E-1,-1.5088227E0,-7.20383E-1,6.455876E-2,-6.1340976E-1,-1.6861477E0,-1.3021653E0,4.4703507E-1,5.915083E-1,1.4128166E-1,-6.818909E-2,6.545787E-2,1.159991E0,1.3970163E-1,-1.0692693E-2,-1.4560704E-1,9.21241E-1,3.9453816E-1,-4.723963E-1,1.4543478E-1,-3.398626E-1,1.475335E-1,1.201106E-3,-1.5677867E0,-2.0221038E-1,-1.3277471E0,-8.802735E-1,3.9262306E-3,-1.3365997E0,-2.0761192E-1,5.5520456E-2,-1.4876813E0,1.4547478E-1,3.855366E-1,1.1339699E0,-1.0126064E-1,1.3888496E-1,6.633411E-1,6.018869E-1,1.2123191E0,5.8207035E-1,-7.9775654E-2,-1.0123966E0,7.019863E-2,-2.9679865E-1,-1.4211181E0,-1.2164462E0,-1.6301671E0,-1.5462558E-1,5.254083E-1,-8.8898964E-2,-1.5962756E-1,-1.5136463E-2,-1.3372742E-1,-1.7459191E-1,-3.0368183E-2,-9.352018E-1,-1.619072E0,-1.0656303E0,4.6027562E-1,1.387037E-1,5.1821318E-2,-1.3305238E-3,1.318387E-1,1.0307547E0,-2.9305682E-1,1.4226738E-1,7.255239E-1,3.859488E-1,1.4295538E-1,-6.421714E-1,-2.0231462E-1,-3.646973E-1,1.495338E-1,-7.302909E-1,-1.5094013E0,-2.0300165E-1,-6.1124064E-2,-1.3693126E0,-1.7281879E0,8.5648045E-2,5.7858373E-3,-1.8235761E-1,3.317225E-2,-6.650764E-2,-1.7457595E0,2.3253283E-2,-1.1572877E0,1.5075447E-1,4.1056064E-1,1.3364516E0,3.5305226E-1,8.148761E-2,-1.013242E-1,-1.183689E-2,1.1038215E0,8.0951726E-1,6.2027518E-2,-1.5376672E-1,-1.9396271E-1,-3.1247586E-1,-1.5412687E0,-1.2929772E-1,-3.2401606E-2,-1.3285419E0,-1.8318577E-1,-1.9033153E-1,-1.1399134E0,-2.025683E-1,-1.5927309E0,-2.0462976E-1,-1.5562208E0,-1.4030113E0,-3.599877E-1,-1.6084802E0,4.9405444E-1,1.5078716E-1,6.9947295E-2,-4.551709E-3,7.2492E-2,1.424372E-1,6.413126E-2,1.8410338E-2,1.4071737E-1,-5.8486987E-2,9.0282366E-2,7.460295E-2,-9.578114E-2,-3.8598962E-2,1.4935054E-1,-1.3971543E-1,-1.9230722E-1,-1.691083E-1,-9.064164E-2,-5.8526475E-2,-1.3725567E-1,-1.4062642E-1,-1.9992088E-1,-1.03719965E-1,-1.7469381E-1,-1.7750332E-1,-1.0610904E-1,1.05362825E-1,-1.2730801E-1,-1.5116495E-1,-2.1854232E-1,1.5045108E-1,4.3392885E-2],"categories":[],"categories_nodes":[],"categories_segments":[],"categories_sizes":[],"default_left":[0,0,0,0,0,0,0,0,0,0,0,0,0,0,0,0,0,0,0,0,0,0,0,0,0,0,0,0,0,0,0,0,0,0,0,0,0,0,0,0,0,0,0,0,0,0,0,0,0,0,0,0,0,0,0,0,0,0,0,0,0,0,0,0,0,0,0,0,0,0,0,0,0,0,0,0,0,0,0,0,0,0,0,0,0,0,0,0,0,0,0,0,0,0,0,0,0,0,0,0,0,0,0,0,0,0,0,0,0,0,0,0,0,0,0,0,0,0,0,0,0,0,0,0,0,0,0,0,0,0,0,0,0,0,0,0,0,0,0,0,0,0,0,0,0,0,0,0,0,0,0,0,0,0,0,0,0,0,0,0,0,0,0,0,0,0,0,0,0,0,0,0,0,0,0,0,0,0,0],"id":3,"left_children":[1,3,5,7,9,-1,11,13,15,17,-1,19,21,23,25,27,29,31,-1,33,35,-1,37,39,41,-1,43,45,-1,47,49,51,53,55,-1,57,59,61,63,65,-1,-1,-1,67,-1,-1,-1,69,71,73,-1,75,-1,-1,77,79,81,83,-1,85,-1,-1,87,-1,89,91,-1,-1,93,95,97,99,-1,101,-1,103,105,107,109,-1,111,-1,-1,-1,-1,-1,-1,113,115,117,119,-1,-1,-1,-1,121,123,-1,125,127,-1,129,-1,131,-1,133,135,-1,-1,137,139,-1,-1,-1,-1,-1,141,-1,143,-1,145,147,149,-1,-1,-1,151,153,155,-1,157,159,161,-1,-1,163,-1,-1,165,-1,167,-1,169,171,173,175,177,-1,-1,-1,-1,-1,-1,-1,-1,-1,-1,-1,-1,-1,-1,-1,-1,-1,-1,-1,-1,-1,-1,-1,-1,-1,-1,-1,-1,-1,-1,-1,-1],"loss_changes":[1.4760394E2,7.575644E1,2.8689217E1,7.0488358E0,4.8302444E1,0E0,4.3034874E1,1.9042397E0,3.943779E0,7.3485535E1,0E0,4.400711E0,2.5276962E1,1.7118392E0,4.631691E-1,5.386374E0,5.949295E0,4.4814644E1,0E0,3.3758664E0,3.9405518E0,0E0,5.5271088E1,1.2142882E0,1.1398937E0,0E0,8.931732E-2,1.4290569E0,0E0,1.7483158E0,4.5869417E0,6.0420776E1,2.8384476E0,2.406147E0,0E0,1.0309122E0,9.49419E-1,6.5587463E0,2.8938255E1,4.1445065E0,0E0,0E0,0E0,7.980757E-1,0E0,0E0,0E0,2.035719E0,2.0907469E0,4.8242526E0,0E0,3.274154E1,0E0,0E0,4.691162E-1,4.2762775E0,2.7529812E-1,1.3759263E0,0E0,2.0723848E0,0E0,0E0,1.0909882E0,0E0,4.7888268E1,4.7473526E-1,0E0,0E0,1.181642E0,4.258089E0,1.1019287E0,1.2675519E0,0E0,1.8066897E0,0E0,8.246222E1,1.5328598E0,2.3306828E0,4.1706085E-1,0E0,4.373855E-1,0E0,0E0,0E0,0E0,0E0,0E0,4.027959E0,1.538475E0,2.6011066E0,2.178183E1,0E0,0E0,0E0,0E0,1.5001807E0,2.992161E0,0E0,1.2118891E0,9.004625E-1,0E0,1.5492938E0,0E0,4.0048286E1,0E0,7.0027244E-1,1.1443138E0,0E0,0E0,6.9745064E-1,4.1085815E-1,0E0,0E0,0E0,0E0,0E0,3.664627E-1,0E0,3.9117603E0,0E0,6.762357E1,4.5263672E-1,3.6756724E-1,0E0,0E0,0E0,2.9450345E-1,1.0399748E0,2.145759E0,0E0,2.0362394E0,8.303261E1,1.2559204E0,0E0,0E0,2.2353745E0,0E0,0E0,6.255994E-1,0E0,7.0228577E-1,0E0,5.900173E-1,1.7737751E0,6.4577427E0,5.5983734E-1,2.3315193E1,0E0,0E0,0E0,0E0,0E0,0E0,0E0,0E0,0E0,0E0,0E0,0E0,0E0,0E0,0E0,0E0,0E0,0E0,0E0,0E0,0E0,0E0,0E0,0E0,0E0,0E0,0E0,0E0,0E0,0E0,0E0,0E0],"parents":[2147483647,0,0,1,1,2,2,3,3,4,4,6,6,7,7,8,8,9,9,11,11,12,12,13,13,14,14,15,15,16,16,17,17,19,19,20,20,22,22,23,23,24,24,26,26,27,27,29,29,30,30,31,31,32,32,33,33,35,35,36,36,37,37,38,38,39,39,43,43,47,47,48,48,49,49,51,51,54,54,55,55,56,56,57,57,59,59,62,62,64,64,65,65,68,68,69,69,70,70,71,71,73,73,75,75,76,76,77,77,78,78,80,80,87,87,88,88,89,89,90,90,95,95,96,96,98,98,99,99,101,101,103,103,105,105,106,106,109,109,110,110,116,116,118,118,120,120,121,121,122,122,126,126,127,127,128,128,130,130,131,131,132,132,135,135,138,138,140,140,142,142,143,143,144,144,145,145,146,146],"right_children":[2,4,6,8,10,-1,12,14,16,18,-1,20,22,24,26,28,30,32,-1,34,36,-1,38,40,42,-1,44,46,-1,48,50,52,54,56,-1,58,60,62,64,66,-1,-1,-1,68,-1,-1,-1,70,72,74,-1,76,-1,-1,78,80,82,84,-1,86,-1,-1,88,-1,90,92,-1,-1,94,96,98,100,-1,102,-1,104,106,108,110,-1,112,-1,-1,-1,-1,-1,-1,114,116,118,120,-1,-1,-1,-1,122,124,-1,126,128,-1,130,-1,132,-1,134,136,-1,-1,138,140,-1,-1,-1,-1,-1,142,-1,144,-1,146,148,150,-1,-1,-1,152,154,156,-1,158,160,162,-1,-1,164,-1,-1,166,-1,168,-1,170,172,174,176,178,-1,-1,-1,-1,-1,-1,-1,-1,-1,-1,-1,-1,-1,-1,-1,-1,-1,-1,-1,-1,-1,-1,-1,-1,-1,-1,-1,-1,-1,-1,-1,-1],"split_conditions":[6.41E1,8.3E1,6.5E1,2.3E1,6.4E1,1.4469181E-1,6.52E1,9.51E1,9.31E1,6.32E1,-1.7484683E-1,9.61E1,6.6E1,6.19E1,3.8E1,7.87E1,5.2E1,6.3E1,1.4910121E-1,1.371E2,1.17E2,1.462969E-1,6.61E1,5.52E1,7.59E1,5.639815E-2,9.71E1,4.41E1,1.0200524E-1,9.94E1,5.71E1,6.22E1,9.19E1,1.226E2,6.455876E-2,1.112E2,1.3E2,9.91E1,6.7E1,6.74E1,1.4128166E-1,-6.818909E-2,6.545787E-2,5.67E1,1.3970163E-1,-1.0692693E-2,-1.4560704E-1,7.68E1,3.9E1,9.81E1,1.4543478E-1,6.2E1,1.475335E-1,1.201106E-3,9.85E1,1.012E2,9.41E1,1.01E2,3.9262306E-3,1.274E2,-2.0761192E-1,5.5520456E-2,1.092E2,1.4547478E-1,6.72E1,9.41E1,-1.0126064E-1,1.3888496E-1,7.59E1,3.09E1,4.9E1,8.13E1,-7.9775654E-2,5.58E1,7.019863E-2,6.11E1,9.41E1,9.43E1,9.55E1,-1.5462558E-1,1.1E2,-8.8898964E-2,-1.5962756E-1,-1.5136463E-2,-1.3372742E-1,-1.7459191E-1,-3.0368183E-2,1.024E2,9.32E1,9.27E1,6.8E1,1.387037E-1,5.1821318E-2,-1.3305238E-3,1.318387E-1,4.8E1,9.61E1,1.4226738E-1,4.95E1,7.59E1,1.4295538E-1,2.44E1,-2.0231462E-1,6.1E1,1.495338E-1,1.062E2,1.237E2,-2.0300165E-1,-6.1124064E-2,9.31E1,1.132E2,8.5648045E-2,5.7858373E-3,-1.8235761E-1,3.317225E-2,-6.650764E-2,1.242E2,2.3253283E-2,1.341E2,1.5075447E-1,6.81E1,7.45E1,2.44E1,8.148761E-2,-1.013242E-1,-1.183689E-2,5.09E1,2.87E1,4.71E1,-1.5376672E-1,2.69E1,6.01E1,1.284E2,-1.2929772E-1,-3.2401606E-2,4.31E1,-1.8318577E-1,-1.9033153E-1,9.44E1,-2.025683E-1,1.318E2,-2.0462976E-1,1.274E2,9.71E1,1.447E2,1.417E2,6.9E1,1.5078716E-1,6.9947295E-2,-4.551709E-3,7.2492E-2,1.424372E-1,6.413126E-2,1.8410338E-2,1.4071737E-1,-5.8486987E-2,9.0282366E-2,7.460295E-2,-9.578114E-2,-3.8598962E-2,1.4935054E-1,-1.3971543E-1,-1.9230722E-1,-1.691083E-1,-9.064164E-2,-5.8526475E-2,-1.3725567E-1,-1.4062642E-1,-1.9992088E-1,-1.03719965E-1,-1.7469381E-1,-1.7750332E-1,-1.0610904E-1,1.05362825E-1,-1.2730801E-1,-1.5116495E-1,-2.1854232E-1,1.5045108E-1,4.3392885E-2],"split_indices":[3,4,3,6,3,0,3,5,5,3,0,5,3,3,3,4,3,3,0,4,4,0,3,3,4,0,5,3,0,5,3,3,4,4,0,4,4,4,3,4,0,0,0,3,0,0,0,4,6,5,0,3,0,0,4,4,5,4,0,4,0,0,4,0,3,5,0,0,4,6,3,4,0,3,0,3,5,4,5,0,4,0,0,0,0,0,0,4,5,5,3,0,0,0,0,3,5,0,3,4,0,6,0,3,0,4,4,0,0,5,4,0,0,0,0,0,4,0,4,0,3,4,6,0,0,0,3,6,3,0,6,3,4,0,0,6,0,0,5,0,4,0,4,5,4,4,3,0,0,0,0,0,0,0,0,0,0,0,0,0,0,0,0,0,0,0,0,0,0,0,0,0,0,0,0,0,0,0,0],"split_type":[0,0,0,0,0,0,0,0,0,0,0,0,0,0,0,0,0,0,0,0,0,0,0,0,0,0,0,0,0,0,0,0,0,0,0,0,0,0,0,0,0,0,0,0,0,0,0,0,0,0,0,0,0,0,0,0,0,0,0,0,0,0,0,0,0,0,0,0,0,0,0,0,0,0,0,0,0,0,0,0,0,0,0,0,0,0,0,0,0,0,0,0,0,0,0,0,0,0,0,0,0,0,0,0,0,0,0,0,0,0,0,0,0,0,0,0,0,0,0,0,0,0,0,0,0,0,0,0,0,0,0,0,0,0,0,0,0,0,0,0,0,0,0,0,0,0,0,0,0,0,0,0,0,0,0,0,0,0,0,0,0,0,0,0,0,0,0,0,0,0,0,0,0,0,0,0,0,0,0],"sum_hessian":[1.4349532E3,8.7583484E2,5.5911835E2,7.590126E1,7.999336E2,2.5611559E1,5.335068E2,3.0048222E1,4.585304E1,7.766168E2,2.3316765E1,2.4607122E1,5.088997E2,1.0096892E1,1.9951328E1,5.4499235E0,4.0403114E1,7.542319E2,2.2384945E1,9.907486E0,1.4699637E1,2.244899E1,4.8645068E2,7.7433496E0,2.3535428E0,1.1024474E0,1.884888E1,3.5970006E0,1.8529229E0,3.1627531E1,8.775584E0,7.227001E2,3.1531815E1,7.6306825E0,2.2768035E0,5.799003E0,8.900634E0,1.8694778E1,4.6775592E2,4.530908E0,3.2124417E0,1.1973985E0,1.1561444E0,7.7319818E0,1.11168995E1,1.1616168E0,2.4353838E0,2.2584555E1,9.042977E0,7.3951616E0,1.3804224E0,7.039695E2,1.873054E1,1.1798583E0,3.0351955E1,4.1896105E0,3.441072E0,4.0912895E0,1.7077136E0,4.9270515E0,3.9735823E0,1.6795901E0,1.7015188E1,2.6773897E1,4.40982E2,3.4078038E0,1.1231041E0,5.169986E0,2.561996E0,1.0915488E1,1.1669066E1,7.858171E0,1.1848058E0,5.0752654E0,2.3198962E0,6.771284E2,2.6841064E1,4.885541E0,2.5466415E1,1.4319768E0,2.7576334E0,1.4700949E0,1.9709771E0,1.6279138E0,2.4633756E0,3.4792745E0,1.4477773E0,3.4250612E0,1.3590127E1,2.1534407E1,4.194476E2,2.326421E0,1.0813828E0,1.3084096E0,1.2535864E0,7.3690004E0,3.5464883E0,8.013854E0,3.655212E0,6.499598E0,1.3585728E0,3.834331E0,1.2409343E0,6.524873E2,2.464114E1,3.1465006E0,2.3694563E1,1.9835945E0,2.9019465E0,7.3645926E0,1.8101822E1,1.5657449E0,1.1918887E0,1.9874872E0,1.4375741E0,1.6664233E0,1.1923704E1,1.4100387E0,2.0124369E1,1.8876345E1,4.0057126E2,5.0113044E0,2.3576956E0,1.3919556E0,2.1545327E0,1.1526442E0,2.5025678E0,2.751608E0,3.7479904E0,1.1979082E0,2.6364229E0,6.2487897E2,2.760834E1,1.2277828E0,1.9187177E0,1.550828E1,8.186284E0,1.9937601E0,5.3708324E0,5.226901E0,1.2874922E1,4.232656E0,7.6910477E0,1.5325241E1,4.799128E0,1.58345585E1,3.847367E2,3.8409336E0,1.1703709E0,1.1803508E0,1.1773448E0,1.3552912E0,1.1472765E0,1.4084979E0,1.34311E0,2.1354454E0,1.6125449E0,1.1829803E0,1.4534427E0,6.005133E2,2.4365686E1,2.0381237E1,7.227104E0,8.181239E0,7.3270407E0,1.6909593E0,3.679873E0,9.131789E0,3.743132E0,2.2397082E0,5.4513397E0,7.1388206E0,8.1864195E0,1.8773277E0,2.9218004E0,1.3868893E1,1.9656656E0,2.1472511E1,3.632642E2],"tree_param":{"num_deleted":"0","num_feature":"7","num_nodes":"179","size_leaf_vector":"1"}},{"base_weights":[1.754599E-2,1.4157257E0,-2.9558712E-1,1.7875977E-1,1.4826889E0,-8.000289E-1,1.1979754E0,1.4181052E0,-1.5214298E0,9.4962764E-1,1.4956979E0,-9.268871E-1,1.5638795E-1,1.4691507E0,7.8699124E-1,7.4188545E-2,1.5440835E-1,-2.1444952E-1,-8.9656246E-1,1.5226385E-1,-8.5003525E-3,1.5597135E0,1.4280747E-1,-1.031871E0,-3.100488E-1,1.3364829E0,-6.1820686E-1,1.5009638E0,6.129718E-1,-3.035475E-1,1.1660458E0,1.6100774E-2,-1.6215324E-1,1.4476365E0,1.5882744E-1,-1.184769E0,-3.3181664E-1,1.3651506E0,-1.0305206E0,-3.1845268E-2,1.3832414E-1,-8.950491E-1,5.1606756E-1,1.5765175E-1,1.432194E0,-2.0431767E-1,1.4346442E-1,7.734451E-1,-9.301285E-1,1.3204532E0,-6.6122E-1,1.4842151E-1,5.806398E-2,1.5507884E-1,-1.245812E0,9.5644337E-1,-1.1374413E0,1.505621E-1,1.8368758E-1,7.890823E-1,-1.275773E0,1.3658561E-1,-9.9771E-1,9.5180285E-1,-2.8116262E-1,1.1531415E0,1.4442484E-1,1.0565724E0,-1.5229146E-1,-1.278808E0,-2.5739458E-1,1.3884836E0,3.329544E-2,-1.5496055E0,1.4382842E-1,-1.2146113E0,1.3155229E0,4.8642103E-2,-1.3015643E0,-1.0291209E-1,1.4166827E0,1.331506E-1,-1.2240368E0,-1.21819E-1,1.3894412E-1,1.3295906E0,-9.412148E-2,-1.0604005E0,-1.9680659E0,-1.7855911E0,-7.272416E-1,1.1531187E0,-2.480995E-2,-1.0998634E-1,5.293705E-1,1.3639961E-1,4.816098E-2,1.4345342E-1,6.2574345E-1,-1.4808314E0,2.7734146E-2,-1.7759122E-1,1.8496881E-1,1.4388418E-1,8.5083026E-1,-2.0510316E-1,1.4330883E-1,-6.6330925E-2,-2.0456424E-1,-1.9232731E0,-4.665743E-1,2.2584504E-2,1.4625312E0,-9.3747175E-1,1.3240231E0,-1.431313E0,-1.0293251E0,1.0596461E0,-8.68707E-1,1.4430596E-1,7.7194005E-2,-1.3940293E0,-6.5921247E-1,6.3498855E-2,1.5718445E-1,-1.1461201E0,1.520073E-1,-2.0609689E0,-1.3137165E-1,-1.3790926E0,-2.3984694E-1,1.497269E-1,-9.1797173E-1,6.9646084E-1,1.425121E-1,1.3223098E-1,-2.8273407E-2,-9.908839E-2,1.1442591E0,-2.3800638E-1,-1.2090529E0,1.393948E-1,-3.445449E-1,-1.01144694E-1,1.4221106E-1,-2.0516513E-1,-1.3517365E-1,2.1763478E-1,-1.5664305E-1,1.04204334E-1,1.545737E-1,-1.2408955E0,1.4056686E-1,1.4187421E-1,5.6934576E-2,-1.5580627E0,-3.3598214E-1,9.821265E-1,-1.281846E0,-2.5636826E-2,1.3879992E-1,-1.4586744E-1,-2.5723645E-1,-1.2676356E0,-2.2615492E-1,1.441223E-1,-1.1963955E0,-7.0515203E-1,-1.4976337E0,-1.4486705E0,-2.1938548E0,-2.0838063E0,1.3593695E-1,-1.2132844E0,2.2632852E-2,-2.1075169E-2,1.3547124E-1,1.3899343E-1,4.9773507E-2,-7.1889436E-1,-2.2369719E-1,-1.3161121E-1,4.802936E-2,1.5612297E-1,-8.111682E-2,-5.8791157E-2,-1.8645278E-1,-1.1676051E-1,-1.6318272E-1,1.72282E-1,-1.08222745E-1,-4.9064983E-2,1.6100512E-1,1.7224959E-1,-1.3681076E-1,-9.9585734E-2,5.4553457E-2,-1.4009255E-1,1.5314999E-1,3.5494532E-2,-1.419781E-1,-9.471787E-2,1.384623E-1,-1.571649E-1,-4.114392E-2,-6.590652E-2,-2.0094879E-1,-2.3210001E-1,-1.8496482E-1,-2.2405398E-1,-1.6779208E-1,-1.6563347E-2,-1.4789714E-1,-8.6185835E-2,6.129057E-2,8.604569E-2,-1.2817942E-1],"categories":[],"categories_nodes":[],"categories_segments":[],"categories_sizes":[],"default_left":[0,0,0,0,0,0,0,0,0,0,0,0,0,0,0,0,0,0,0,0,0,0,0,0,0,0,0,0,0,0,0,0,0,0,0,0,0,0,0,0,0,0,0,0,0,0,0,0,0,0,0,0,0,0,0,0,0,0,0,0,0,0,0,0,0,0,0,0,0,0,0,0,0,0,0,0,0,0,0,0,0,0,0,0,0,0,0,0,0,0,0,0,0,0,0,0,0,0,0,0,0,0,0,0,0,0,0,0,0,0,0,0,0,0,0,0,0,0,0,0,0,0,0,0,0,0,0,0,0,0,0,0,0,0,0,0,0,0,0,0,0,0,0,0,0,0,0,0,0,0,0,0,0,0,0,0,0,0,0,0,0,0,0,0,0,0,0,0,0,0,0,0,0,0,0,0,0,0,0,0,0,0,0,0,0,0,0,0,0,0,0,0,0,0,0,0,0,0,0,0,0,0,0,0,0,0,0,0,0,0,0,0,0,0,0,0,0],"id":4,"left_children":[1,3,5,7,9,11,13,15,17,19,21,23,25,27,29,-1,-1,-1,31,-1,-1,33,-1,35,37,39,41,43,45,47,49,-1,-1,51,-1,53,55,57,59,-1,-1,61,63,-1,65,-1,-1,67,69,71,73,-1,-1,75,77,79,81,-1,83,85,87,-1,89,91,93,95,-1,97,-1,99,101,103,105,107,-1,109,111,113,115,117,119,-1,121,-1,-1,123,-1,125,127,129,131,133,-1,-1,135,-1,-1,-1,137,139,-1,-1,141,-1,143,-1,-1,-1,-1,145,147,-1,149,151,153,155,157,159,161,-1,-1,163,165,-1,-1,167,-1,169,-1,171,-1,-1,173,175,-1,-1,-1,-1,177,-1,179,-1,181,-1,-1,-1,-1,183,-1,-1,-1,185,-1,-1,-1,187,189,191,193,-1,-1,-1,195,197,-1,-1,199,201,203,205,207,209,-1,211,213,-1,-1,-1,-1,215,-1,-1,-1,-1,-1,-1,-1,-1,-1,-1,-1,-1,-1,-1,-1,-1,-1,-1,-1,-1,-1,-1,-1,-1,-1,-1,-1,-1,-1,-1,-1,-1,-1,-1,-1,-1,-1],"loss_changes":[6.2376965E2,2.1567139E1,8.771008E2,2.8665333E1,1.572815E0,1.0559656E2,3.2642303E1,5.5511093E-1,2.042778E0,3.6679668E0,8.215332E-1,4.972284E1,9.331362E1,4.728241E0,4.8424553E1,0E0,0E0,0E0,2.3554008E0,0E0,0E0,1.6326904E-1,0E0,7.023346E1,1.3518373E2,3.1740723E0,1.9403296E1,6.604004E-1,1.4499144E1,2.0500587E1,2.4601768E1,0E0,0E0,7.407417E-1,0E0,4.408716E1,1.22395546E2,5.5639687E0,3.5041588E1,0E0,0E0,1.1645683E1,4.249922E0,0E0,1.3748169E-1,0E0,0E0,7.435557E0,4.466955E0,7.013794E0,1.2974353E1,0E0,0E0,3.761826E1,3.7197388E1,2.2143929E1,1.5671654E1,0E0,6.413474E0,8.88036E0,1.0084541E1,0E0,9.990276E0,1.9329553E0,2.960461E0,5.34482E-1,0E0,1.5418434E0,0E0,4.005295E0,4.515954E0,1.9386444E0,1.2331997E1,1.9974422E0,0E0,5.667717E0,2.018385E0,2.7007378E1,1.7304321E1,1.24135E1,4.2682266E-1,0E0,6.6419296E0,0E0,0E0,1.1074686E0,0E0,1.1869221E1,7.179527E-1,2.675743E0,1.5209133E1,7.414875E-1,0E0,0E0,1.4961E0,0E0,0E0,0E0,4.1871257E0,2.443699E0,0E0,0E0,3.414608E0,0E0,7.340014E0,0E0,0E0,0E0,0E0,1.295414E-1,4.109593E0,0E0,2.3307228E-1,8.786571E0,5.884495E-1,4.6364502E1,8.130522E1,2.4300423E0,2.9922996E0,0E0,0E0,5.6144333E0,1.8692802E1,0E0,0E0,7.835129E0,0E0,8.2668686E-1,0E0,1.4739306E1,0E0,0E0,9.108028E0,1.6542038E0,0E0,0E0,0E0,0E0,5.226445E-1,0E0,4.2658815E0,0E0,3.0582309E0,0E0,0E0,0E0,0E0,4.863119E0,0E0,0E0,0E0,4.2792816E0,0E0,0E0,0E0,8.439575E0,5.3657856E1,1.6617125E1,3.7046463E1,0E0,0E0,0E0,2.5717368E0,1.7825409E1,0E0,0E0,4.5991135E0,1.1719576E1,2.2198868E0,1.108696E0,6.800461E-2,5.5713654E-3,0E0,6.920002E0,4.193323E0,0E0,0E0,0E0,0E0,5.5301166E0,0E0,0E0,0E0,0E0,0E0,0E0,0E0,0E0,0E0,0E0,0E0,0E0,0E0,0E0,0E0,0E0,0E0,0E0,0E0,0E0,0E0,0E0,0E0,0E0,0E0,0E0,0E0,0E0,0E0,0E0,0E0,0E0,0E0,0E0,0E0,0E0,0E0],"parents":[2147483647,0,0,1,1,2,2,3,3,4,4,5,5,6,6,7,7,8,8,9,9,10,10,11,11,12,12,13,13,14,14,18,18,21,21,23,23,24,24,25,25,26,26,27,27,28,28,29,29,30,30,33,33,35,35,36,36,37,37,38,38,41,41,42,42,44,44,47,47,48,48,49,49,50,50,53,53,54,54,55,55,56,56,58,58,59,59,60,60,62,62,63,63,64,64,65,65,67,67,69,69,70,70,71,71,72,72,73,73,75,75,76,76,77,77,78,78,79,79,80,80,82,82,85,85,87,87,88,88,89,89,90,90,91,91,94,94,98,98,99,99,102,102,104,104,109,109,110,110,112,112,113,113,114,114,115,115,116,116,117,117,118,118,121,121,122,122,125,125,127,127,129,129,132,132,133,133,138,138,140,140,142,142,147,147,151,151,155,155,156,156,157,157,158,158,162,162,163,163,166,166,167,167,168,168,169,169,170,170,171,171,173,173,174,174,179,179],"right_children":[2,4,6,8,10,12,14,16,18,20,22,24,26,28,30,-1,-1,-1,32,-1,-1,34,-1,36,38,40,42,44,46,48,50,-1,-1,52,-1,54,56,58,60,-1,-1,62,64,-1,66,-1,-1,68,70,72,74,-1,-1,76,78,80,82,-1,84,86,88,-1,90,92,94,96,-1,98,-1,100,102,104,106,108,-1,110,112,114,116,118,120,-1,122,-1,-1,124,-1,126,128,130,132,134,-1,-1,136,-1,-1,-1,138,140,-1,-1,142,-1,144,-1,-1,-1,-1,146,148,-1,150,152,154,156,158,160,162,-1,-1,164,166,-1,-1,168,-1,170,-1,172,-1,-1,174,176,-1,-1,-1,-1,178,-1,180,-1,182,-1,-1,-1,-1,184,-1,-1,-1,186,-1,-1,-1,188,190,192,194,-1,-1,-1,196,198,-1,-1,200,202,204,206,208,210,-1,212,214,-1,-1,-1,-1,216,-1,-1,-1,-1,-1,-1,-1,-1,-1,-1,-1,-1,-1,-1,-1,-1,-1,-1,-1,-1,-1,-1,-1,-1,-1,-1,-1,-1,-1,-1,-1,-1,-1,-1,-1,-1,-1],"split_conditions":[5.5E1,3.91E1,9.83E1,3.91E1,4.19E1,7.21E1,7.1E1,6.49E1,5.01E1,5.01E1,6.01E1,8.73E1,8.3E1,1.536E2,1.078E2,7.4188545E-2,1.5440835E-1,-2.1444952E-1,5.2E1,1.5226385E-1,-8.5003525E-3,8.71E1,1.4280747E-1,6.41E1,1.19E2,9.19E1,1.395E2,6.01E1,1.054E2,1.326E2,8.96E1,1.6100774E-2,-1.6215324E-1,5.3E1,1.5882744E-1,5.8E1,7.8E1,7E1,6E1,-3.1845268E-2,1.3832414E-1,7.3E1,9.47E1,1.5765175E-1,1.003E2,-2.0431767E-1,1.4346442E-1,8.5E1,1.038E2,1.689E2,1.37E2,1.4842151E-1,5.806398E-2,4.71E1,8.2E1,1.032E2,6.5E1,1.505621E-1,8.95E1,1.4E2,7E1,1.3658561E-1,7.41E1,8.04E1,7.52E1,1.268E2,1.4442484E-1,1.215E2,-1.5229146E-1,1.655E2,5.74E1,8.62E1,1.219E2,9.37E1,1.4382842E-1,5.62E1,2.44E1,6.88E1,5.82E1,7.3E1,7.7E1,1.331506E-1,6.91E1,-1.21819E-1,1.3894412E-1,8.95E1,-9.412148E-2,6.91E1,9.64E1,7.4E1,7.5E1,6.72E1,-2.480995E-2,-1.0998634E-1,9.7E1,1.3639961E-1,4.816098E-2,1.4345342E-1,4.82E1,9.97E1,2.7734146E-2,-1.7759122E-1,1.42E2,1.4388418E-1,8.71E1,-2.0510316E-1,1.4330883E-1,-6.6330925E-2,-2.0456424E-1,4.57E1,8.8E1,2.2584504E-2,5.59E1,3.05E1,6.03E1,7.83E1,7E1,6.54E1,6.61E1,1.4430596E-1,7.7194005E-2,6.9E1,7E1,6.3498855E-2,1.5718445E-1,1.34E2,1.520073E-1,8.95E1,-1.3137165E-1,7.32E1,-2.3984694E-1,1.497269E-1,8.22E1,7.95E1,1.425121E-1,1.3223098E-1,-2.8273407E-2,-9.908839E-2,5.6E1,-2.3800638E-1,1.55E2,1.393948E-1,7.64E1,-1.01144694E-1,1.4221106E-1,-2.0516513E-1,-1.3517365E-1,4.47E1,-1.5664305E-1,1.04204334E-1,1.545737E-1,5.3E1,1.4056686E-1,1.4187421E-1,5.6934576E-2,6.4E1,1.089E2,9.34E1,5.9E1,-2.5636826E-2,1.3879992E-1,-1.4586744E-1,7.58E1,6.81E1,-2.2615492E-1,1.441223E-1,7.97E1,9.47E1,9.71E1,7.08E1,7.11E1,9.47E1,1.3593695E-1,8.8E1,2.22E1,-2.1075169E-2,1.3547124E-1,1.3899343E-1,4.9773507E-2,7.35E1,-2.2369719E-1,-1.3161121E-1,4.802936E-2,1.5612297E-1,-8.111682E-2,-5.8791157E-2,-1.8645278E-1,-1.1676051E-1,-1.6318272E-1,1.72282E-1,-1.08222745E-1,-4.9064983E-2,1.6100512E-1,1.7224959E-1,-1.3681076E-1,-9.9585734E-2,5.4553457E-2,-1.4009255E-1,1.5314999E-1,3.5494532E-2,-1.419781E-1,-9.471787E-2,1.384623E-1,-1.571649E-1,-4.114392E-2,-6.590652E-2,-2.0094879E-1,-2.3210001E-1,-1.8496482E-1,-2.2405398E-1,-1.6779208E-1,-1.6563347E-2,-1.4789714E-1,-8.6185835E-2,6.129057E-2,8.604569E-2,-1.2817942E-1],"split_indices":[2,3,2,2,3,3,3,4,2,2,3,2,2,4,2,0,0,0,2,0,0,4,0,3,4,4,4,3,2,4,3,0,0,2,0,2,2,3,3,0,0,3,2,0,2,0,0,3,2,4,2,0,0,3,4,4,3,0,2,4,3,0,3,6,3,4,0,4,0,4,6,3,2,3,0,2,6,2,3,2,2,0,3,0,0,2,0,3,2,3,3,6,0,0,2,0,0,0,6,2,0,0,4,0,3,0,0,0,0,3,4,0,2,6,3,2,2,3,3,0,0,3,3,0,0,4,0,2,0,3,0,0,3,3,0,0,0,0,6,0,4,0,3,0,0,0,0,3,0,0,0,3,0,0,0,2,4,4,3,0,0,0,2,3,0,0,2,2,2,3,3,2,0,2,6,0,0,0,0,3,0,0,0,0,0,0,0,0,0,0,0,0,0,0,0,0,0,0,0,0,0,0,0,0,0,0,0,0,0,0,0,0,0,0,0,0,0],"split_type":[0,0,0,0,0,0,0,0,0,0,0,0,0,0,0,0,0,0,0,0,0,0,0,0,0,0,0,0,0,0,0,0,0,0,0,0,0,0,0,0,0,0,0,0,0,0,0,0,0,0,0,0,0,0,0,0,0,0,0,0,0,0,0,0,0,0,0,0,0,0,0,0,0,0,0,0,0,0,0,0,0,0,0,0,0,0,0,0,0,0,0,0,0,0,0,0,0,0,0,0,0,0,0,0,0,0,0,0,0,0,0,0,0,0,0,0,0,0,0,0,0,0,0,0,0,0,0,0,0,0,0,0,0,0,0,0,0,0,0,0,0,0,0,0,0,0,0,0,0,0,0,0,0,0,0,0,0,0,0,0,0,0,0,0,0,0,0,0,0,0,0,0,0,0,0,0,0,0,0,0,0,0,0,0,0,0,0,0,0,0,0,0,0,0,0,0,0,0,0,0,0,0,0,0,0,0,0,0,0,0,0,0,0,0,0,0,0],"sum_hessian":[1.4245334E3,2.6059427E2,1.1639392E3,1.3401628E1,2.4719264E2,8.701109E2,2.9382828E2,7.7609262E0,5.640701E0,6.065124E0,2.4112752E2,7.6821826E2,1.0189264E2,1.7686916E2,1.1695913E2,1.3269722E0,6.4339542E0,2.702651E0,2.9380498E0,3.87298E0,2.192144E0,1.2273428E2,1.18393234E2,6.564289E2,1.1178935E2,4.0348766E1,6.1543873E1,1.7046005E2,6.409107E0,3.0172592E1,8.678654E1,1.226561E0,1.7114887E0,2.5974586E1,9.67597E1,5.3870233E2,1.1772655E2,3.359251E1,7.8196846E1,1.0927227E0,3.9256042E1,4.948674E1,1.2057133E1,8.017912E1,9.028093E1,1.4790975E0,4.93001E0,1.1088976E1,1.9083616E1,8.0049904E1,6.736632E0,2.485477E1,1.1198157E0,2.3466959E1,5.1523535E2,4.5288227E1,7.243832E1,2.9998407E1,3.594104E0,9.261467E0,6.893538E1,2.0959997E0,4.7390743E1,7.783553E0,4.273579E0,4.138649E0,8.614228E1,9.919902E0,1.1690748E0,1.2509714E1,6.5739026E0,7.6023926E1,4.0259795E0,4.752042E0,1.9845902E0,1.0760962E1,1.2705997E1,2.1275429E1,4.9395996E2,1.373995E1,3.1548279E1,2.405886E0,7.003243E1,1.661416E0,1.932688E0,7.0746527E0,2.1868138E0,5.2771355E1,1.6164022E1,1.1967866E1,3.5422874E1,6.668613E0,1.1149402E0,2.1083188E0,2.1652603E0,3.0712037E0,1.0674454E0,5.1600623E0,4.759839E0,1.1076565E1,1.4331486E0,1.4150267E0,5.158876E0,6.9359856E1,6.6640706E0,1.5988008E0,2.4271786E0,1.7890929E0,2.962949E0,5.4452395E0,5.3157225E0,1.540546E0,1.1165452E1,1.2013323E1,9.262105E0,3.3423727E2,1.5972269E2,5.4412227E0,8.298727E0,3.0189388E1,1.3588909E0,5.3718296E1,1.6314137E1,1.9230134E0,5.1516395E0,5.1128525E1,1.6428306E0,1.3966171E1,2.197851E0,7.390832E0,4.5770345E0,2.7432282E0,3.267965E1,2.6222432E0,4.04637E0,1.0637698E0,1.1014906E0,1.1337949E0,3.6260443E0,2.390706E0,8.685859E0,1.5215777E0,3.6372983E0,1.5463105E0,5.11776E0,4.235005E0,1.2102344E0,3.326533E0,1.9891893E0,2.0678325E0,9.097619E0,1.0677666E1,1.3356575E0,8.151077E0,1.1110278E0,2.9953357E2,3.4703697E1,1.778306E1,1.4193964E2,1.0909E0,4.3503227E0,4.153113E0,4.145614E0,4.710189E1,6.616403E0,3.2882972E0,1.302584E1,2.2811935E1,2.831659E1,2.7027688E0,1.1263403E1,5.897166E0,1.4936659E0,2.4849041E1,7.830606E0,1.1311953E0,1.491048E0,2.5442564E0,1.0817878E0,5.9964266E0,2.6894326E0,1.642756E0,1.9945424E0,1.4201262E0,1.9064069E0,5.310986E0,5.3666797E0,4.786308E1,2.5167049E2,9.197639E0,2.5506058E1,5.322106E0,1.2460955E1,3.9087198E0,1.3803091E2,2.1465473E0,1.9990671E0,4.5008614E1,2.0932794E0,1.6321545E0,1.1393685E1,2.0493196E1,2.3187375E0,2.6468298E1,1.8482924E0,1.2127666E0,1.4900022E0,7.8057537E0,3.4576488E0,3.9282503E0,1.9689156E0,5.0597796E0,1.9789263E1,3.1157765E0,4.7148294E0,1.5617365E0,4.43469E0],"tree_param":{"num_deleted":"0","num_feature":"7","num_nodes":"217","size_leaf_vector":"1"}},{"base_weights":[1.5155678E-2,-1.9347604E-1,3.5918206E-1,4.581714E-1,-2.8873935E-1,1.3378642E-1,3.1843147E-1,1.0579994E0,2.576533E-1,-2.518996E-1,-1.4120501E0,-8.5771894E-1,3.7795782E-1,1.1589879E0,1.0822071E-1,-4.5412755E-1,3.6308295E-1,-2.9570037E-1,1.4024529E-1,-1.1202391E0,-1.545198E0,-3.7408385E-1,-1.1578445E0,1.3597636E-1,3.3972257E-1,3.9380204E-2,1.214985E0,-4.9054857E-2,7.26567E-2,-2.260875E-1,-1.5656395E-1,3.0667916E-1,1.4984034E-1,-2.5745234E-1,-1.1585293E0,-1.5606093E0,-5.1593155E-1,-1.597567E0,-8.278807E-2,-7.811399E-1,7.900511E-2,-4.5854884E-1,-1.6283761E0,-1.1045067E0,4.047369E-1,6.8236046E-2,1.2496698E0,-7.861133E-1,9.8216224E-1,8.284578E-1,1.8004125E-1,-2.9853475E-1,1.4026113E-1,-1.0667304E0,-1.5779579E0,-1.1520356E-1,-1.7196102E-1,-9.0833016E-2,2.1170491E-2,-1.3981832E0,-1.7468388E-1,-2.5790209E-2,-1.0147194E0,3.902609E-1,-5.4036826E-2,-1.0078173E0,5.4003295E-2,-1.3793756E0,-1.8357776E-1,-2.8049792E-4,-1.2364744E0,1.352657E-1,3.533471E-1,1.3166128E-1,1.1373901E0,1.0013441E-2,-1.1610144E0,1.4737947E-1,2.900118E-2,-5.3994384E-2,9.674351E-1,4.4161582E-1,-1.9778016E-1,-2.5597247E-1,-1.2719247E0,-1.1191579E0,-1.9104645E-2,-1.02455795E-1,-1.7186382E-1,-1.6724013E-1,-1.2355665E0,-1.4088173E-1,-5.5459596E-2,1.02933E-2,7.932641E-2,-7.1475506E-2,-1.15115784E-1,-1.6958378E-1,-9.954757E-2,-8.1842613E-1,-1.3189186E0,-8.005745E-1,4.1129392E-1,4.56386E-2,1.3292223E-1,-1.9447057E-1,-6.9298506E-1,7.45005E-1,1.4026848E0,3.045448E-1,1.4425008E-1,1.5838325E-1,-9.018353E-1,-3.1881806E-1,1.4121409E-1,-1.5635735E0,-1.1183269E0,-1.0581086E0,-1.7085212E-1,-7.932068E-2,-1.457089E-1,-3.954855E-2,-1.2360387E-1,-8.5706806E-1,-1.4464282E0,1.5534589E-2,-9.010809E-1,1.39995E-1,3.6156207E-1,-1.375797E-1,-1.4388402E-2,9.5364875E-1,-2.5977433E-2,9.052887E-2,1.5778331E-1,1.4359449E-1,2.2738309E-1,-7.197057E-1,6.177475E-1,2.649909E-1,-1.3744451E0,-2.7612692E-1,-1.2280815E0,-1.071057E0,-1.7221837E-1,-3.977102E-1,-1.259406E0,-1.4903401E-1,-1.008397E0,-1.3852064E-1,1.4844713E-2,-1.7422912E-1,-1.251447E0,-1.1979637E0,-5.3185385E-1,-1.4529008E0,4.3967614E-1,1.4199257E-1,6.794394E-2,7.7905506E-3,7.374217E-2,-1.2768775E-1,1.3355486E-1,1.1357128E-1,2.9088792E-3,-5.88404E-3,5.9057098E-2,-7.663739E-2,-1.912667E-1,-3.365862E-2,1.3969429E-1,-1.0154822E-1,-1.480686E-1,-1.669319E-1,-3.8554322E-2,-9.592333E-2,2.9502777E-2,-1.08667195E-1,-1.6944234E-1,-7.592936E-2,-1.1864366E-1,-7.378947E-2,-1.4285457E-1,-1.0205815E-1,-1.824586E-1,-2.5659347E-2,-1.4989984E-1,-1.3187008E-1,-1.6487235E-1,1.377444E-1,3.884831E-2],"categories":[],"categories_nodes":[],"categories_segments":[],"categories_sizes":[],"default_left":[0,0,0,0,0,0,0,0,0,0,0,0,0,0,0,0,0,0,0,0,0,0,0,0,0,0,0,0,0,0,0,0,0,0,0,0,0,0,0,0,0,0,0,0,0,0,0,0,0,0,0,0,0,0,0,0,0,0,0,0,0,0,0,0,0,0,0,0,0,0,0,0,0,0,0,0,0,0,0,0,0,0,0,0,0,0,0,0,0,0,0,0,0,0,0,0,0,0,0,0,0,0,0,0,0,0,0,0,0,0,0,0,0,0,0,0,0,0,0,0,0,0,0,0,0,0,0,0,0,0,0,0,0,0,0,0,0,0,0,0,0,0,0,0,0,0,0,0,0,0,0,0,0,0,0,0,0,0,0,0,0,0,0,0,0,0,0,0,0,0,0,0,0,0,0,0,0,0,0,0,0,0,0,0,0,0,0,0,0,0,0],"id":5,"left_children":[1,3,5,7,9,-1,11,13,15,17,19,21,23,25,27,29,31,33,-1,35,37,39,41,-1,43,-1,45,-1,-1,47,-1,49,-1,51,53,55,57,59,-1,61,63,65,67,69,71,-1,73,75,77,79,81,83,-1,85,87,-1,-1,-1,-1,89,-1,-1,91,93,-1,95,-1,97,-1,-1,99,-1,101,-1,103,-1,105,-1,-1,-1,107,109,111,113,115,117,-1,-1,-1,-1,119,-1,-1,-1,-1,-1,-1,-1,-1,121,123,125,127,-1,-1,-1,129,131,133,135,-1,137,139,141,-1,143,145,147,-1,-1,-1,-1,-1,149,151,-1,153,-1,155,-1,-1,157,-1,-1,-1,-1,159,161,163,165,167,169,171,173,-1,175,177,-1,179,-1,-1,-1,181,183,185,187,189,-1,-1,-1,-1,-1,-1,-1,-1,-1,-1,-1,-1,-1,-1,-1,-1,-1,-1,-1,-1,-1,-1,-1,-1,-1,-1,-1,-1,-1,-1,-1,-1,-1,-1],"loss_changes":[1.0005586E2,5.3883156E1,2.0945282E1,1.3289448E1,3.1297573E1,0E0,3.541267E1,2.64501E0,6.2533474E0,5.317332E1,7.602196E-1,3.4947014E0,1.8013023E1,1.024807E0,1.0624063E0,2.6936235E0,4.5930977E0,2.3546711E1,0E0,2.0191536E0,4.7747803E-1,1.7548733E0,4.8586826E0,0E0,4.3534534E1,0E0,3.4477615E-1,0E0,0E0,6.2013574E0,0E0,4.5537114E0,0E0,4.6704727E1,9.981613E-1,9.518337E-2,1.011509E0,2.0277023E-1,0E0,5.8536553E-1,9.036248E-1,3.4384875E0,2.0760727E-1,2.9043903E0,2.1546524E1,0E0,1.3618469E-2,2.0848339E0,9.477804E-1,2.6150036E0,5.5199337E0,2.7632992E1,0E0,1.1339207E0,2.311964E-1,0E0,0E0,0E0,0E0,1.0245228E-1,0E0,0E0,5.429864E-1,3.513551E-1,0E0,8.63924E-2,0E0,3.7269306E-1,0E0,0E0,5.069828E-1,0E0,2.8158958E1,0E0,1.0958939E0,0E0,1.4764867E0,0E0,0E0,0E0,1.0833015E0,4.4810634E0,5.752257E0,6.713016E1,1.0772247E0,6.727562E-1,0E0,0E0,0E0,0E0,3.4831285E-1,0E0,0E0,0E0,0E0,0E0,0E0,0E0,0E0,5.1676106E-1,7.440243E-1,1.9496346E0,1.9645218E1,0E0,0E0,0E0,1.069639E0,1.7716918E0,2.0878506E-1,2.5110054E0,0E0,6.2080507E0,4.2836776E0,2.390749E1,0E0,5.4914665E-1,1.8469028E0,3.1723595E-1,0E0,0E0,0E0,0E0,0E0,1.8443391E0,4.3988037E-1,0E0,1.9362392E0,0E0,5.4140697E1,0E0,0E0,7.884908E-1,0E0,0E0,0E0,0E0,2.0828524E0,6.2333827E0,3.071982E0,2.4640499E-1,1.6527271E0,5.9649967E1,1.3334923E0,9.822855E-1,0E0,1.2735009E0,9.8495674E-1,0E0,7.890835E-1,0E0,0E0,0E0,5.520983E-1,9.290104E-1,2.1742034E0,1.970253E-1,1.7510582E1,0E0,0E0,0E0,0E0,0E0,0E0,0E0,0E0,0E0,0E0,0E0,0E0,0E0,0E0,0E0,0E0,0E0,0E0,0E0,0E0,0E0,0E0,0E0,0E0,0E0,0E0,0E0,0E0,0E0,0E0,0E0,0E0,0E0,0E0],"parents":[2147483647,0,0,1,1,2,2,3,3,4,4,6,6,7,7,8,8,9,9,10,10,11,11,12,12,13,13,14,14,15,15,16,16,17,17,19,19,20,20,21,21,22,22,24,24,26,26,29,29,31,31,33,33,34,34,35,35,36,36,37,37,39,39,40,40,41,41,42,42,43,43,44,44,46,46,47,47,48,48,49,49,50,50,51,51,53,53,54,54,59,59,62,62,63,63,65,65,67,67,70,70,72,72,74,74,76,76,80,80,81,81,82,82,83,83,84,84,85,85,90,90,99,99,100,100,101,101,102,102,106,106,107,107,108,108,109,109,111,111,112,112,113,113,115,115,116,116,117,117,123,123,124,124,126,126,128,128,131,131,136,136,137,137,138,138,139,139,140,140,141,141,142,142,143,143,145,145,146,146,148,148,152,152,153,153,154,154,155,155,156,156],"right_children":[2,4,6,8,10,-1,12,14,16,18,20,22,24,26,28,30,32,34,-1,36,38,40,42,-1,44,-1,46,-1,-1,48,-1,50,-1,52,54,56,58,60,-1,62,64,66,68,70,72,-1,74,76,78,80,82,84,-1,86,88,-1,-1,-1,-1,90,-1,-1,92,94,-1,96,-1,98,-1,-1,100,-1,102,-1,104,-1,106,-1,-1,-1,108,110,112,114,116,118,-1,-1,-1,-1,120,-1,-1,-1,-1,-1,-1,-1,-1,122,124,126,128,-1,-1,-1,130,132,134,136,-1,138,140,142,-1,144,146,148,-1,-1,-1,-1,-1,150,152,-1,154,-1,156,-1,-1,158,-1,-1,-1,-1,160,162,164,166,168,170,172,174,-1,176,178,-1,180,-1,-1,-1,182,184,186,188,190,-1,-1,-1,-1,-1,-1,-1,-1,-1,-1,-1,-1,-1,-1,-1,-1,-1,-1,-1,-1,-1,-1,-1,-1,-1,-1,-1,-1,-1,-1,-1,-1,-1,-1],"split_conditions":[6.41E1,8.8E1,6.5E1,2.3E1,6.4E1,1.3378642E-1,6.52E1,6.3E1,9.31E1,6.32E1,9.51E1,1.17E2,6.6E1,3.8E1,6.35E1,5.75E1,8.71E1,6.3E1,1.4024529E-1,9.41E1,1.403E2,1.044E2,9.61E1,1.3597636E-1,6.61E1,3.9380204E-2,9.11E1,-4.9054857E-2,7.26567E-2,5.01E1,-1.5656395E-1,9.57E1,1.4984034E-1,6.22E1,1.34E2,9.21E1,1.172E2,1.187E2,-8.278807E-2,9.8E1,9.91E1,1.371E2,9.81E1,9.91E1,6.7E1,6.8236046E-2,7.29E1,9.11E1,2.94E1,2.44E1,5.1E1,6.2E1,1.4026113E-1,1.293E2,9.41E1,-1.1520356E-1,-1.7196102E-1,-9.0833016E-2,2.1170491E-2,1.024E2,-1.7468388E-1,-2.5790209E-2,1.012E2,1.121E2,-5.4036826E-2,9.41E1,5.4003295E-2,1.281E2,-1.8357776E-1,-2.8049792E-4,9.48E1,1.352657E-1,6.72E1,1.3166128E-1,5.71E1,1.0013441E-2,9.21E1,1.4737947E-1,2.900118E-2,-5.3994384E-2,8.43E1,4.91E1,8.5E1,6.11E1,4.31E1,1.25E2,-1.9104645E-2,-1.02455795E-1,-1.7186382E-1,-1.6724013E-1,1.095E2,-1.4088173E-1,-5.5459596E-2,1.02933E-2,7.932641E-2,-7.1475506E-2,-1.15115784E-1,-1.6958378E-1,-9.954757E-2,1.376E2,1.092E2,9.65E1,6.8E1,4.56386E-2,1.3292223E-1,-1.9447057E-1,3.35E1,5.3E1,5.09E1,2.69E1,1.4425008E-1,8.02E1,2.99E1,6.1E1,1.4121409E-1,9.43E1,1.123E2,9.34E1,-1.7085212E-1,-7.932068E-2,-1.457089E-1,-3.954855E-2,-1.2360387E-1,1.053E2,1.242E2,1.5534589E-2,1.264E2,1.39995E-1,6.81E1,-1.375797E-1,-1.4388402E-2,4.19E1,-2.5977433E-2,9.052887E-2,1.5778331E-1,1.4359449E-1,8.43E1,9.91E1,8.4E1,8.61E1,9.81E1,6.01E1,1.156E2,9.61E1,-1.7221837E-1,1.083E2,1.358E2,-1.4903401E-1,1.062E2,-1.3852064E-1,1.4844713E-2,-1.7422912E-1,1.274E2,1.215E2,9.81E1,9.81E1,6.9E1,1.4199257E-1,6.794394E-2,7.7905506E-3,7.374217E-2,-1.2768775E-1,1.3355486E-1,1.1357128E-1,2.9088792E-3,-5.88404E-3,5.9057098E-2,-7.663739E-2,-1.912667E-1,-3.365862E-2,1.3969429E-1,-1.0154822E-1,-1.480686E-1,-1.669319E-1,-3.8554322E-2,-9.592333E-2,2.9502777E-2,-1.08667195E-1,-1.6944234E-1,-7.592936E-2,-1.1864366E-1,-7.378947E-2,-1.4285457E-1,-1.0205815E-1,-1.824586E-1,-2.5659347E-2,-1.4989984E-1,-1.3187008E-1,-1.6487235E-1,1.377444E-1,3.884831E-2],"split_indices":[3,4,3,6,3,0,3,3,5,3,5,4,3,3,3,3,4,3,0,5,4,4,5,0,3,0,5,0,0,3,0,5,0,3,4,5,4,4,0,4,5,4,5,4,3,0,4,5,6,6,3,3,0,4,5,0,0,0,0,4,0,0,4,4,0,5,0,4,0,0,5,0,3,0,3,0,5,0,0,0,4,3,4,3,6,4,0,0,0,0,4,0,0,0,0,0,0,0,0,4,4,4,3,0,0,0,6,3,3,6,0,4,6,3,0,4,4,4,0,0,0,0,0,4,4,0,4,0,3,0,0,3,0,0,0,0,4,5,4,4,5,3,4,5,0,4,4,0,4,0,0,0,4,4,5,5,3,0,0,0,0,0,0,0,0,0,0,0,0,0,0,0,0,0,0,0,0,0,0,0,0,0,0,0,0,0,0,0,0,0,0],"split_type":[0,0,0,0,0,0,0,0,0,0,0,0,0,0,0,0,0,0,0,0,0,0,0,0,0,0,0,0,0,0,0,0,0,0,0,0,0,0,0,0,0,0,0,0,0,0,0,0,0,0,0,0,0,0,0,0,0,0,0,0,0,0,0,0,0,0,0,0,0,0,0,0,0,0,0,0,0,0,0,0,0,0,0,0,0,0,0,0,0,0,0,0,0,0,0,0,0,0,0,0,0,0,0,0,0,0,0,0,0,0,0,0,0,0,0,0,0,0,0,0,0,0,0,0,0,0,0,0,0,0,0,0,0,0,0,0,0,0,0,0,0,0,0,0,0,0,0,0,0,0,0,0,0,0,0,0,0,0,0,0,0,0,0,0,0,0,0,0,0,0,0,0,0,0,0,0,0,0,0,0,0,0,0,0,0,0,0,0,0,0,0],"sum_hessian":[1.3938278E3,8.6767676E2,5.26151E2,1.106176E2,7.570592E2,2.0905018E1,5.05246E2,2.7606907E1,8.301069E1,7.331378E2,2.392134E1,2.4274658E1,4.8097134E2,2.4933718E1,2.67319E0,1.0666673E1,7.234402E1,7.1430786E2,1.8829962E1,7.7899656E0,1.6131374E1,9.38152E0,1.4893137E1,1.7899185E1,4.6307214E2,1.7550253E0,2.3178692E1,1.3685938E0,1.3045962E0,8.950675E0,1.715998E0,6.904101E1,3.3030095E0,6.8411194E2,3.0195919E1,4.414668E0,3.3752975E0,1.4919441E1,1.2119339E0,4.9036593E0,4.477861E0,6.0697846E0,8.823353E0,1.987908E1,4.4319308E2,1.543518E0,2.1635174E1,6.139803E0,2.8108714E0,1.3375703E1,5.5665302E1,6.676708E2,1.644116E1,2.5064474E1,5.1314445E0,1.4677187E0,2.9469492E0,2.1766462E0,1.1986513E0,6.831379E0,8.088061E0,1.5783763E0,3.3252833E0,3.0048263E0,1.4730345E0,3.9152708E0,2.1545136E0,4.3572416E0,4.4661117E0,2.137422E0,1.7741657E1,2.2661118E1,4.2053195E2,1.2882055E1,8.753119E0,1.8469635E0,4.2928395E0,1.5774695E0,1.233402E0,1.2066133E0,1.216909E1,3.2882854E1,2.278245E1,6.3982043E2,2.785038E1,2.3622387E1,1.4420868E0,1.2079536E0,3.9234908E0,2.1974409E0,4.6339383E0,1.6800932E0,1.64519E0,1.8274539E0,1.1773725E0,1.4826366E0,2.432634E0,2.2010765E0,2.1561651E0,3.1025121E0,1.4639146E1,2.0046925E1,4.0048505E2,1.9980279E0,6.7550917E0,1.487159E0,2.8056805E0,8.232909E0,3.9361806E0,2.9036709E1,3.8461447E0,1.518052E1,7.6019306E0,6.166685E2,2.315188E1,9.290943E0,1.8559435E1,2.1658426E1,1.9639609E0,1.6990883E0,2.93485E0,1.6381568E0,1.4643555E0,3.3342757E0,1.130487E1,1.9020344E0,1.814489E1,1.9050531E1,3.814345E2,1.1834705E0,1.6222101E0,6.821504E0,1.4114052E0,1.1857343E0,2.7504463E0,1.7414446E0,2.7295263E1,5.194465E0,9.986054E0,2.204117E0,5.397814E0,5.8913806E2,2.7530453E1,2.4520648E0,6.8388786E0,3.1011264E0,1.5458309E1,1.9351099E0,1.9723316E1,2.1613069E0,1.1729691E0,4.1754727E0,7.1293974E0,9.933362E0,8.211528E0,1.5670653E1,3.6576385E2,2.3713453E0,4.450159E0,2.1198013E1,6.09725E0,4.1163974E0,1.0780675E0,5.262558E0,4.7234964E0,1.1461003E0,1.0580167E0,2.648259E0,2.7495546E0,5.6866815E2,2.0469925E1,1.5221559E1,1.2308894E1,1.232726E0,1.2193388E0,1.6915287E0,1.4095978E0,1.1315154E1,4.1431546E0,8.440415E0,1.1282902E1,1.9606229E0,5.1687746E0,7.946704E0,1.9866579E0,6.4907246E0,1.720803E0,9.757273E0,5.91338E0,1.8799467E1,3.469644E2],"tree_param":{"num_deleted":"0","num_feature":"7","num_nodes":"191","size_leaf_vector":"1"}},{"base_weights":[9.280628E-3,-1.2383138E-1,4.418896E-1,9.338519E-1,-1.5948609E-1,6.1293525E-1,1.1459873E-2,9.9807817E-1,-9.284686E-2,-1.351294E-1,-1.4848796E0,7.543215E-1,1.3975091E-1,1.3943098E-1,-7.321048E-2,1.205025E0,8.0719E-1,-1.5634961E-1,1.3363282E-1,-1.8473971E0,-1.0140454E0,8.194755E-1,1.141192E-1,7.118731E-1,-1.315756E-1,-1.2003187E0,5.1002875E-3,1.308987E-1,1.0471815E0,7.134567E-1,1.2535714E-1,-1.7061429E-1,1.5040624E-1,-7.6222636E-2,-1.978842E-1,-7.816313E-2,-1.3866327E0,1.3977624E-1,7.6543486E-1,-8.6418945E-1,7.075219E-1,-1.696996E-1,1.0290222E0,-2.594175E-1,1.3399075E-1,-5.4365485E-3,-1.7905906E0,-3.327918E-1,3.5052243E-1,1.9867416E-3,1.2762198E-1,8.1212455E-1,7.6961066E-3,-3.6438534E-1,-5.20146E-2,-5.458073E-3,-9.584723E-3,-2.1914802E-1,-7.357521E-1,-4.9307996E-1,8.458458E-1,-1.4619601E0,-1.01133995E-2,1.0306424E0,-3.8994413E-2,2.6360017E-1,1.1784112E0,-6.997787E-1,1.03074044E-1,-2.1792224E-1,-1.083886E-1,-4.248742E-1,1.3476737E-1,1.4102994E-1,2.690358E-1,6.124409E-1,1.2860191E-1,-2.6440272E-1,-1.4994117E0,1.597999E-1,-1.0801357E-1,-1.7247353E-1,-1.4875258E-2,3.6580402E-1,-1.0014504E0,8.691685E-1,-2.0274746E-1,-7.353778E-2,-1.9860528E-1,1.2815312E-1,-1.1513411E-1,6.8956804E-1,1.3624257E-1,9.0904556E-2,-1.2385636E-1,1.2886395E-1,-4.7557022E-2,1.2339984E0,5.196025E-2,-1.4475648E0,-3.196186E-1,-1.2912626E0,3.3859724E-1,4.2757607E-1,-5.640619E-1,-1.0922642E0,3.7059185E-1,8.147662E-1,-2.0140164E-2,-3.5842887E-1,1.6001122E-1,-3.0740342E-1,-1.7482795E0,-1.1784457E0,-6.040611E-2,-7.793968E-2,9.943382E-1,-1.8046045E-1,-3.3616358E-1,1.4318512E-1,8.367651E-1,-9.694198E-2,7.838098E-2,1.3821535E-1,3.6482674E-1,1.2971019E0,5.6037124E-2,-2.0563146E-2,-1.7873502E0,8.042199E-2,-5.694401E-1,-2.0380297E-1,-1.9573145E-2,7.51067E-1,9.259755E-2,1.2043631E-1,1.3595174E-1,-4.0158007E-1,-1.3741627E0,-1.6076684E-1,-5.65488E-2,6.436344E-1,-3.0415624E-2,4.5091584E-1,1.0695138E0,-2.788945E-1,-1.2262886E0,1.1909584E-1,-1.0430781E0,-1.7787459E0,-1.1971507E-1,-1.8556897E-1,-1.0682843E0,1.5710042E-1,-1.0913196E-1,5.3489108E-2,1.3571443E-1,4.1945826E-2,-1.5143089E-1,-8.4812194E-1,9.008823E-1,-4.8157737E-2,1.2886241E-1,1.3887206E-1,9.0860665E-1,-2.1355565E-1,-8.563232E-2,-1.0566747E0,1.0297679E-1,1.3248378E-1,4.1800708E-1,-8.843019E-2,2.270744E-1,1.2664406E-1,-2.7473465E-1,-5.397019E-1,1.3228177E-1,1.40084205E-2,-1.8731909E0,9.7865E-1,3.9963016E-1,-1.1838038E-1,1.7543675E-1,8.1488214E-2,-1.4129034E-2,5.0192066E-2,1.2928884E-1,-3.5874747E-2,1.5846251E-1,-4.6195146E-2,-1.349743E-1,-5.3567745E-2,-1.3789977E-1,-1.6414586E-1,-1.908028E-1,-4.2091426E-2,-1.24165766E-1,-1.1661583E-1,-5.4059494E-3,-1.8311534E-2,-2.2192943E-1,1.3719034E-1,8.519464E-2,5.253399E-2,1.2784134E-1,-1.5220764E-1,-3.6698464E-2,5.381586E-2,-5.7253517E-2,-9.497108E-2,1.00569524E-1,9.0200625E-2,-8.93878E-4,-9.356787E-2,6.831664E-2,-3.3950187E-2,-1.575936E-1,-9.107308E-2,-2.2028089E-1,-1.2977076E-4,1.1514553E-1,9.275145E-3,8.452351E-2,1.3041599E-1,-3.1586566E-3],"categories":[],"categories_nodes":[],"categories_segments":[],"categories_sizes":[],"default_left":[0,0,0,0,0,0,0,0,0,0,0,0,0,0,0,0,0,0,0,0,0,0,0,0,0,0,0,0,0,0,0,0,0,0,0,0,0,0,0,0,0,0,0,0,0,0,0,0,0,0,0,0,0,0,0,0,0,0,0,0,0,0,0,0,0,0,0,0,0,0,0,0,0,0,0,0,0,0,0,0,0,0,0,0,0,0,0,0,0,0,0,0,0,0,0,0,0,0,0,0,0,0,0,0,0,0,0,0,0,0,0,0,0,0,0,0,0,0,0,0,0,0,0,0,0,0,0,0,0,0,0,0,0,0,0,0,0,0,0,0,0,0,0,0,0,0,0,0,0,0,0,0,0,0,0,0,0,0,0,0,0,0,0,0,0,0,0,0,0,0,0,0,0,0,0,0,0,0,0,0,0,0,0,0,0,0,0,0,0,0,0,0,0,0,0,0,0,0,0,0,0,0,0,0,0,0,0,0,0,0,0,0,0,0,0,0,0,0,0,0,0,0,0,0,0],"id":6,"left_children":[1,3,5,7,9,11,13,15,-1,17,19,21,23,-1,25,27,29,31,-1,33,35,37,39,41,43,45,47,-1,49,51,-1,53,-1,-1,-1,55,57,-1,59,61,63,-1,65,67,-1,-1,69,71,73,-1,-1,75,-1,77,79,-1,-1,-1,81,83,85,87,89,91,93,95,97,99,101,-1,-1,103,-1,-1,105,107,-1,109,111,-1,113,-1,-1,115,117,119,121,-1,-1,-1,-1,123,-1,-1,-1,-1,-1,125,-1,127,129,131,133,135,137,139,141,143,-1,145,-1,147,149,151,153,-1,155,-1,157,-1,159,-1,-1,-1,161,163,-1,-1,165,-1,167,-1,-1,169,171,173,-1,175,177,-1,-1,179,181,183,185,187,189,-1,191,193,-1,-1,195,-1,197,-1,-1,-1,-1,199,201,-1,-1,-1,203,-1,-1,205,207,-1,209,-1,211,-1,213,215,-1,-1,217,219,221,-1,223,-1,-1,-1,-1,-1,-1,-1,-1,-1,-1,-1,-1,-1,-1,-1,-1,-1,-1,-1,-1,-1,-1,-1,-1,-1,-1,-1,-1,-1,-1,-1,-1,-1,-1,-1,-1,-1,-1,-1,-1,-1,-1],"loss_changes":[7.878934E1,3.9471764E1,2.370121E1,4.175541E0,3.2657593E1,1.5402466E1,1.0741516E1,1.2081337E0,0E0,3.1061142E1,2.9287643E0,7.3885727E0,8.255889E0,0E0,7.6319704E0,1.197834E-1,6.42457E-1,2.3238394E1,0E0,1.3030968E0,2.8357258E0,4.923172E0,9.639241E0,1.3242233E1,6.8293667E0,3.7899704E0,9.458909E0,0E0,1.5776134E0,9.162302E-1,0E0,2.2331072E1,0E0,0E0,0E0,4.9046054E-4,2.8943844E0,0E0,1.4960861E1,3.2017574E0,2.4944801E0,0E0,1.7043724E0,5.3252926E0,0E0,0E0,7.812176E-1,6.396787E0,3.4227538E0,0E0,0E0,1.1236792E0,0E0,4.182987E1,5.5728657E1,0E0,0E0,0E0,1.9339074E0,3.9300616E0,3.407425E0,1.259171E0,4.1038923E0,7.2188616E-1,3.7691274E0,2.0367365E0,3.99868E-1,4.2335415E0,6.073329E0,0E0,0E0,4.641561E0,0E0,0E0,5.2021513E0,1.5199018E0,0E0,5.952397E1,8.800644E0,0E0,2.9715408E1,0E0,0E0,2.5167062E0,2.9466562E0,2.3527603E0,2.418379E0,0E0,0E0,0E0,0E0,7.9465723E-1,0E0,0E0,0E0,0E0,0E0,4.208889E-1,0E0,2.0925102E0,2.8840537E0,2.1477098E0,1.5948764E0,1.56343E0,4.3539267E0,6.197014E-1,3.8143563E0,6.314378E-1,0E0,2.226073E1,0E0,5.940679E0,2.013092E-1,1.6542206E0,4.4414604E1,0E0,2.994368E-1,0E0,2.9133446E0,0E0,1.3954742E1,0E0,0E0,0E0,2.1684043E0,2.4899864E-1,0E0,0E0,1.0972948E0,0E0,2.7397518E0,0E0,0E0,1.0690005E0,1.3341686E0,1.9643989E0,0E0,6.7504163E0,4.2237406E0,0E0,0E0,1.6545753E0,3.3922076E0,6.99653E-1,4.7268677E-1,4.410578E1,2.4935608E0,0E0,5.3842664E-1,9.8098755E-2,0E0,0E0,2.3711262E0,0E0,3.1569138E1,0E0,0E0,0E0,0E0,4.300646E0,2.736847E0,0E0,0E0,0E0,2.589277E-1,0E0,0E0,1.4972334E0,1.0863734E0,0E0,3.2052617E0,0E0,1.4140745E0,0E0,2.1218827E0,5.347299E0,0E0,0E0,1.1270189E0,1.4670057E0,1.654574E0,0E0,2.8400636E0,0E0,0E0,0E0,0E0,0E0,0E0,0E0,0E0,0E0,0E0,0E0,0E0,0E0,0E0,0E0,0E0,0E0,0E0,0E0,0E0,0E0,0E0,0E0,0E0,0E0,0E0,0E0,0E0,0E0,0E0,0E0,0E0,0E0,0E0,0E0,0E0,0E0,0E0,0E0,0E0,0E0,0E0],"parents":[2147483647,0,0,1,1,2,2,3,3,4,4,5,5,6,6,7,7,9,9,10,10,11,11,12,12,14,14,15,15,16,16,17,17,19,19,20,20,21,21,22,22,23,23,24,24,25,25,26,26,28,28,29,29,31,31,35,35,36,36,38,38,39,39,40,40,42,42,43,43,46,46,47,47,48,48,51,51,53,53,54,54,58,58,59,59,60,60,61,61,62,62,63,63,64,64,65,65,66,66,67,67,68,68,71,71,74,74,75,75,77,77,78,78,80,80,83,83,84,84,85,85,86,86,91,91,97,97,99,99,100,100,101,101,102,102,103,103,104,104,105,105,106,106,107,107,109,109,111,111,112,112,113,113,114,114,116,116,118,118,120,120,124,124,125,125,128,128,130,130,133,133,134,134,135,135,137,137,138,138,141,141,142,142,143,143,144,144,145,145,146,146,148,148,149,149,152,152,154,154,159,159,160,160,164,164,167,167,168,168,170,170,172,172,174,174,175,175,178,178,179,179,180,180,182,182],"right_children":[2,4,6,8,10,12,14,16,-1,18,20,22,24,-1,26,28,30,32,-1,34,36,38,40,42,44,46,48,-1,50,52,-1,54,-1,-1,-1,56,58,-1,60,62,64,-1,66,68,-1,-1,70,72,74,-1,-1,76,-1,78,80,-1,-1,-1,82,84,86,88,90,92,94,96,98,100,102,-1,-1,104,-1,-1,106,108,-1,110,112,-1,114,-1,-1,116,118,120,122,-1,-1,-1,-1,124,-1,-1,-1,-1,-1,126,-1,128,130,132,134,136,138,140,142,144,-1,146,-1,148,150,152,154,-1,156,-1,158,-1,160,-1,-1,-1,162,164,-1,-1,166,-1,168,-1,-1,170,172,174,-1,176,178,-1,-1,180,182,184,186,188,190,-1,192,194,-1,-1,196,-1,198,-1,-1,-1,-1,200,202,-1,-1,-1,204,-1,-1,206,208,-1,210,-1,212,-1,214,216,-1,-1,218,220,222,-1,224,-1,-1,-1,-1,-1,-1,-1,-1,-1,-1,-1,-1,-1,-1,-1,-1,-1,-1,-1,-1,-1,-1,-1,-1,-1,-1,-1,-1,-1,-1,-1,-1,-1,-1,-1,-1,-1,-1,-1,-1,-1,-1],"split_conditions":[6.91E1,2.3E1,1.05E2,6.87E1,6.9E1,9.98E1,7E1,1.7E1,-9.284686E-2,6.81E1,5.92E1,8.3E1,8E1,1.3943098E-1,2.22E1,9.9E1,1.11E2,1.001E2,1.3363282E-1,9.31E1,6.53E1,7E1,8.1E1,6.2E1,1.001E2,7.64E1,7.52E1,1.308987E-1,1.04E2,1.07E2,1.2535714E-1,5.41E1,1.5040624E-1,-7.6222636E-2,-1.978842E-1,8.4E1,8.71E1,1.3977624E-1,7.03E1,7.52E1,1E2,-1.696996E-1,6.62E1,4.82E1,1.3399075E-1,-5.4365485E-3,1.39E1,1.36E2,7.59E1,1.9867416E-3,1.2762198E-1,9.8E1,7.6961066E-3,5.4E1,5.5E1,-5.458073E-3,-9.584723E-3,-2.1914802E-1,6.91E1,8.1E1,9.37E1,7.13E1,7.68E1,9.61E1,7.56E1,6.4E1,7.84E1,7.21E1,8.1E1,-2.1792224E-1,-1.083886E-1,3.7E1,1.3476737E-1,1.4102994E-1,7.64E1,9.01E1,1.2860191E-1,5.32E1,9.47E1,1.597999E-1,5.52E1,-1.7247353E-1,-1.4875258E-2,6.2E1,9.3E1,7.1E1,4.03E1,-7.353778E-2,-1.9860528E-1,1.2815312E-1,-1.1513411E-1,7.16E1,1.3624257E-1,9.0904556E-2,-1.2385636E-1,1.2886395E-1,-4.7557022E-2,8.2E1,5.196025E-2,8.71E1,7.4E1,6.13E1,5.9E1,3.43E1,7.4E1,9.81E1,1.15E2,5.71E1,-2.0140164E-2,5.3E1,1.6001122E-1,4.82E1,1.11E2,7.3E1,5.6E1,-7.793968E-2,5.46E1,-1.8046045E-1,6.32E1,1.4318512E-1,7.11E1,-9.694198E-2,7.838098E-2,1.3821535E-1,7.64E1,8.14E1,5.6037124E-2,-2.0563146E-2,4.31E1,8.042199E-2,8.22E1,-2.0380297E-1,-1.9573145E-2,7.2E1,5.98E1,2.56E1,1.3595174E-1,7.32E1,1.084E2,-1.6076684E-1,-5.65488E-2,9.62E1,3.35E1,5.29E1,1.92E1,5.22E1,3.71E1,1.1909584E-1,7.3E1,8.51E1,-1.1971507E-1,-1.8556897E-1,8.2E1,1.5710042E-1,5.62E1,5.3489108E-2,1.3571443E-1,4.1945826E-2,-1.5143089E-1,9.01E1,7.2E1,-4.8157737E-2,1.2886241E-1,1.3887206E-1,8.62E1,-2.1355565E-1,-8.563232E-2,9.01E1,3.69E1,1.3248378E-1,7.41E1,-8.843019E-2,6.7E1,1.2664406E-1,9.81E1,7.28E1,1.3228177E-1,1.40084205E-2,4.65E1,3.61E1,9.81E1,-1.1838038E-1,4.26E1,8.1488214E-2,-1.4129034E-2,5.0192066E-2,1.2928884E-1,-3.5874747E-2,1.5846251E-1,-4.6195146E-2,-1.349743E-1,-5.3567745E-2,-1.3789977E-1,-1.6414586E-1,-1.908028E-1,-4.2091426E-2,-1.24165766E-1,-1.1661583E-1,-5.4059494E-3,-1.8311534E-2,-2.2192943E-1,1.3719034E-1,8.519464E-2,5.253399E-2,1.2784134E-1,-1.5220764E-1,-3.6698464E-2,5.381586E-2,-5.7253517E-2,-9.497108E-2,1.00569524E-1,9.0200625E-2,-8.93878E-4,-9.356787E-2,6.831664E-2,-3.3950187E-2,-1.575936E-1,-9.107308E-2,-2.2028089E-1,-1.2977076E-4,1.1514553E-1,9.275145E-3,8.452351E-2,1.3041599E-1,-3.1586566E-3],"split_indices":[3,6,1,3,3,5,3,6,0,3,6,6,1,0,6,1,1,5,0,5,6,3,1,1,5,3,3,0,1,1,0,3,0,0,0,1,1,0,3,3,1,0,1,6,0,0,6,1,3,0,0,1,0,3,3,0,0,0,6,1,3,3,1,5,3,1,1,3,1,0,0,6,0,0,3,1,0,3,5,0,3,0,0,1,1,3,6,0,0,0,0,3,0,0,0,0,0,6,0,1,3,6,6,6,3,5,1,3,0,3,0,6,1,1,3,0,6,0,6,0,3,0,0,0,3,3,0,0,6,0,3,0,0,3,6,6,0,3,1,0,0,5,6,3,6,3,6,0,1,1,0,0,1,0,3,0,0,0,0,1,3,0,0,0,3,0,0,1,6,0,3,0,6,0,5,3,0,0,6,6,5,0,6,0,0,0,0,0,0,0,0,0,0,0,0,0,0,0,0,0,0,0,0,0,0,0,0,0,0,0,0,0,0,0,0,0,0,0,0,0,0,0,0,0,0],"split_type":[0,0,0,0,0,0,0,0,0,0,0,0,0,0,0,0,0,0,0,0,0,0,0,0,0,0,0,0,0,0,0,0,0,0,0,0,0,0,0,0,0,0,0,0,0,0,0,0,0,0,0,0,0,0,0,0,0,0,0,0,0,0,0,0,0,0,0,0,0,0,0,0,0,0,0,0,0,0,0,0,0,0,0,0,0,0,0,0,0,0,0,0,0,0,0,0,0,0,0,0,0,0,0,0,0,0,0,0,0,0,0,0,0,0,0,0,0,0,0,0,0,0,0,0,0,0,0,0,0,0,0,0,0,0,0,0,0,0,0,0,0,0,0,0,0,0,0,0,0,0,0,0,0,0,0,0,0,0,0,0,0,0,0,0,0,0,0,0,0,0,0,0,0,0,0,0,0,0,0,0,0,0,0,0,0,0,0,0,0,0,0,0,0,0,0,0,0,0,0,0,0,0,0,0,0,0,0,0,0,0,0,0,0,0,0,0,0,0,0,0,0,0,0,0,0],"sum_hessian":[1.368021E3,1.0461854E3,3.2183557E2,3.4034866E1,1.0121506E3,2.3028265E2,9.155292E1,3.2945087E1,1.0897783E0,9.939942E2,1.8156376E1,1.7725879E2,5.3023872E1,5.1930146E0,8.63599E1,1.5552717E1,1.7392372E1,9.799515E2,1.40427265E1,1.0092962E1,8.063414E0,1.6085992E2,1.6398857E1,1.7004862E1,3.6019012E1,5.5173426E0,8.084256E1,8.937096E0,6.615622E0,1.4588781E1,2.8035898E0,9.7169336E2,8.25813E0,1.1639135E0,8.929049E0,2.3305092E0,5.732905E0,1.3535068E1,1.4732486E2,6.174192E0,1.0224665E1,1.9277534E0,1.5077107E1,3.3215622E1,2.8033905E0,1.9128835E0,3.604459E0,4.086857E1,3.997399E1,1.2258674E0,5.389755E0,1.2606901E1,1.981881E0,3.6885E2,6.028434E2,1.1738198E0,1.1566895E0,2.4574482E0,3.2754567E0,8.816971E0,1.3850789E2,3.5902147E0,2.5839772E0,7.109391E0,3.1152737E0,2.5072434E0,1.2569864E1,1.4954989E1,1.8260633E1,2.1911407E0,1.4133183E0,3.8816315E1,2.0522525E0,2.7377245E0,3.7236267E1,9.030837E0,3.5760636E0,3.3910233E2,2.9747675E1,1.9697632E1,5.8314575E2,1.1478032E0,2.1276536E0,3.2887397E0,5.5282307E0,1.3551099E2,2.9969065E0,1.6051751E0,1.9850395E0,1.2063421E0,1.3776351E0,3.6574037E0,3.4519877E0,1.753596E0,1.3616778E0,1.0193422E0,1.4879013E0,1.1511288E1,1.0585766E0,4.945758E0,1.0009232E1,2.5739813E0,1.5686651E1,5.41923E0,3.3397083E1,2.5173337E0,3.4718933E1,7.2326508E0,1.7981865E0,3.228995E2,1.6202812E1,5.176619E0,2.4571056E1,2.4729897E1,5.5841583E2,1.1568804E0,2.1318595E0,2.4270146E0,3.101216E0,7.1436205E0,1.2836737E2,1.6873623E0,1.3095441E0,1.063541E0,2.5938625E0,1.04406805E1,1.0706068E0,1.096932E0,3.8488257E0,1.7799757E0,8.229256E0,1.4794711E0,1.0945101E0,5.783723E0,9.902929E0,4.1608596E0,1.2583706E0,2.7942278E1,5.4548073E0,1.1686867E0,1.348647E0,2.0619078E1,1.4099857E1,3.0925848E0,4.1400657E0,2.9591293E2,2.6986582E1,1.6842961E0,3.4923227E0,2.3072842E1,1.498215E0,3.238138E0,2.149176E1,1.6104088E1,5.4231177E2,1.0498241E0,1.0820353E0,1.9286457E0,1.1725703E0,4.661023E0,1.2370634E2,1.3786144E0,1.2152482E0,8.239987E0,2.200693E0,2.7070184E0,1.1418074E0,4.7385488E0,3.4907072E0,2.0148726E0,3.76885E0,1.1307892E0,8.77214E0,1.0103484E0,3.150511E0,2.5933725E1,2.0085526E0,1.3699056E0,4.0849013E0,8.562189E0,1.2056888E1,2.0634272E0,1.203643E1,1.8921065E0,1.2004783E0,1.2608788E0,2.8791869E0,2.8383133E2,1.20815935E1,3.8186388E0,2.3167942E1,1.4944494E0,1.9978734E0,1.1854241E1,1.12186E1,4.6123147E0,1.6879444E1,2.6756021E1,5.155557E2,3.2150881E0,1.445935E0,1.1388222E1,1.12318115E2,1.1995451E0,1.0011477E0,2.7572627E0,1.9812858E0,2.1353767E0,1.3553303E0,1.1141964E0,2.6546538E0,2.1996293E0,6.5725107E0,1.8655893E0,1.2849218E0,2.1845875E1,4.0878506E0,1.1380827E0,2.9468188E0,1.2984067E0,7.263782E0,7.211378E0,4.8455095E0,1.7833534E0,1.0253077E1],"tree_param":{"num_deleted":"0","num_feature":"7","num_nodes":"225","size_leaf_vector":"1"}},{"base_weights":[6.767996E-3,1.3191155E0,-2.80987E-1,1.4054122E0,1.0333155E0,-6.975467E-1,1.1496066E0,1.2777954E0,1.4338721E-1,1.5044346E-1,1.1055591E0,2.0421052E-1,-7.527383E-1,5.196821E-1,1.2525785E0,1.3506779E-1,1.0007602E0,1.3302387E-1,-8.303681E-1,1.1427275E0,-1.0309816E-2,-9.253136E-1,3.1801045E-1,-8.6193657E-1,-4.008027E-1,1.0141342E0,-3.2827297E-1,-3.4402823E-1,1.2760136E0,1.3178547E-1,7.5122803E-1,-1.6017917E-1,-3.936224E-3,1.3230901E0,8.579511E-1,-1.4388502E0,1.0603585E-3,1.3746151E-1,2.3684007E-1,-8.753639E-1,1.5427947E-1,2.861566E-1,-6.6391546E-1,5.462499E-1,1.2480434E0,-1.04133464E-1,-1.4235696E-1,-6.137352E-2,9.54914E-3,1.2983586E0,6.1254334E-1,2.7434334E-2,1.0038521E0,1.4296734E-1,8.9188045E-1,9.751458E-1,6.5824166E-2,-1.8001899E-1,-9.7188376E-2,-4.144167E-1,4.1881946E-1,1.536448E-1,-9.054177E-1,-2.3007098E-1,6.279685E-1,1.5232506E-1,-7.4292684E-1,1.3131323E-1,3.0062956E-1,1.3903512E-1,1.0768138E0,1.3759279E-1,-1.19224265E-1,1.1204636E0,1.3499783E0,-4.5114547E-1,1.3853514E-1,4.63161E-2,1.3053201E-1,3.6020935E-1,1.4199899E-1,3.8978985E-1,1.1139013E0,-7.360554E-2,7.343541E-2,-7.2196335E-1,1.2878726E-1,1.4459932E-1,3.0703965E-1,-4.3155077E-1,5.735466E-1,-1.0699159E0,-8.1615657E-1,1.4365506E-1,-4.027173E-1,7.149772E-1,-4.0704247E-2,-1.6579604E0,-6.618681E-1,-6.7787424E-2,5.893013E-1,5.5419457E-1,1.4797086E-1,-1.6527678E-1,9.527337E-1,1.1991932E0,7.1516883E-1,1.3547666E0,8.900329E-2,2.3577569E-2,-1.2658148E-1,9.4153166E-2,-6.6788115E-2,-7.131999E-2,1.0387428E0,1.4540268E-1,1.0219908E0,-1.149117E0,-2.3166636E-1,1.409696E-1,2.3160997E-1,-1.3518385E0,4.2958066E-1,1.3276105E-1,1.4745942E-1,-1.1657504E0,-8.2224816E-1,-5.2896994E-1,-9.333063E-1,-9.667964E-1,-7.965831E-2,-4.0452324E-2,7.709581E-1,-8.850138E-1,1.3166371E-1,-1.3559641E-1,-1.773078E-1,1.4491057E-1,-7.22219E-1,1.3648593E-1,-3.11639E-1,-2.8841108E-2,9.74695E-1,-6.425454E-1,1.5847561E-1,1.287107E-1,4.3435995E-2,4.8806183E-2,1.2178885E0,1.0616254E0,-4.9007095E-2,1.3022448E0,1.3891104E-1,1.3221522E-1,7.021772E-2,8.877592E-1,1.3792616E-1,-1.5722805E-1,-7.136464E-2,4.935063E-2,-1.0003954E-1,3.7870976E-1,-3.0513033E-1,-2.1314259E-1,-5.5957563E-2,-8.297871E-3,6.6893697E-1,4.2845327E-1,-1.2743965E-1,-1.2158158E0,-7.500437E-1,-7.171421E-1,-1.429758E0,-5.853003E-1,1.6888449E-1,1.5758178E-1,-9.438591E-1,2.4391117E-3,-1.2996572E0,-1.4173968E-1,2.0848896E-1,9.271087E-1,1.9674526E-1,-1.5042791E-1,-1.5034516E-2,-5.888832E-1,-1.144022E0,-1.1518693E-1,5.6509882E-2,1.3826118E-1,4.5766253E-2,-9.482214E-3,-1.0961049E-1,-6.9564186E-2,5.185336E-1,1.2967335E0,1.0820895E0,1.3437101E-1,6.716517E-1,-8.179352E-2,6.600267E-2,1.346485E0,1.1621997E0,1.1462777E-1,6.3096635E-2,-8.374952E-3,5.632613E-2,-8.653422E-2,7.341982E-2,4.769024E-3,1.2470166E-1,1.2863468E-1,-3.0866934E-2,-1.9794704E-1,-1.1898042E-1,1.4157288E-1,-9.772177E-2,1.2755694E-3,-8.046799E-2,-1.5375708E-1,-1.1338736E-1,-6.7069256E-3,-6.6435196E-2,-1.015612E-1,-7.358513E-2,-1.7693584E-1,-4.462688E-2,-1.452263E-2,8.7886244E-2,1.4005747E-1,7.937216E-2,-2.8942138E-2,7.396512E-2,-6.4289786E-2,7.4827544E-2,-9.7292535E-2,-1.5591916E-1,1.4236574E-1,-2.9778717E-2,1.1792345E-1,1.4281178E-1,1.2290132E-1,6.405273E-2,1.360839E-1,-1.6528077E-2,1.363418E-1,1.1375942E-1,6.1160292E-2,1.255423E-1],"categories":[],"categories_nodes":[],"categories_segments":[],"categories_sizes":[],"default_left":[0,0,0,0,0,0,0,0,0,0,0,0,0,0,0,0,0,0,0,0,0,0,0,0,0,0,0,0,0,0,0,0,0,0,0,0,0,0,0,0,0,0,0,0,0,0,0,0,0,0,0,0,0,0,0,0,0,0,0,0,0,0,0,0,0,0,0,0,0,0,0,0,0,0,0,0,0,0,0,0,0,0,0,0,0,0,0,0,0,0,0,0,0,0,0,0,0,0,0,0,0,0,0,0,0,0,0,0,0,0,0,0,0,0,0,0,0,0,0,0,0,0,0,0,0,0,0,0,0,0,0,0,0,0,0,0,0,0,0,0,0,0,0,0,0,0,0,0,0,0,0,0,0,0,0,0,0,0,0,0,0,0,0,0,0,0,0,0,0,0,0,0,0,0,0,0,0,0,0,0,0,0,0,0,0,0,0,0,0,0,0,0,0,0,0,0,0,0,0,0,0,0,0,0,0,0,0,0,0,0,0,0,0,0,0,0,0,0,0,0,0,0,0,0,0,0,0,0,0,0,0,0,0,0,0,0,0,0,0,0,0,0,0,0,0,0,0,0,0],"id":7,"left_children":[1,3,5,7,9,11,13,15,-1,17,19,21,23,25,27,-1,29,-1,31,33,-1,35,37,39,41,43,45,47,49,-1,51,-1,-1,53,55,57,-1,-1,59,61,-1,63,65,67,69,71,-1,-1,-1,73,75,-1,77,-1,79,81,83,-1,-1,85,87,89,91,93,95,-1,97,-1,99,-1,101,103,-1,105,107,109,-1,-1,-1,111,-1,113,115,-1,-1,117,-1,-1,119,121,123,125,127,-1,129,131,133,135,137,-1,139,141,-1,143,145,147,149,151,-1,-1,-1,-1,-1,-1,153,-1,155,157,159,-1,161,163,165,-1,167,169,171,173,175,177,179,-1,181,183,-1,-1,-1,-1,185,-1,187,-1,189,191,193,-1,-1,-1,195,197,199,201,-1,-1,-1,203,-1,-1,-1,-1,-1,205,207,-1,-1,-1,209,211,-1,213,215,217,219,221,-1,-1,223,-1,225,-1,227,229,231,-1,-1,233,235,-1,-1,-1,-1,-1,-1,-1,237,239,241,-1,243,-1,-1,245,247,-1,-1,-1,-1,-1,-1,-1,-1,-1,-1,-1,-1,-1,-1,-1,-1,-1,-1,-1,-1,-1,-1,-1,-1,-1,-1,-1,-1,-1,-1,-1,-1,-1,-1,-1,-1,-1,-1,-1,-1,-1,-1,-1,-1,-1,-1],"loss_changes":[5.1677594E2,5.9243774E0,6.689259E2,5.022888E-1,3.6477852E0,4.328067E1,1.6355133E1,5.782852E-1,0E0,5.27296E0,2.3968353E0,6.4841723E0,3.1447845E1,1.5017259E1,8.182312E0,0E0,5.1388836E-1,0E0,1.517786E0,2.5324707E0,0E0,2.222883E0,3.8864045E0,2.031961E1,3.511592E1,2.4051151E0,3.2353396E0,3.8817847E-1,3.0987244E0,0E0,5.226908E-1,0E0,0E0,1.3135757E0,1.8743887E0,3.287177E-1,0E0,0E0,5.060788E0,1.9240875E1,0E0,9.515545E0,2.4381222E1,1.4128163E0,2.1552277E-1,2.935428E0,0E0,